词语数量: 248    嵌入维度: 100
最后 -0.0037916456 0.0007880108 0.0003590755 0.0013097523 0.0014938947 9.512573e-05 0.0027478184 0.003727672 -0.000105996834 -0.004068632 -0.004978299 0.0024599817 -0.0016024268 -0.0027330485 0.0033511654 -0.0015891315 0.003048053 0.0005773402 0.0013187837 -0.0045000343 -0.0012120616 0.0034937083 0.0041190065 -0.0025149593 0.004090458 0.0025252402 -0.0036663574 -0.0044882637 0.0046162866 -0.004582137 0.003916356 -0.002316181 -0.0002743001 -0.004317658 0.002763807 0.0040820977 -0.00023296574 0.003504647 -0.0017202948 0.0027823008 0.003960606 -0.001658638 -0.0028934127 0.005041144 0.003694566 0.0022154022 0.004926066 -0.00031069596 0.003885779 -0.001461408 -0.00030585623 -0.0015303205 -0.0027670634 0.0027778442 -0.00080915104 -0.0038211697 -0.004413979 -0.0042590965 0.0020447655 -0.0031924648 0.0017740323 -0.0021242062 0.003850766 -0.004576478 -0.0031786768 -0.0030384886 -0.0027077377 -0.0005741532 0.0010306083 -0.0044003697 -0.0027309638 0.0037663728 -0.0020884543 0.0029983914 0.004280567 -0.0008508934 0.0014299417 0.0027260354 0.0017824945 -0.00041950092 -0.0035551884 0.0017777638 -0.0032431076 -9.429565e-05 0.004050236 0.00051062385 0.002666832 0.0013897802 0.000703588 -0.0031634476 -0.0027774267 0.0025767793 -0.0023822994 0.00041608655 0.0025907785 0.0026247255 -0.0016189856 -0.0016822201 4.143272e-05 -0.0018816736
那个 -3.197215e-05 -0.0015555632 0.00019057539 0.00083665847 0.004784179 -0.003996838 -0.0005894189 -0.0032828727 0.0032585366 -0.00012266808 -0.0006419428 0.00030845578 -0.0019134221 0.0011760783 -0.0031060565 0.0003530795 0.00022661957 0.00037901386 0.0030645966 0.00018273697 0.0030716676 0.001667116 -0.003112084 0.0011693878 0.0014327201 -0.0019547357 -0.0018759563 8.705182e-05 -0.0040106545 -0.0006059285 -0.0018593796 -0.0033539406 -0.0008546935 0.0023848803 0.004682586 0.003435109 0.0033357686 -0.00046034448 0.0038584345 -0.0038211434 0.0020017275 -0.004630688 0.003970755 -0.0049011325 -0.0011041863 -6.222288e-05 0.0036694666 0.0047436883 -0.0005349999 -0.0033482062 -0.00038049062 -0.0010305084 5.741119e-05 0.001189775 -0.0006235346 -0.003887037 -0.0024331135 -0.0012053078 -0.0018856978 0.0022415915 0.00019844073 0.00033455578 0.0035756258 0.0011116854 -0.0046180952 0.0043868986 0.0023442223 -0.00420207 -0.0023356967 -0.0010712338 0.00031924451 -0.0037471817 0.0014846541 0.00087915914 -0.003824544 0.0026731186 0.00015809502 0.00099369 0.004807571 0.0017271724 -1.26192335e-05 -0.00057035807 0.002005249 0.0017000602 -0.0044457656 0.00086274726 -0.0021144655 -0.0026372098 0.0027217579 -0.002187688 -0.0024081455 -0.0022703486 -0.0049299947 -0.0036370854 0.0011870078 0.003153282 -0.0027914683 0.0031604073 -0.0025023525 -0.00032200382
问题 0.004207333 -0.0049554487 0.0018340978 -0.00075753516 -0.0018785609 0.000638242 0.0008390531 0.00467431 -0.003757658 -0.0026766036 0.0030624166 0.0012169738 -0.002828261 0.0045138616 0.0031519793 0.0018899841 0.0012654066 -0.0005158472 0.0036952284 0.0020762424 3.6787576e-05 -0.00011082669 0.0019198135 -0.0032629026 0.0033041344 0.00050939573 -0.0038791085 -0.0030490074 -0.0049243313 0.0036453076 -0.00043648022 -0.0035675652 -0.0029808397 -0.0039042425 -0.0035516932 -0.0021978533 -0.0044222516 -0.0020595607 0.0023850992 0.0023453485 -0.0006346769 0.00404661 0.0015313337 0.0047002686 -0.0046983412 0.00051180925 -0.0028629294 -0.0025935322 -0.003413469 -0.00024164596 -0.0047089783 -0.0050328597 0.0028210045 0.00047942993 -0.00416262 0.0051025585 0.0042150575 0.0031259283 0.0021256972 -0.0004511266 -0.003954217 -0.0029319853 0.0020125515 0.0019284128 -0.0039448044 0.0035274378 0.0037089349 -0.0050228285 0.001514205 -0.003887838 -0.0011168311 -0.0046961745 0.0012051509 0.0044288714 0.00050431176 0.00041263443 0.0007283246 0.0021200145 -0.0033178409 -0.0048882384 0.0034797164 -0.0017517995 -0.0016291274 0.00068539794 0.002039912 -0.0047477344 -0.0017114532 0.0027709757 0.0001238538 -0.0020910094 0.0018860807 0.002473566 0.002128327 0.0019090194 0.0051418296 0.0034961172 -0.0025063388 -0.000105744664 0.0009003477 0.004412047
答案 -0.00017323208 0.0022778355 -0.0049603246 0.001931149 0.00036071986 -0.0004244424 -0.0018068486 -0.0014332283 0.0014424414 0.0016979043 0.00017718326 0.0005492826 0.002195039 -0.00028116722 0.0046682376 0.0045367917 0.0016851062 -0.0029656473 -0.0015645407 0.0044287737 0.0019230017 -0.0009862985 -0.0031956667 -0.003010319 -0.00095199654 0.0030376124 -0.0009471628 0.0040967106 -0.0027769702 0.00025883902 0.00017023218 0.00068701745 0.0037617339 -0.004631053 -0.0050588306 0.0007580555 0.0027846573 -0.0013856562 0.00034956652 -0.0032800897 -0.0025989173 -0.0032694498 0.004371179 -0.004120042 0.0049397433 0.003735082 -0.00020565346 0.0033034796 -0.0038331854 0.0025587226 0.0038370583 -0.0027561449 -0.00086684775 -0.0037448257 -0.0019660352 -0.0010429781 0.00020182325 -0.0005751154 -0.002132938 0.0015000921 -0.0013937351 -0.004999288 0.0036713136 0.0012968855 -0.0012696718 -0.0026936107 -0.0034963954 0.0031094195 0.0032504194 0.004446991 0.0029447135 0.0012010423 0.0048578875 -0.0011280148 0.0012952972 0.0024545954 -0.0036448305 0.003216928 0.001358031 -0.0026929695 0.0029416552 0.00037156785 -0.003605985 -0.0035585123 -0.00043988228 0.0009585474 0.0030125089 -0.0031379529 0.0016994451 -0.00010858831 -0.0018509853 0.00033867848 -0.0050272807 -0.0055427174 0.0047770846 -0.002012793 -0.004102585 -0.0028244976 -0.0019969894 -0.0020382528
是 0.0013692139 0.00060956547 -0.003926301 0.0018417101 -0.004085905 0.0033605527 -0.0025601415 0.0011654292 0.0015050364 -0.0042000925 -0.0021549286 0.0032061161 0.0041683107 0.0018513775 0.0016223445 0.004662777 0.0015491359 -0.000665475 -0.009537037 -0.0006175984 -0.0031846678 -0.0040602107 -0.0032307296 -0.005010156 0.0038616254 -0.00089804863 -0.0024635913 0.0010765947 -0.0018309772 0.0025773232 0.0008652514 -0.0022490602 0.0022233773 -0.0039999955 -0.0030057863 0.00810805 0.0051357243 -0.006177272 0.00079190335 0.008744706 -0.0029761705 0.004643928 -0.0016477068 0.0037805943 0.00033497752 -0.0029234157 -0.002950538 8.327798e-05 0.007587272 -8.9856e-06 0.0044477945 -0.0008006089 0.0026016838 0.007656035 -0.00021024648 0.004355385 -0.0071964134 0.004224717 -0.0063945707 -0.0006946589 0.005319612 -0.00021829613 0.0041521946 0.0032953508 -0.0033891022 0.00081600534 0.0024324658 -0.0011459596 -0.0045881155 -0.0036433777 0.0061460636 -0.0033549906 -0.00078992883 0.0007301537 0.0011730866 -0.0036468382 -0.004535621 -0.005363786 0.0060110455 0.0043860422 -0.0040020295 0.0030138178 -0.0044317325 0.002608187 0.004050753 0.0032816974 0.005243963 0.005759797 0.0003872465 -0.0021535465 0.004119788 0.0061528734 -0.0016593176 -0.004144233 0.007234858 -0.0017763121 -0.0021229915 0.00044432326 -0.003474779 -0.0010225624
什么 -0.0035711075 -0.0012716724 -0.0014378089 0.0036868558 0.0005669987 0.0039561656 -0.003736015 0.0013516479 -0.0021613764 0.0023141934 -0.0013810766 -0.0007400573 0.0033472788 0.00035552192 -0.00081951055 0.0024874238 -0.0029217442 -0.0031295195 0.0026268584 0.0012913988 -0.0005831416 0.0013232165 -0.0025489544 -0.0033496225 -0.0012448113 -0.0020852326 0.0032452792 -0.0013997011 -0.002195681 -0.0023027249 -0.0034234358 -0.0010805912 0.00045651512 0.0009197178 -0.0027528927 0.0010057178 0.0024164983 -0.0038882717 -0.0016049047 0.0039449832 -0.0008311298 0.004556393 -0.003464454 -0.0029723833 0.002434015 -3.243327e-05 0.004743829 0.0041957945 0.0052868 -0.0005996151 -0.0026560014 -0.000115229064 0.0023553094 0.0036269706 0.0012296124 0.0009324842 -0.00036439314 0.004240497 0.0014365726 0.004823151 -0.0025604852 -0.004729166 -7.4434065e-05 -0.0020862627 0.0017175283 -0.00024649134 -0.0028653524 -0.001232829 -0.0033551573 0.0024605943 0.0003651133 -0.001336578 -0.0018930626 0.003004181 0.004233261 0.00058975525 -0.0017949884 0.0011451871 0.0006836639 0.004098357 0.00286015 -0.0005711167 0.002775595 -0.004484046 -0.00175778 -0.0005626332 -0.00066657003 0.0035925745 -0.0023226463 -0.0010912471 -0.0023258259 0.0040539023 -0.0029748122 -0.0009021022 -0.003936722 0.0032945173 0.0041911136 -0.00054761337 -0.0008721994 0.0028512792
第二个 -0.0017008812 0.0018330935 -0.004929487 5.7632475e-05 0.004654438 -0.0012753992 -0.00053201383 0.0024568776 0.00080217875 0.0032389967 -0.0039490787 0.0005162532 0.0046927994 0.0018608253 -0.0005468509 0.0036520534 0.00066683465 -0.0013471725 -0.0004269156 -0.0023200682 4.9885577e-05 0.0024163178 -0.0004944676 0.0011379521 0.003287408 0.0040556635 -0.0005738318 -0.0005198528 0.00032949483 0.0020547123 0.0030092397 0.00018075865 -0.0048733726 -0.0011528999 0.00100319 -0.0016401892 -0.00047068024 -0.00092837116 0.00085894635 0.0021780992 -6.166873e-05 -0.0033474825 0.00052955933 -0.0034414465 0.0011929647 -0.0042632255 -0.0009634794 0.004592163 -0.002944019 0.0021258923 0.0045353253 -9.6257245e-05 0.0033369763 -0.0018581559 -0.000692025 -0.00057179946 0.00096952036 0.0035412116 -0.0033581879 -0.004173828 -0.00053669343 -0.0019401772 -0.0031472177 0.0030241236 -0.0015120796 9.8829514e-05 0.0019814873 -0.0049388544 -0.0028634996 0.0044942526 0.004552732 0.0028549593 0.0035245207 -0.004194822 -0.003054132 0.0033116124 -0.0038378346 0.00093168725 -0.003726384 -0.0028999336 0.0026125885 0.003900362 -0.0039482717 0.002310494 -0.0038075119 5.6547153e-05 0.0022194062 -0.002071845 -0.0012345175 -0.004149659 0.003192131 0.0032857805 0.003652493 0.0033304468 -0.0023914166 0.003432592 0.00038013555 -0.0037921201 0.003692317 8.218374e-05
和 0.0037311446 -0.0023132563 -0.0040475926 0.00054493453 0.0006330152 -0.003010154 0.0028110037 -0.0015423631 0.0023854834 -0.002043943 -0.0028080011 -0.003838539 -0.0018074327 -0.00074007426 -0.004075713 0.0048979856 0.0004054238 -0.00044503566 -0.0014767045 -0.0030464742 0.0029695565 0.0021798895 0.002168769 -0.00072168215 0.0030695584 -0.0044936975 0.0012192157 -0.0019885337 -0.004196374 -0.0028219484 -0.00068974023 -0.0037467466 0.002342703 -0.0032071108 -0.00024408931 0.0013150267 -0.0021871726 -0.003891985 0.0044212616 0.004693218 0.00223616 0.0031860722 -0.0036239529 -0.00033986577 0.005009675 0.0014631073 6.2160034e-05 -0.0021856162 0.0029769917 0.0018352548 -0.0011240272 -0.0028436445 0.00090127834 0.005753337 0.0021213104 0.003775579 -0.0046662055 -2.861896e-05 0.0009847574 0.004382402 0.0032952684 -0.0019913435 0.0039654896 0.0040341727 -0.0016513484 -0.0038581963 0.0023894093 -0.0016738343 0.0022719454 -0.001212067 0.0014437884 0.00042688183 -0.0006417305 -0.0038220345 0.0012969138 0.00015562547 -0.0015392659 -0.0060623745 0.0035851859 -0.00090412254 -0.00056217116 -0.0022571965 -0.004641169 0.00055093784 0.0038933663 0.0011139251 -0.0007834204 0.001151504 0.0003859116 -0.0030005293 0.00065576326 0.004226081 -0.0011570493 -0.005729174 -0.003678823 0.0013577547 -0.0028508191 0.00053273217 0.0045241504 -0.0010895334
咋 0.0019829518 -0.004765116 -0.0006048662 0.0024770657 0.0050818366 0.0019211284 -0.0038926809 9.226607e-05 -0.0026274892 -0.003241358 -0.0045873844 0.00377803 -0.0007039299 -0.0036778906 0.0035602103 -0.0026743687 -0.00059526425 0.0020571596 -0.005038559 0.0036119297 0.0016258201 0.0038794752 -0.00079521956 -0.002357104 -0.0040618326 -0.0037902845 0.0012920606 -0.0024565798 -0.003881 -0.004373636 -0.0026054718 -0.00043991744 0.00070436817 -0.0004185257 -0.003004353 0.003294407 0.002128479 -0.0046976674 -0.0018446349 -0.00042205048 -0.0004407216 0.0016847553 -0.0005379109 0.001611756 -0.004720138 -0.0044034063 0.0048691505 0.00076426624 0.0023446549 0.0030596843 0.0036497228 -0.004894165 -0.0008099173 -0.0030724423 -0.0017314218 0.005077166 -0.0033496788 -0.0047327015 -0.0009622558 0.00043108803 -0.00048242317 -0.0026506158 0.0028367816 -0.0036659257 -0.004537333 -0.0046316762 -0.0019448968 0.003921386 -0.0043161255 -0.0037554225 0.003785535 0.00275049 -0.00031336604 0.0021243647 0.005392971 -0.005245039 -0.0017642837 -0.001967341 -0.00053045724 0.0033013474 0.0034389866 -0.002478373 -0.00021596109 -0.0010280998 -0.0021108373 0.00031421462 0.0021242136 -0.0011662868 -0.0019966164 -0.0040460443 0.00030784367 0.002847095 -0.004684745 -0.0038704143 0.0036813158 -0.0029553953 -0.0021238101 -0.00096832117 0.0010714871 0.0036679637
做 -0.000104801366 0.0009416649 -0.0018676276 5.7406247e-05 -0.0024831248 0.0034022068 0.003983528 -0.0006130972 -0.0005439188 0.0042212955 0.00094896695 0.004764059 -0.00044503345 -1.1218979e-05 -5.520429e-05 0.0008452923 -0.00076053664 0.0009494455 -0.0022992846 0.0014453371 0.0049889465 0.0033803405 -0.00027309632 -0.0042648898 -0.0031534762 0.00096207444 0.004640284 0.004658088 0.0030577441 -0.0017885248 -0.0060474267 0.00056021765 0.004093502 -0.0023530924 0.0023885309 -0.0029063246 0.0025983655 -0.0052563157 0.003875715 0.007920269 0.0017733314 -0.0020532985 0.0007262607 0.005008097 -0.00040590682 -0.0032752904 0.0029799535 -0.0013749017 -0.0023217613 0.00054725213 -0.003456645 -0.00087588286 0.0033062114 0.0011485047 0.0018770382 0.0057919687 -0.005904072 0.004223198 -0.0033748467 0.0031480582 0.0048461305 -0.0026428893 0.005259073 0.002921302 -0.00029526954 0.00033399026 0.00038161347 0.0027475026 -0.00081472134 0.002000718 0.0015286044 0.0012787286 -0.004284023 0.0038777257 0.0065043704 -0.00020757662 -0.0021642917 -0.0071130386 -0.0028091748 -0.00530655 0.002687069 0.0050977026 0.0016137114 0.0011949897 0.0041933833 -0.00049317034 0.0068639987 0.0011206097 0.0025253212 -0.0062664063 -0.0043393737 -0.0035867398 0.0016411707 0.0023800477 0.004700265 -0.0033767468 -0.001139154 -0.0037238547 -0.0014014163 -0.00585644
呀 -0.00013251176 0.0015611926 0.0036077905 -0.00044612493 -0.0023924608 0.0031457532 0.0045915376 0.0023462821 0.0048444066 -0.0011110818 -0.0043497314 0.0027031912 -0.0023883537 -0.0021257582 4.8427573e-05 -0.003805479 -0.0026200777 0.0019199166 0.00026174996 -0.001914751 0.001423895 -0.0010441489 -0.0011832049 -0.0031813697 -0.003921113 0.003015093 -0.003319892 -0.0018954407 -0.0018093655 -0.002729267 0.00029893828 -0.00022810375 0.0016938943 0.0038320667 0.0022122918 -0.00072870636 -0.001689739 0.0045120134 5.9105983e-05 0.0028439874 0.0027413089 -0.0015775216 0.0027527043 -0.0028015936 0.0034861807 -0.00013176697 -0.0045286785 0.00171807 -0.00064151775 -0.0024322507 -0.00277857 8.039614e-05 0.0008867814 -0.00048068323 -0.0025586172 0.0043869666 0.0031608467 0.0017976484 0.001408165 -0.0017120513 0.0033172974 -0.0016692021 0.00037462334 -0.0038571127 0.003702577 -0.004388987 0.0021255473 -0.0042059957 -0.0022421293 0.004509853 0.0035729867 -0.0041939723 0.0015399413 0.0003961178 -0.0014655471 0.0021001534 -0.00047200103 0.0016069118 0.0021872558 -0.0032313014 0.004284239 -0.0014828795 -0.0025046042 -0.0019577919 0.0030777485 -0.0041906047 -0.0020735653 0.0026954692 0.0035942988 0.0031899244 -0.0024968574 -0.0029152988 -0.0014097206 -0.002436007 0.0033964722 -0.0015057431 -0.0048758956 0.004179076 0.0010309168 -0.00525693
这样 -0.0043054973 -0.00495022 -0.0031898622 0.0022144106 -0.00040526254 -0.0028708866 -0.00071096304 0.0040654754 -0.0021039608 0.0022249513 0.003598182 -0.0041921255 -0.004695416 -0.0044926926 0.0041561574 0.0050796764 -0.0049890415 -0.0035100665 -0.004929656 -0.0037578605 -0.00014246313 -0.0033735714 0.0015994855 0.0044159787 0.0019141705 -0.00048381317 0.003795707 0.0026158828 0.004860176 -0.0036139644 -0.004595145 0.0015367237 -0.00019335268 0.00330643 0.0034205047 0.0026136723 0.0027076025 -0.0029865245 0.0032166818 0.0022620617 -0.0009844145 0.0041959533 -0.0021431162 0.0039975676 0.0037544228 -0.00014654551 0.0025833314 0.004905129 0.0027055745 -0.0006328181 -0.0020439897 0.001902774 -0.0023410257 0.0015101519 0.0007291094 -0.0033049572 0.002434127 0.003063727 -0.004457788 0.0036089146 -0.000631159 -0.0020172661 0.0019577555 0.0028909333 0.002596677 -0.001788367 0.0038552803 0.0017253452 -0.0046191067 0.0017777126 0.0017276326 0.00078825356 -0.002655635 -0.0016504007 -0.0026167599 0.003920101 0.0013711757 -0.0032370733 -0.0016793561 0.0016940641 -0.004201823 0.001960591 0.00015638472 0.0016933691 0.0044768094 -0.0010912662 0.004640889 -0.00047239117 0.003442496 -0.0043165074 0.001147249 -0.0007564329 0.0045921947 0.0027406805 0.0014750795 0.0013025544 -0.0028038507 0.0012176365 -0.004712648 -0.0044763535
吗 -0.0041394522 0.0037165165 0.0038545493 0.0049127396 -0.0013065396 0.0034324366 0.0011639206 -0.0019971423 0.005489928 0.0029266956 -0.0012822743 -0.0029729053 -0.003867648 -0.004017813 0.0012410497 -0.0006486841 -0.0027703685 0.0042307703 -0.004544139 0.005090639 -0.0006775302 0.002412988 -0.0003981776 -0.0036129376 -0.002232706 0.00019241314 -0.0030582652 -0.0029307476 0.0038970038 0.0038055761 0.00389873 -8.806313e-05 0.004479974 -0.0027129308 0.00035024414 -0.0011043902 0.00015385739 -0.006118824 0.0011158669 0.0061024334 -0.002524567 -5.3872478e-05 0.00013228839 0.002271746 -0.0033700923 0.005031118 -0.0021225759 0.005074281 -0.002545976 -0.004752813 -0.0041937726 -0.0015328302 0.0037632925 0.0057672723 0.0033706117 0.0010035776 0.00081130763 -0.0024288716 -0.004216552 -0.0019249325 0.0045211036 0.0021302153 -0.0033392971 -0.0018094927 -0.0026382965 0.0010661599 -0.0032473793 -0.00021437176 -0.0043281512 -0.0045367824 -0.00025251627 0.0033454758 0.0023981712 0.0050049005 0.0058666295 -0.0025389262 0.0027231704 -0.0058548134 -0.0034939344 0.0031626588 0.005015559 0.0010994516 0.00408722 -0.0013119644 0.0056051966 -0.00027552163 0.0018616369 -0.0010882774 -0.002682035 -0.0013598863 0.0023679917 -0.0011363068 6.839773e-05 -0.00540245 0.0001060894 -0.0010471068 0.0041677873 -0.0014947696 -0.0029038251 0.00097151514
老师 -0.0034813024 0.003932661 -0.005860385 0.0055860938 0.004195869 -0.0039855368 -0.0020660826 0.00471199 0.0003244259 -0.0043998663 0.0033901967 0.0032347944 -0.00061481213 -0.002654155 0.0037176353 0.0028395383 -0.00058683235 0.0040748054 -0.009193474 0.004034281 0.00047464337 0.0036887075 0.00439145 -0.00029336236 -0.0017058116 -0.0032546336 0.004866721 -0.0012535354 0.0039441925 0.0039107106 -0.0062292973 -0.004216174 0.007120251 0.0040346067 0.0016087128 0.00769927 -0.00040499683 -0.0031961298 0.005065697 0.005955514 0.0046102377 -0.0003606131 -0.0010694814 0.00071908074 8.6472995e-05 0.004964539 0.0048881946 -0.0007533729 -0.0019488763 0.0030528507 0.0051892498 -0.003931389 0.00090393785 0.0072893314 0.0017491374 0.00090833975 -0.002907239 0.0045990236 -0.008001466 0.0022994003 -0.0038262263 -0.004913556 -0.0026759512 -2.3580473e-05 -0.00091893855 -0.0017280832 -0.0034555306 -0.00017450875 -0.0035549756 0.005486474 0.004826958 0.0007351528 -0.00042680284 0.0009531618 0.007202653 -0.0071132234 0.002143156 0.0010393707 0.0014181598 -0.0018966793 -0.0036678237 0.0006197 -0.00259717 -0.0021608837 0.0036386307 0.004329884 0.0061906893 0.0019053901 0.0071144206 -0.005319854 0.0032623652 0.0041504605 0.0034407207 -0.0037622768 0.0025194352 0.0023075321 0.004328756 -0.003987044 0.003401587 -0.0051675644
作答 -0.0027818638 0.0034005493 -0.0041559194 0.0011488257 0.00074439775 -0.0037329555 -0.0021290472 0.0021225978 -0.0012582619 -0.0012791468 -0.00017601906 0.0011970031 -0.0012321431 -0.0006571402 0.0043425243 0.0016970481 0.0013358748 -0.004403525 -0.0022576833 -0.0032476508 0.0042528464 -0.000975889 0.0021717942 0.0025294437 -0.0017237802 0.00015906856 -0.0018881997 -0.0011596403 0.004704488 0.0029909625 -0.003592456 0.003408118 -0.0019764886 0.0016362244 0.00032823498 0.0023881076 -0.0023636702 0.00045095882 -0.0017217585 -0.0024300672 -0.004232129 -0.0047069625 -0.0014453805 0.0023526654 0.0012643259 0.0021226592 0.002257953 -0.002374313 0.00079060876 -0.0040645176 0.0017141902 -0.0011970035 0.0021328027 -0.0018442362 0.003701771 0.0015002528 0.0036415944 -0.00095941394 7.587181e-05 -0.0023577095 0.0022019907 -0.0027762328 -0.0032092833 0.0016395126 0.001278574 0.0032116384 -0.0010601284 0.00081447867 -0.00043929432 -0.0028911761 -0.00070109946 0.0032278374 0.004435856 0.0025181407 0.0006614538 0.0041924124 0.004587736 0.00025138908 0.0034266051 0.00014507628 -0.00079019606 -0.0028008283 0.0002997426 0.0016449842 0.00011850454 0.0015583782 -0.003963132 -0.003762281 -0.0014369499 -0.002344529 -0.0043340395 -0.00287427 -0.0026700906 -0.004965013 0.0011064898 -0.0014907795 0.002555806 -0.0026200928 0.0048601837 -0.0011333979
谢谢 -0.0020116863 0.0040596975 0.0030019484 0.0024510785 0.0050803227 0.0019630706 0.0005177915 0.0028239214 0.0016490093 0.0019372071 -0.0032031352 -0.0036151784 0.0040010647 0.0003223414 -0.0035426666 -0.0031511679 0.0009157829 -0.0029772208 -0.00096138427 -0.0042529725 0.0050506447 -0.0015535419 -0.0012893511 -0.0035176836 0.0023739466 -0.00017427483 -0.0046677426 0.0048588356 4.949888e-05 -0.0029063853 -0.0054149632 -0.0045640343 0.0043436685 -0.0044451472 -0.00085524895 0.0044913148 0.005213348 -0.0038142467 0.0036163263 0.0022469705 0.0026823336 0.0039390232 -0.0024017133 -0.0009070252 0.004172891 -0.0022483857 0.003108261 0.002070174 0.0050699865 0.0018072836 -0.0036090408 -0.0007947303 -0.0019308021 0.0052977847 0.00291574 0.005106939 -0.0042798757 -0.0012467292 -0.0031477138 0.0026086168 -0.003716951 -0.004281326 0.0052685947 -0.0013282411 0.0010208117 -0.0049593505 0.0011066772 0.002104779 0.00016702634 -0.0046381378 0.0015561273 -0.0022271585 0.0005474909 0.0036239102 -0.0037138453 0.0024799048 -0.0023826782 0.00060880557 0.00039694522 0.0039707753 0.00013208792 0.0023436002 0.0038124127 -0.0029555617 0.0049479124 0.0036103153 0.0038467888 0.004494462 0.005227848 -0.0047374233 0.004402012 0.0012746028 0.0030131591 0.000257737 7.9184705e-05 0.0024618837 -0.0009377585 -0.0023390371 0.0033272759 -0.0036824548
了 0.0026060343 0.0020077527 0.004225859 -0.0035541765 -0.00019982252 0.0016202354 -0.0038719042 0.0013930567 0.0059391554 0.0035003782 -0.0030287234 -0.0007108223 0.001316159 0.0024888327 0.0010284248 -0.0010437252 0.0013632148 0.004420506 -0.006313484 -0.0021675616 -0.0027400139 -0.0001534362 0.003599449 0.001500792 0.0010255177 -0.0002818563 -0.0003517327 0.00068193977 0.0049453517 -0.0027380525 -0.005736893 0.0031593302 -0.0012879212 -0.0012008322 -0.0049311966 0.00091776263 0.004843222 0.0010721635 0.0049450365 0.0066951187 -0.0022825373 -0.0027990919 0.002228991 0.0016973094 0.0015378566 -0.0023164875 -0.0043859575 0.0053062104 0.0033671327 -0.00058605726 0.0038545546 -0.0026553513 -0.0029476865 -5.1982293e-05 0.003977984 0.00020190429 -0.004687259 -0.003374302 -0.0027960292 0.0031246664 0.0033466106 -0.0037671286 -0.0018171865 0.0032268804 0.003261803 -0.0034025048 -0.0033088122 -0.0023048066 -0.0020856424 0.0034536475 0.0042962227 -0.0029930323 0.0048703477 -0.0014326287 0.0021740063 0.0020015491 -0.0034535334 -0.0036827812 0.0028027024 -0.0030272775 -0.0026887106 -0.0022108816 0.002598898 0.0005151954 0.004050088 0.004981036 0.000826827 0.0056511825 0.0040715453 -0.00016671742 -0.003518613 -0.0013209857 -0.0032656358 0.00084489735 0.0057926355 -0.0009466735 0.004125403 -0.0050665685 0.003427282 -0.002957025
感谢 -0.0008024558 0.0013819458 -0.0038295405 -0.000913026 -0.00235081 -0.004746653 0.003546792 0.000503929 -0.00453505 0.0015101286 -0.0036705402 -0.0040487507 0.0037500043 0.0034242584 -0.0013998762 -0.0023462726 -0.00071506546 -0.0037898861 -5.9766688e-05 0.0013705931 0.0020160298 0.0035754014 0.004709047 0.0039071073 -0.0029214262 0.0010540236 -0.001412707 -0.00082301383 0.004030418 -0.0028547263 -0.0050249416 0.00037111796 -0.0020838673 0.0029833952 0.0013022252 0.0001563277 0.003908732 0.0030637456 -0.002094103 0.0028225675 -0.00058149843 -0.0039302735 -0.004245393 -0.0039716414 -0.0034883504 -0.0026723798 3.8806567e-05 0.0036980899 0.0030848328 -0.004867899 -0.0030387777 0.00069085753 -0.0038148502 -0.002383031 -0.0026253706 -0.0022597418 -0.0012376994 0.0038295488 -0.0040706485 0.0039022749 0.0013633899 -0.0015414979 0.004522059 0.00096758816 0.0025228497 0.0018786207 -0.0014066867 0.0035278646 -0.0029265452 0.0030576687 0.0029027709 -0.0003278087 0.0033289618 -0.0011738132 0.00024177016 -0.0016936619 -0.002163724 -0.00042163278 0.00024575976 0.003419791 0.0031575274 0.0047898716 -0.0048603695 -0.0015789148 -0.0029834332 -0.0004223588 0.00021727741 0.0014767302 0.0016865942 -0.0017737794 -0.0029561266 -0.0040386086 0.0017069313 0.0034032948 0.0029024938 0.0034853173 0.0021528224 0.0036921059 0.0030162719 -0.0033166574
积分 0.0022802465 0.0021428452 -0.0020989783 -0.004166389 0.004001046 -0.0034614156 -0.001513051 0.0036987667 -0.0019291572 -0.0002522051 -0.00075861113 6.743765e-05 0.0038055207 0.0028127022 0.0040588826 0.003355093 -0.0043819877 0.0029394624 -0.004784555 0.0018085564 0.00064971653 0.0036761367 -0.0014567426 -0.0048661698 -5.264164e-05 -0.002802881 0.0015297396 -0.00335363 -0.002314304 -0.00014178711 -0.0029211745 -0.000417942 -0.0006605014 0.004020215 0.00301287 -0.0024917452 -0.002989919 0.002249445 0.0006630989 0.0015105895 4.394583e-05 0.0044723977 -0.00068172335 0.0036197095 -0.0031153224 0.0037182209 0.004635129 0.0009537624 0.003555167 0.0026844745 -0.0043139225 -0.000582899 -0.004904947 -0.004605989 -0.003471425 -0.0024138966 0.0013394918 -0.00021801313 -0.0036971215 -0.0010352936 0.001384949 -0.0025471307 -0.0037883834 0.002147137 0.0030572747 -0.0044667935 0.002305197 0.0010542999 0.0044986364 0.0024348332 0.0048508616 4.3710228e-05 0.003068645 -0.0005653812 0.0034663137 0.00051418884 -0.0027476936 0.0034484519 -0.0015981823 -0.0018074801 0.004420484 0.0012283298 -0.003281264 0.0034303053 -0.0011716911 0.004332917 0.0019746562 -0.004619387 -0.0003051832 0.0012956174 -0.0019856852 0.004331403 0.0005438497 -0.0047661136 -1.1998818e-05 -0.0046496233 0.0011391042 -0.002517552 -0.0033286426 0.0047900383
我 -0.005523464 0.0035501707 -0.0044004554 -0.0040254914 -0.0021602702 -0.0029115537 -0.0010172235 0.0052380413 -0.0013241259 0.0009469682 -0.0025950696 9.8797565e-05 -0.003230425 0.0044626356 0.0033701784 -0.0030309262 -0.0016474272 -0.0035872739 0.0019923998 -0.0012901486 0.0021854576 0.00050031714 -0.0029652875 0.000994823 -0.0024670688 0.0039275005 0.0011263047 -0.0020606637 0.0040767146 -0.0038465303 -0.005399673 -0.0040784483 0.00083944184 -0.003040307 -0.0010507175 0.004041745 0.0056332103 0.0007049561 0.0040759617 0.0053386614 -3.5987163e-05 0.0048342594 -0.0041300743 0.004183 0.000108222106 8.361513e-05 0.0017851187 0.0014748944 0.0062286053 5.7114037e-05 0.0047912584 0.004025586 0.00328228 0.0036553117 -0.0023360054 0.004119402 -0.00496933 -0.0029642796 -0.0023013665 -0.0006572197 -0.0047204946 -0.00037130318 0.00031476104 -0.0013905304 0.0027592368 0.0035971534 -0.00023052539 0.002495887 0.0018346998 -0.003466112 0.005859717 -2.4006758e-06 -0.0013324083 0.0028524415 0.0018564531 -0.005867486 -0.002018779 0.0022124625 0.0040267226 -0.0045990706 -0.0004891244 8.576042e-05 0.0026827338 0.0042246277 0.0015890029 0.0013909596 0.00093943416 -0.0029300929 0.0029411851 -0.0051953853 -0.005080105 0.004474397 0.0002596308 -5.6887548e-06 0.0050228317 -0.0004230792 -0.0037241888 -0.0021675138 -0.00079359754 -0.0021256073
想 0.0045329477 0.0022370284 0.003866575 0.0013772611 -0.002584231 0.0026986892 -0.00081507495 -0.0028797188 0.003957157 0.0013235799 -0.0010814372 -0.00032765913 -0.0016223808 0.0013565881 0.0029453936 0.0046618287 -0.001925352 8.08794e-05 0.0017710659 -0.00019576744 0.0034164472 0.0020651605 -0.00054415996 0.00087863574 -0.0001267437 -0.00436451 0.0020733431 0.00043945873 -0.0024213633 -0.0027067135 -0.0045796847 -0.0018272741 0.002638246 0.0048009376 0.0025521244 0.0014657198 0.0025550681 -0.0038913088 0.00051606825 0.0045039863 -0.0041962583 -0.0028011804 -0.004378369 -0.0019568475 0.0046127858 -0.004899362 -0.0040056715 0.0014541309 -0.0012731842 -0.003262351 -0.0014045525 0.0039578904 -0.0018840341 0.0010223765 -0.0032831954 -0.000581383 -0.00054628454 0.0047310307 -0.005062222 0.0016205359 0.0002869029 0.0003549453 0.00045032686 -0.0015695153 0.0040688766 0.0026400913 -0.0010500231 -0.0043629147 0.0016331585 -0.0019451245 0.004407542 -0.0012224473 -0.0030167103 0.002547373 0.004572593 -0.0028380156 0.0035526152 -0.0023625027 0.0017275511 0.001016999 -0.00052485225 -0.0022081456 0.0012672555 0.00075572485 0.003956758 0.002509367 -0.00043464007 -0.002215637 0.004774794 0.0029612954 -0.00084751955 0.00027385022 0.0019206342 0.0027182037 -0.0034308848 0.0042768237 -2.4815143e-05 0.0019410126 0.004644356 -0.001121854
问 -0.0018529585 -0.00064752396 0.0021130787 0.0029045024 0.0029692156 -0.0033067712 -0.0031245623 0.0014760438 0.002109331 0.004152758 0.0008720347 -0.0034192756 -0.0035652563 -0.001578608 0.0032518846 -0.00064710656 0.0025260237 -0.00084607693 0.0034294548 0.004323613 0.0020557244 0.0006859075 0.0031004602 -0.00024463545 -0.0008566749 0.00035967768 -2.8179542e-05 -0.00328108 -0.0019915635 0.0023878259 -0.0027904233 -0.0033526572 -0.004110788 0.0023652858 -0.00013173828 0.0017964322 -0.0014159079 -0.0020241023 0.0028335347 0.00040234433 0.0036944277 0.002353149 -0.0037399437 0.004599948 -0.0020704253 -0.0011059376 -0.0037861953 -0.0047478187 0.003593656 0.004172019 0.0027306606 0.0038853583 0.0011938285 -0.004606312 0.00023417188 0.0051200786 -0.0026597425 0.0043298933 -0.003520971 -0.0027259672 -0.0005117259 -0.004772257 0.00083462836 -0.0035222643 -0.0006625413 0.0021256316 -0.002150042 -0.0016511797 -0.0031493863 0.0033692757 0.004978473 0.0047601988 -0.0006894307 -0.0044481466 0.0010239667 -0.0051605827 0.0011257053 0.00028062594 0.001853545 -0.00124372 0.0045720027 -0.00033417274 -0.0011536406 -0.0019948103 0.0031527365 0.0022931846 0.0048594414 0.003073543 -0.0011484891 0.0010725147 -0.0039176336 0.0029371988 0.0018626024 -0.0012975719 -0.0014865107 -0.003528254 -0.0015816019 0.004868182 -0.0031027172 -0.005030409
一下 -0.00044146227 -0.0012579074 0.003165505 -0.001606531 -0.0022585483 0.0013380873 0.0013836399 -0.0036694824 3.4769975e-05 0.0010113749 0.0005974945 -0.0044186693 -0.002816851 -0.0002974082 -0.0024913878 0.001076863 0.0043595955 -0.0036187193 -0.004996766 0.0046889284 -0.00058104366 -0.0029691057 -0.003392516 -0.0043756943 0.0021269447 0.00025972124 -0.0039154775 -0.0049463254 -0.0035230352 -0.0033078007 0.0042384104 0.0015538328 0.0042763674 0.0005681799 0.000999559 0.0049117543 0.0032887268 -0.00047751644 0.0040678447 -0.0006299163 -0.0024650125 -0.0015207668 0.0045059794 0.0011653906 0.00034517376 0.0046377657 -0.0046484666 -0.001653152 0.005000547 -0.00026102256 0.003566787 -0.004996893 0.0020438677 -0.0023800244 0.0022789151 0.004795372 -0.005478231 0.00447165 0.002332316 -0.0034627619 -0.0020005037 -0.005037918 2.6019188e-06 0.0037789436 -0.0053378884 -0.000670838 0.00090833864 -0.0019057932 -0.003175222 -0.0009228097 0.004822257 -0.0022432655 -0.0024045142 -0.0019803648 0.0045685614 -0.0021106189 0.0013702567 -0.0018135209 0.004396202 0.0046018795 -0.0009455162 0.0045803026 0.00037980897 0.0042706183 0.002614668 -0.0013839217 0.0012151276 -4.5723435e-05 -0.0020142968 -0.0017101043 0.0026132446 -0.0017943685 0.0013576044 -0.003301758 0.0019874843 -0.004438482 0.0008881232 -0.0014435335 -0.0042302 -0.0004050553
在 0.0026722986 -0.004314333 0.004228479 -0.0017507443 -0.0016895831 0.00062803243 -0.004098668 0.0012187614 0.0011294852 -0.0041433154 0.003536678 -0.004852702 0.0010546854 -0.001953264 -0.0020422284 -0.003961339 -0.0003406442 -0.0016255117 -0.0010173088 0.002617661 0.0021075055 -0.0037582717 0.0033797596 -0.0037245005 -0.00080052105 -0.0038027915 -0.0020809276 -0.0014113261 -0.002725553 0.004120864 -0.004591677 -0.005291719 -0.0041721147 -6.2718806e-05 0.0043001045 0.005709311 0.00444811 -0.00031930197 -0.00063246547 0.0022001697 0.0005908536 0.00092964893 -0.002491768 -0.00043139176 -0.0005187783 0.0034419445 -0.0016762014 -0.00023422763 -0.00043922983 0.0033596917 -0.0026783815 -0.003848732 0.0047002747 -0.0043880036 0.0012857327 0.0047455435 -0.004860562 -0.0037532 -0.005923665 0.0045805406 0.0032335327 -0.003673344 0.0038760682 -0.0006144932 -0.0005943001 -0.0010696229 0.004764718 -0.0040524825 -0.0016260092 -9.017681e-05 -0.0039909445 -0.00087274576 -0.0015106386 0.0017646503 0.0004496111 -0.0054291557 -0.003728604 0.0016060121 0.0013536386 -0.003859745 -0.0022073092 0.001776646 0.0042821537 -0.002124653 0.0009259653 0.004861223 0.0042681736 0.0002191683 0.0015789724 -0.0053741992 0.0024310683 -0.002319342 0.000333003 -0.0016274764 -0.0010950227 0.0010236527 0.004712982 0.003506272 -0.0013143318 -0.001820152
到 -0.0009689192 -0.0028429958 -0.0022229792 0.0031584587 0.0042532915 -0.0021442492 0.0039493265 0.001437914 0.0039552525 -0.00049134967 -0.002207991 0.00016323257 0.0040438883 0.0029703316 0.0032860404 0.0026354985 -0.0048548593 0.004876324 -0.004060607 -0.001457603 -0.00068406673 -0.0006387244 0.0028569316 -0.0016844022 0.002780223 0.00046916195 -0.0039034046 -0.004413121 -0.0017585488 -0.0017765443 0.004407826 0.0048334063 -0.0014423117 0.004597807 0.004425035 -0.00065883296 0.0010833773 0.0047899093 -0.004277568 0.004197616 0.0015498034 6.876557e-05 0.002072171 0.0038700248 0.000881438 -0.002127326 0.0019471892 0.002030943 0.0028680156 -0.004858257 -0.0023503914 0.0037344038 -0.0035096742 -0.0043556974 -0.0045172316 0.0042509707 -0.0017169104 0.0029040691 -0.0050280984 0.002271309 -0.0040675323 0.0006739975 -0.00016793291 0.0046858927 -0.004581031 -0.0008592635 -0.001167146 -0.0027373328 -0.00025010935 -0.0010117093 -0.0021767642 0.004051418 -0.0044410108 0.0021524292 0.0034912038 -0.003281946 0.0027814275 0.0046745134 0.004884193 0.003906597 0.002927762 0.0040837335 0.00060490373 0.0017050034 -0.0020085222 0.003246162 -0.002117938 0.0042415177 -0.0038463392 -0.004171306 -0.0011097224 -0.00436607 -0.0006593846 -0.0034246754 0.002273804 0.0027529323 -0.004631513 0.004179822 0.0025490131 0.0027926902
上 0.0035204438 -0.00022546075 -0.0026658187 -0.0024883288 -0.004904145 0.004802337 -0.0031198973 -0.004616665 0.0033505724 -0.0008869432 0.0026160912 0.0038467632 0.0046594795 0.00013248922 0.0019257297 -0.0017101322 -0.00048578318 0.0040286416 -0.0041056965 0.0032703823 -0.0024931396 -0.0038530163 0.0039334404 0.0037563557 0.0028633776 -0.0009420582 -0.0036129574 0.0016246807 -0.001340952 -0.00084344036 -0.0034877842 0.0038029605 -0.0008713801 0.00064048136 0.0026517774 -0.0042937333 0.0013017429 -0.0001634284 3.3483222e-05 0.0033821089 -0.0005552415 0.004726114 -0.0028515353 -0.0011095795 0.0012155324 -0.0015722618 -0.002772047 -0.00041619738 0.00030102074 -0.00012870567 -0.0031963983 -0.00049388554 0.0043118787 -0.0044684885 0.00023891326 -0.0013122058 -0.0003179676 -0.004104109 8.3232444e-05 -0.00038677178 0.0016939805 -0.002631374 0.004283376 0.0021681644 0.002244199 -0.0035853563 -0.0012055368 -0.0010632224 0.004043871 -0.000154293 -0.004325335 -0.00483893 -0.0045673326 -0.0017261244 -0.0023265681 0.0031873952 0.0015189225 -0.004699813 -0.0021479512 0.0035677047 -0.0017396095 0.0034344064 -0.0029435856 0.00016715965 -0.0043971334 -0.003442563 -0.0023651477 0.0025159426 0.0037728895 0.004386343 -0.0011216515 -0.0019704034 -0.00014454628 -0.0017120125 -0.0017197776 -0.0007966375 -0.0046434957 0.0023241022 0.004970139 0.0012489867
的 -0.006295908 -0.004771698 0.00038621016 0.0073719723 0.003516674 0.0005047141 -0.006875877 0.0046343403 0.009191467 -0.0067469687 -0.0045109196 0.0029136925 -0.0017655357 0.006753372 -0.0013150951 -0.00017487077 -0.0011451255 0.0047048857 -0.013984895 0.0021913059 0.00691485 0.0022224444 -0.0033697642 -0.0019041428 -0.0019324248 -0.0030025053 -0.001578958 -0.0029077374 0.0035789283 0.0045897975 -0.0069508823 -0.002438854 0.010370994 -0.0014139821 -0.007738213 0.008720631 0.011293215 -0.008653764 0.008929931 0.01643163 0.006089536 0.0074931597 0.0032255175 0.00667758 0.0024562066 0.0016762546 0.0019536233 0.0073508355 0.010862815 -0.0010403945 0.002842858 0.0029757742 -0.0058086975 0.010514387 -0.00016771343 0.0010007359 -0.0064271055 -0.0036617764 -0.011530754 -0.0030445305 0.0059716236 -0.00089245185 0.008658043 0.007152305 -0.009238093 0.0017495491 0.0006416308 -0.0040289164 -0.0046352716 0.005308127 0.007845409 -0.0016276415 -0.0011195446 0.0024959713 0.011244301 -0.010939821 -0.004302089 -0.011437576 0.009194879 -0.0021469274 0.003721783 -0.0013175558 -0.00069927407 0.0069835167 0.0024968758 0.003832729 0.012246451 0.00583556 0.005317317 -0.009770813 -0.001131816 0.0033934326 0.001258213 -0.008338112 0.0116136335 -0.0066624414 -0.0019266343 0.0030387167 0.0075897104 -0.0021435255
区间 0.00036511058 0.0039064167 0.0035955904 -0.004061917 0.0014150082 0.004637464 -0.00073255267 -0.0017769878 0.0042764773 -0.0020918911 0.0018140544 -0.00080118177 0.0020198806 -0.0013223838 -0.0032230965 -0.0047356803 -0.0014561345 3.884137e-06 0.0031201106 0.0032167728 0.0039241537 -0.0031969221 0.000116949566 0.0027143466 0.0020261987 -0.00092431257 -0.0018150782 -0.0019169534 -0.0030845555 0.0014292512 -0.0024435504 -0.0030192756 -0.00083526527 -0.002550375 -0.00039961893 0.0030744183 0.00034335072 0.0014439402 -0.00065699563 0.002772118 -0.0039810236 0.0037545757 -0.004901361 -0.0036153996 -0.004587377 0.0015691597 0.004579909 0.0022741936 -0.0029889178 0.0020422295 0.0025465682 0.0003640013 0.004423877 0.00064503774 -0.004039254 -0.00049217517 -0.0015930467 -0.00197519 -0.0029485156 0.003350576 -0.0014399665 0.004665338 -0.0047200634 -0.004477166 -0.002715804 0.00286894 -0.0034846356 0.0043152804 0.00420227 0.00038288257 -0.002202224 -0.0010064485 -0.0036444995 0.0012642589 0.0019213271 -0.0045867767 -0.00046530704 -0.0032372258 -0.0003862817 0.0011027482 -0.00011764333 0.0023167601 0.0005751971 0.004578843 0.004338744 0.0024316197 0.005049728 -0.0030198405 0.0005060462 0.0006300792 -0.001047633 -0.0012546878 0.002128143 -0.0020123788 0.0039030653 -0.00018165483 0.0014479638 -0.0042759264 -0.003286885 -0.00024638107
结果 0.003023866 -0.0034097147 -0.00057355076 -0.0032898593 -0.00170197 0.004954791 -0.0017352101 0.0027747627 0.00028549435 0.0011561862 -0.0035660525 0.0049048834 0.0042220545 0.0028716966 -3.5536763e-05 0.0006386851 -0.00011907528 -0.001544507 0.0032640574 0.0020578373 -0.0041063847 0.0014411197 0.0028263095 -0.0037145934 0.0021153588 -0.0016391902 -0.0012797309 -0.0046451096 -0.004454232 0.0030426693 -0.0048221974 -0.0046039415 0.0045117326 -0.0007134945 0.002859672 0.0049439557 -0.0018702619 0.0033081246 -0.0036831582 0.0026244542 0.004221308 -0.004452606 0.0025224017 -0.00042732983 0.002551584 -0.002616775 -0.002295366 0.0020624334 0.0043382524 0.0042974185 -0.003104741 -0.0046809968 0.004651912 0.0036438897 -0.0029015697 -0.0033523066 0.002922169 0.00469199 0.0030216903 0.0023810011 -0.0025054077 -0.0002468192 0.0039185747 0.0004324177 -0.004320189 0.0023024934 -0.0004150115 -0.0034448297 0.002836601 -0.0027198705 -0.004884453 0.001399912 -0.004457586 -0.0045708218 -0.0011482565 -0.0028575123 0.0010823335 -0.00083912886 0.0042147725 -0.001521171 -0.0019636624 0.00048859493 0.003344792 -0.0022918263 0.0026276868 -0.0038245239 -0.0011890425 0.00075984973 0.00404636 0.0034938247 0.0038853078 0.00089956255 0.0006879766 -0.002603498 0.0031807222 -0.0036984216 -0.0047859927 0.0008917182 0.0031824156 -0.0013624079
为什么 -0.005082348 -0.0038876587 0.0027786794 -0.004006733 0.0017949024 -0.0038217902 0.0008170804 0.0033322787 -0.0006543335 6.743352e-06 -0.0016385178 -0.0040214974 -0.002041415 -0.0032921648 -0.0046912855 0.001576372 0.00056721445 0.0014874622 0.0016849305 0.0031860885 0.0003623742 -0.002203278 0.003896082 -0.0037353532 -0.0010802475 0.0015542569 -0.0016953758 -0.0044404888 -0.003232054 -0.003981037 0.003633157 0.00010451678 0.0012251461 0.0041785734 -0.0036924635 0.006246404 0.0008332891 0.002806571 0.0026832097 -0.0018406755 -0.0027088195 0.0048817648 -0.00067282375 -0.0037395405 -0.0003072651 -0.0029677239 0.00047396097 0.00072807475 -0.00018412212 0.0010858384 0.0035039992 0.004678461 -0.0016956957 -0.00071048667 -0.0023447333 0.004131137 -0.0027940373 -0.002015014 0.0012866579 0.0007925609 -0.003949395 -0.0038336301 0.0025580297 0.004123484 -0.00399492 -0.0020436302 0.0045296378 -0.0020465248 0.0029423218 0.0024341205 -0.0036214734 0.0041080955 0.0046249796 -0.0014395145 -0.0009358424 0.00235274 0.0035254846 -0.00015919849 0.004270889 0.0030564207 0.0043562227 -0.0023003335 -0.00019422027 -0.0027926639 -0.0014753824 0.0035101739 0.004504989 0.0039521847 0.0030847988 0.003416172 -0.0037394825 0.0023132518 -0.0030581185 -0.0043788855 -0.0010760059 -0.005206278 0.002890751 0.0045895055 0.004376986 0.0011819156
还是 0.0012190198 -4.68396e-05 -0.0027423026 0.0034053982 -0.0009551725 -0.0021937545 -0.00029348006 0.00470717 0.004667963 0.0027301759 0.00016630143 -0.0033805505 -0.0031499404 -0.0040330905 0.0019303041 -0.004363975 0.004620018 -0.0013747661 -0.00069617206 0.0022444557 -0.0017666615 -0.002055915 -0.0023354667 0.004485573 0.00034225 0.001886744 -0.0016960998 0.0044120415 -0.0018682805 0.0035007964 -0.00015594685 -0.0016687729 -0.0036953192 0.0034995992 -0.0037344561 -0.0032657625 0.003086281 -0.0029276365 0.004093327 0.004645163 -0.0036053855 -0.002937815 0.0024019233 0.0031018704 0.004357757 -0.0010264401 0.0037929763 -0.0015751577 0.0017330394 -0.0022307362 -0.0021059976 0.0015327211 0.00042046042 -0.004444997 0.0004798442 -0.0040539913 -0.0013433055 0.0031064886 0.0031275817 -0.0025517445 0.0031949359 0.0037121738 -0.0013539153 0.0046525206 -0.0014095138 0.00020386676 -0.0021189686 0.0031327845 0.0041738166 -0.0029985516 -0.0046763117 0.003328167 -0.0036397479 -0.0006603218 -0.00205693 -0.0045627877 0.00082761334 -0.0054288423 -0.0026784944 -0.0024082933 -0.0026386254 0.0012309921 0.004335395 -0.004481677 -0.0004753834 0.00037500163 -7.667677e-05 -0.002765969 -0.0024487146 -0.0013229579 0.0015176504 0.002071729 0.000114273644 -0.0034395468 -0.0021344526 0.0007395874 -0.0045377775 -0.0026744578 0.0025880567 -0.004125563
明白 -0.0028869181 0.004122362 0.00060658995 0.0014234739 0.004438439 -0.00016643756 -0.00503093 -0.0043829507 -0.0012053864 -0.002462613 0.0015029538 -0.0011398958 0.002742994 -0.0046482785 0.004043017 0.00010823468 0.0029584528 0.004408763 -0.00479225 0.0048535294 0.004184301 0.0045742313 7.695111e-05 -0.0030890494 0.0028098081 0.004576461 0.0043628425 -0.0031072053 -0.00017353217 1.428594e-06 -0.004582622 -0.0011169777 -0.0027629822 0.0031992767 -0.0009325631 0.0029248435 -0.0019102254 -0.0019419361 -0.0015784466 0.0043009478 0.00044309007 0.0021859417 0.0029054228 -0.0023375545 -0.002618131 0.0006541877 -0.0038484377 0.0043162135 -0.0031933733 0.003908513 -0.0011706097 0.00044509716 0.0035799767 -0.00093262346 -0.004368384 0.002768121 -0.0013397867 -0.0015114039 -0.0017845732 0.0028370249 0.0010215162 -0.0025400023 -0.000426692 -0.001079007 -0.00051838177 0.0016970951 0.003441863 -0.0044570696 0.0032677874 -0.0004327354 0.0046667526 0.0001319186 0.004043718 0.0039221975 0.0023258987 -0.005071745 -0.0013221989 -0.0010249403 -0.002388647 -0.0024702044 -0.0019185459 0.00038437697 -0.0045927376 0.0037637337 0.00074188 -0.004231381 0.00440934 0.0043898937 0.0035526692 -0.0007881415 -0.0027805918 0.0013708115 -0.0024005685 -4.692129e-05 -7.9041936e-05 -0.0023172412 0.0037943926 0.0031198352 0.0041442756 -0.0045050536
怎么 -0.002090266 0.0008890231 -0.0023623472 -0.0006317188 0.0021958337 0.0020770598 -0.0024719827 -0.00012488107 0.0074069067 -0.001676253 0.003631104 0.0031067794 0.0010370404 -0.0027441545 -0.0022549373 0.0028316902 -0.0048279027 -0.0041642874 -0.008567337 -0.0024946225 -0.0009994556 0.0012978284 -0.003071277 0.0013919943 -0.0034414763 -0.004774186 0.0037648163 0.0044491687 -0.0006026857 0.0004102298 -0.0038967968 -0.0047874246 0.002097705 9.739453e-05 7.247272e-05 0.0029216155 0.0046695983 -0.0046715154 0.0081640845 0.0073783807 0.00080838834 -0.0003831602 -0.0054027205 0.0021334973 -0.0014918445 0.0054419367 0.0020800992 -0.001789835 0.0074664014 -0.0015573152 0.0001036058 0.00061790115 0.00030576042 0.007842911 -0.0040654726 0.0019084078 0.0011798118 0.003536719 -0.007012869 -0.0014794245 -0.0039320257 -0.0039824806 0.002641198 -0.0033542553 -0.0006950894 -0.003952495 -0.0029205072 -0.0046988246 -0.003879868 -0.0015536118 0.00039407008 -0.0051575764 0.0030281486 -0.0014879948 0.0043604067 -0.0028485295 -0.0035338062 -0.008763892 0.0058843843 0.00229047 0.004592086 0.0045660576 0.0016744462 0.002098793 0.005988873 0.001167933 0.008047973 0.0062439768 0.006274549 0.0017840951 0.0024660646 0.00038522575 1.0040256e-05 -0.007073267 0.0022711863 -0.0030938208 0.0021986493 -0.0003384705 -0.0012646128 -0.0057035154
能 0.0044877813 0.002512109 -0.0009220108 0.004155861 -0.0018638172 0.004227555 -0.003058474 -0.0035921726 -0.0021127656 0.002523235 -0.0017791642 0.0015221582 -0.0031426563 -0.0038795285 -0.0029689164 0.0013172958 -0.002321969 0.0007004343 -0.0045022047 0.0016444161 0.004592942 0.0036868542 -0.0008257829 -0.0029406857 0.001778245 0.0010028619 -0.001655248 -0.002182243 0.0047082235 0.0031565404 -0.00046893954 0.0026653921 0.0037496411 -0.00021976864 0.0036384538 0.0025017827 0.0005542715 -0.0018297738 0.0014843966 0.0047915014 -0.0009754708 0.003972345 -0.003820276 -0.0008589719 -0.0034110553 -0.0014904205 0.0047227675 -0.004657117 -0.0007493603 0.002110687 -0.00062329054 -0.0034972723 -0.0010385712 -0.002399884 0.000560226 0.004076239 -0.0047836094 0.0031722188 -0.0021539526 -0.0029732792 -0.0017090508 -0.0040304177 -0.003473868 -0.00080202986 -0.0045359205 -0.0048431875 0.003301308 -0.0024595289 0.001858824 0.004673168 -0.0005540838 -0.004844307 -0.0024712803 -0.0041882135 -0.0029103232 -0.0048970445 -0.0006998688 0.0027439464 0.0011327702 -0.004169821 0.0015156941 0.0005288848 -0.0019705335 0.0028944858 -0.0030703507 -0.00044256946 0.0037511585 0.0025511303 -0.0001222834 -0.0024942332 0.004017229 -0.0030070762 0.00041323545 0.0036907936 0.004993393 -0.0027987272 -0.00050766347 0.002504539 -0.0042935587 0.0043936605
写 0.00459102 0.00396472 0.00039513735 -0.0030576128 0.0024487518 0.003308202 -0.0011781509 -0.0032357932 0.0022046282 -0.0026059537 -0.0017881952 -0.0021758773 -0.004818812 0.00040716797 -0.0017543396 -0.0015517451 0.0005311444 0.0002566916 -0.0043023084 -0.0033183873 0.0007740277 0.0012407278 -0.001637344 -0.00466298 -0.0044101 0.0013182871 -0.0009918722 -0.0007294997 0.0019210319 -9.199725e-06 0.0033655022 0.0008884783 0.0007678413 -0.0001029479 0.0028582371 0.00365176 0.00088710705 -0.0019926736 -0.0026428266 0.005676106 0.00055334164 0.0009023256 0.0008618193 -0.004529836 0.001063251 -0.0045329086 -0.0045772856 -0.0015368963 0.003004798 0.0009108252 -0.002408014 -0.00090611266 -0.0013111694 0.0026540593 -0.0030439973 -0.0035624637 -0.0041604554 -0.0048145223 0.002662241 -0.0001310024 -0.0034362047 -0.00019752391 0.0033817706 -0.0036802576 -0.0007771513 0.003701953 -0.0038919216 0.00062172645 -0.0026858072 0.0042757792 0.00331251 0.0036281934 -0.0032236313 -0.00095145544 0.002491675 0.0035307843 -0.00218411 -0.0045077726 0.002679095 -0.0042991443 0.0021947343 -0.0010222949 0.0011954319 -0.004025143 -0.004385656 -9.8625096e-05 0.0053010797 0.0013010268 -0.0043018213 0.0037388173 0.0048575243 -0.00016816247 -0.0003181505 -0.0036170278 0.0035002322 0.0041656718 0.003617371 0.0010643264 0.0025338843 0.0020641584
步骤 -0.002890064 0.0006996226 -0.0005555259 0.0014340121 -0.0025383162 0.0024555014 -0.0009214865 0.0017371667 0.0041003944 0.00059464277 0.004167093 8.930228e-05 -0.004143131 0.0012541668 0.0029664985 -0.00016321274 -0.00044639214 0.0021576702 0.003708911 0.00048694768 0.0048290254 -0.002443855 -0.0014257808 -0.00066556217 -0.0031494212 0.00054986053 -0.0037228856 -0.003418306 -0.001713553 -0.0037058457 0.0034968026 -0.0008078518 -0.00038434326 0.0018299634 0.0017551956 -0.0016699677 0.0034011183 0.00044754313 0.0030365502 0.0010857675 0.0004584507 0.003230757 0.0042983945 0.0022548689 0.0014860383 0.0006522996 -0.0042929854 0.0025197866 -0.0026829692 -0.0046045636 0.0037298442 0.003133233 -0.0010648145 -0.0013399484 0.0013237422 0.0021080917 0.0047856946 -0.0036439914 -0.0041305134 0.003801777 8.065685e-05 0.0023849653 -0.004354944 0.003086668 -0.0026686038 0.0043406305 -0.0023036345 -0.0026587606 -0.00071648206 0.000988508 0.0045079966 0.0047511565 -0.0024930171 -0.00015570119 -0.004170596 0.0004115548 -0.0035027615 0.0026812896 0.004258109 -0.00055596785 -0.00052121945 0.004129444 -0.0016472938 -9.540249e-05 -0.0047215153 0.004014012 0.000941995 -0.00074578903 -0.0013697485 0.0022480818 0.00034289312 0.0013257472 -0.0037602668 0.002556137 -0.0012861134 0.0004010052 0.0009854265 0.0048487512 0.0024335205 0.0034948657
非常感谢 -0.004545447 0.00034940493 -0.003037724 -0.004260253 0.0008639459 -0.0019633635 0.004475716 -0.0010628471 0.003721286 0.0028044607 -0.0030518994 -0.0040904684 -0.0022504134 0.0036792709 0.002088075 0.002607524 0.0048677144 0.0006308373 -0.00054565584 0.0037286892 -0.000742597 -0.002897779 0.0037973444 0.004175917 -0.003076877 -0.0033555941 0.0021850802 -0.0039519463 0.0038154095 0.004283579 0.0014964107 -0.0044728 -0.0036637734 -0.0009805951 -0.0035467178 -0.0031313314 0.002326506 0.002727572 0.0042834384 0.003521519 0.00015144864 0.0039535225 -0.0020341102 0.004008922 -0.0007978367 -0.0021333462 0.0049127787 -0.002804841 0.0027014608 0.0043806983 0.0019029815 0.0022333686 0.001122046 0.002408081 0.0013375833 0.005014213 -0.0017538023 -0.00352165 -0.004603592 -0.0019184256 -0.0030584845 -0.004911751 -0.0038509744 -0.0035962237 -0.0020150677 -0.00058551104 0.004111244 0.0013887617 0.0035663848 0.0033882684 -0.0003257725 -0.00045481973 -0.00094444084 -0.003332474 -0.0032487574 -0.0007402974 0.0007051912 -0.0029329543 0.0009180308 -0.0016872587 0.0037834782 0.0014475408 -0.0017755104 0.00028543078 -0.004235431 0.0035051864 -0.0024450398 -3.9448187e-05 0.0015056931 0.00032857672 -0.0038224496 0.0029123768 -0.004144711 -0.0008112368 -0.0009393796 -0.00047934474 -0.0032270653 0.00097258366 0.002738702 0.0015887241
这道题 0.002906863 -0.0015014426 -0.0011699069 -0.0036937424 -0.00014190309 0.0045337672 -0.00023705765 -0.0021561224 0.0030776192 0.0008354456 0.0017326534 -0.00094099226 -0.004640214 -0.0018256536 -0.0009273628 -0.0028894988 -0.0050888546 0.005001386 -0.00042423382 0.0018398996 -0.00012964995 0.0040432885 -0.0042304522 0.0023556324 -0.004728027 -0.0029794844 0.0046024825 0.0023284373 -0.00031216865 -0.00073598075 0.0012020554 -0.0039862744 -0.00012250706 -0.0035744484 0.0037176288 0.0013118201 0.0027321663 -0.0018221685 0.0012261214 0.00044071305 -0.0033827145 0.0033349842 0.00018235356 -0.0041234926 -0.0032537014 0.00040433693 -0.0009984004 0.0024498273 0.001749875 -0.00016176132 -0.004526075 0.002295797 0.003287623 -0.00032917465 0.0049335477 0.0037181 -0.00061895524 -0.0038734889 -0.0005343123 -0.0004247352 -0.0039363224 -0.00062869163 0.00018373427 0.0038452232 -0.0047914884 0.0011163405 0.00054395554 0.0003480723 -0.0036985925 0.0018831706 2.7978462e-05 0.0021599901 -0.0017207072 0.004163022 0.00082804624 0.0007453242 -0.0032071224 -0.005641104 -0.0028529144 -0.0026144881 -0.0032881924 0.0015535891 -0.0014472456 0.003979498 0.0021391455 -0.0021199337 0.0050984584 0.003083201 -0.0027397908 0.0025548472 0.0003549155 0.0003053243 0.0014760697 0.0005990947 -0.0008550325 -0.002304636 0.0008494764 -0.00015891485 0.0029173833 0.0004577271
啊 -0.004019803 0.0033625988 0.0030485853 0.004613877 0.0009100169 0.0012687042 0.0020700144 0.002329587 0.0048547676 -4.480272e-05 0.0020087075 0.0028067946 -0.0043349355 -0.0026203385 0.000895902 -0.00090756646 -0.0048755035 -0.0045346525 -0.0025215845 0.0043013585 -0.0013548554 -0.0042486396 0.0016956883 0.003208913 0.004304131 -0.003214846 1.2906141e-05 0.0048387125 0.00053551205 0.0008664884 0.0025312165 -0.0013221505 -0.003354154 -0.0040529044 -0.003410643 0.003316502 -0.0019824896 -0.00046622375 0.005769802 0.0038072744 -0.0026322003 -1.1237193e-05 -0.002559201 0.00526634 0.0014842 0.00025593454 -0.002608058 0.0051375665 9.500999e-05 -0.00073744106 0.00019362943 0.0024356584 -0.0009693192 0.0049302424 0.0043655843 0.0026937155 -0.00021689871 -0.0013410945 0.0035962514 -0.0002590661 -0.0035865519 0.0019179501 -0.0015725062 0.0025096138 -0.0050699203 0.0006632261 -0.0038320713 -0.0031172964 0.0012131826 -0.00051444897 -0.004175185 -0.0015120368 -0.0026274247 -0.0018910278 -0.0023313586 0.0026962974 -0.005419767 -0.006039979 -0.0010669369 -0.0028450785 -0.0004477595 0.0020020662 0.0038817562 0.004909393 -0.0019220528 0.0036665604 0.003849239 -0.0030005139 0.00510717 -0.0023088004 -0.0043969597 0.0020149678 -0.0025333266 0.002654817 0.0029397996 0.0010771134 0.0015384379 -0.0010524563 0.0026402439 -0.0010007822
大神 0.0034463566 0.0011205872 -0.004489367 -0.0038907642 -0.0007883943 -0.0002973145 0.0006433304 -0.0005968575 -0.0025185165 0.00082003715 0.004014266 -0.0017349215 -0.00137306 -0.0039533996 -0.00089599116 0.002933932 -0.0017153932 -0.00028935465 -0.0028498634 0.0013629079 -0.0027876808 0.0002553396 -0.0047585163 0.0010888195 -0.0021761458 0.00018649381 0.0018908595 0.00020221126 -0.0003964429 -0.0025371094 0.0006566188 0.002373139 -0.003401693 0.004951788 -0.0033379006 -0.0022842824 0.0031406668 0.0011527641 0.001029617 0.0017762306 9.3678645e-05 -0.0043359413 0.004107862 -0.0024265135 0.0021733511 0.0024986335 -0.0024454936 -0.0041903886 0.0027652127 -0.0029655788 0.0027793539 0.0018274735 -0.00494254 -0.0010693083 0.0012082757 0.0034344315 -0.004035258 -0.0013415387 -0.0014901449 -0.0015176666 0.0043109804 0.0037599665 0.00016751708 -0.0032809312 0.0036509244 -0.0025039783 0.0044293962 -0.0005739622 -0.003201523 -0.0025043976 0.00037193022 0.0036705132 -0.0017045646 -0.00024121543 0.0049618115 0.0010928948 7.890956e-05 -0.0033253436 -0.0009678653 0.002683118 -0.00066288956 -0.003083567 -0.0022425489 -0.0019390275 0.004796619 -0.0017011988 0.0049906033 0.0018143184 0.0026105018 -0.0046511698 -0.00059545686 -0.00024299012 -0.00070891774 -0.0033294926 0.0016580132 -0.0028411616 0.0016896497 -0.0020441606 0.0039600465 -0.0023552931
帮忙 0.0003281987 -0.003165019 -0.0009045647 -0.004061488 0.0019950522 0.0034960934 -0.0036125174 0.0011749838 0.00055506756 -0.0042005703 0.001229134 0.001188267 -0.0017657112 0.0011412065 0.002831325 0.003033101 0.00085389684 0.0032793523 0.003466786 0.0011693453 -0.0028714712 0.0018545963 0.0012449811 -0.0010600796 0.003029685 -9.5128446e-05 -0.0034271523 0.004688989 0.0003006871 0.0038807984 0.0033465454 0.00082691247 -0.0013301546 -0.0018641802 -0.00022065511 -0.002154626 0.0008258828 -0.004075241 0.001200427 0.0037872228 0.00463992 0.0027250084 -0.0032865212 -0.0020336956 -0.0039096475 -0.004402525 0.004694227 0.0007089714 0.0029789568 -0.0007349786 0.0013242987 0.0039007613 0.004950339 0.0020168722 -0.002974121 -0.0041427985 -0.00063651183 0.00070108986 -0.0031379908 -0.00050025876 0.0034903032 -0.0020384395 -0.0029877357 0.0018092656 0.00061049353 0.0037358343 0.0038677717 0.0023422292 0.00087173685 -0.004555458 -0.001627759 -0.004972026 -0.003101206 0.0019065985 0.00013924943 -0.0051269825 0.004445254 0.00053564657 0.00502839 0.0014937497 0.0039803893 0.004802534 0.0011235632 0.004489511 0.0006151375 0.0025735772 0.0009288875 -0.0040603387 -0.0031134873 0.0013844576 3.335411e-05 -0.0019062379 0.0008861839 0.0022288987 0.0026899693 0.003733891 -0.0016571721 0.0021759172 0.0043634526 0.002489339
请 0.0028049855 -0.0048222486 0.0046638176 1.3051173e-05 -0.003207467 -0.002810192 0.00395888 0.005054775 0.0038249097 0.0037514789 0.0043271785 0.00042739048 -0.0010858785 -0.0018958381 0.0009274283 0.0006387049 0.0013847905 -0.0035220063 0.003999538 -0.0038092134 -0.0027596338 0.0012277294 7.676328e-05 -0.0015683848 0.0048344187 0.0014504982 0.005023201 -0.0034044355 0.0025703018 0.0018492133 -0.0026768018 -0.004348184 0.00036939696 0.0010128708 -0.003551553 0.0033643264 0.0028619173 -0.0025088547 0.0029298281 0.00417108 -0.0010827491 -0.0022207054 -0.0016486953 0.005132083 0.0045176456 0.0020574406 -0.002929217 -0.0045187753 0.0009424878 -0.0024049042 0.0036695 -0.000599399 -0.0014571302 -0.00082490215 0.0022665702 0.0020706928 0.00012981566 -0.0025912574 0.0035660532 0.0044684154 0.0014435386 -0.0012456694 0.0039014805 0.0042908997 0.0004242513 0.0008435697 0.00033807015 -0.0039459458 0.0011209807 -0.0036410482 -0.0020625314 -0.0036565915 0.0016797455 -0.00407112 0.002173632 -0.00060433085 -0.0007275699 0.000844338 0.00033640224 -0.00066030154 -0.0014109965 0.00035960597 -0.00426532 0.004070344 0.00011707506 -0.0029801782 0.0018642546 -0.004131484 0.00021028172 0.0003825854 0.003344023 -0.0027211222 7.110385e-05 -0.0051169824 -0.00048041664 -0.0026476895 -0.0021081879 -0.00043782283 0.002449389 -0.0028733797
计算 0.0010053171 -0.0016765393 -0.0038155909 -0.001865169 0.0032308495 -0.00037695878 0.00407934 -0.0013011388 0.004963786 -0.0038638844 0.0036571566 0.0031952665 0.0011103405 0.00053314224 0.0012304921 0.004755011 -0.0011111825 -0.0048166662 0.0045192107 -0.000539319 0.0017979298 -0.0015686443 0.0012364113 0.00048372566 0.0048576687 -0.0029975558 0.0035776133 0.0019669258 0.00021651591 -0.003307883 0.003958855 0.0036224897 -0.0023110912 0.0034058366 -0.0038385957 0.0034276089 -0.0027242897 -0.0033306512 0.00052299956 0.0036447789 -6.807813e-05 0.0021265969 -0.0035690872 0.00042690276 0.00013322946 0.0025121784 0.004943556 -0.0045261914 -0.0026994778 -0.0013681098 0.0044065877 -0.0043032733 0.004389246 -0.0006986596 -0.004446258 -0.0014370875 -0.0001980598 -0.0045949086 -0.0014336633 0.0029486609 0.0038418572 0.0034566647 -0.0035045065 0.0022493345 -0.0037302792 -0.00017760292 -0.0047148415 0.0009901529 -0.0038199127 -0.0035932378 -0.0029886938 -0.0024828643 0.00018453485 -0.00022500471 0.0031060218 0.0015426866 -0.000758214 0.0005428307 -0.0016311898 -0.004341172 -0.004797794 0.0045603462 -0.0017556062 0.00066663936 0.0032496653 -0.0032431928 0.0035776026 0.001731969 -0.0008717647 0.0047800182 -0.0027614622 -0.001343213 -0.0033971039 0.00052808336 0.005079908 -0.0011657481 0.0037237338 0.0027810447 0.00018206681 -0.0008515238
过程 -0.0026459468 0.0023588003 -0.0038811956 -0.0031175076 -0.001044592 0.00055436813 0.0016710792 -0.00086370856 0.0008416123 6.836413e-05 -0.00052427064 -0.0024493232 -0.0011008286 0.0024168242 0.004502857 0.0012523524 0.002779756 0.0015798737 -0.0006692458 0.0029390734 -0.0032793733 0.00023062671 -0.00048221726 0.0035830128 -0.0008275568 -0.0043737357 0.0012072063 -0.0029107984 0.0041693356 0.004671824 0.0026314415 0.0003669821 -0.0005113287 -0.001722905 -0.00011676673 -0.0024510818 -0.0008291809 0.0041605514 0.0041991607 -0.0019472281 0.0010342615 0.0043051625 -0.0010756343 -0.00014002007 -0.003967138 -0.0010499123 -0.000968468 0.0020285847 0.0030356124 -0.003638668 -2.0212465e-05 -0.001214198 0.004663714 0.0002176884 0.00030286738 -0.0033076287 -0.003063762 -0.00424402 0.0039830217 -0.0037301932 0.00084553414 -0.004786941 0.004539063 0.0035791285 -0.001971413 -0.0022161612 0.004000155 -0.0027802244 -0.0028357469 -0.0027661829 -0.00057116454 -0.00055407634 -0.0042877067 0.0037479089 0.002447239 -0.002378607 0.0031829418 0.0032079534 0.0044983127 0.003536159 0.0007236044 -0.0014561915 -0.0016373352 0.0045064487 0.004441814 0.0024223025 0.0028484073 -0.0016058977 0.004518931 0.004061713 0.004124598 -0.0015504083 0.0027375994 0.00037000686 0.003688174 0.0048405314 -0.0038789876 -0.0014932081 -0.0042054667 0.0045018657
二阶 0.0038190861 0.0043918104 -0.0025673492 0.0040756003 0.0024276532 0.0037523045 -7.8471014e-05 0.0024212322 0.00020605099 0.0036887692 0.00037687013 0.004806909 0.0048886943 0.0049897726 -0.0019021302 0.0018641906 0.0017577955 -0.0041440264 -0.0042114393 -0.00030062132 4.9994687e-05 -0.0036604456 0.0003476328 0.0023217406 0.002388914 -0.0010461176 -0.0019409271 0.0027672842 -0.0045986422 0.0028981622 -0.0006381724 -0.0021541885 0.00012726989 0.004338271 0.004465042 0.0034180866 -0.0032032018 -0.00468599 0.0036763637 -0.0041644843 0.0038231164 -0.0040460327 0.003134568 -0.0041924133 0.004636837 0.0025898023 -0.0044288994 0.004559529 -0.003874779 0.0036299818 -0.0032894402 -0.0011273641 0.0038363093 -0.002841672 -0.0044086142 0.0032702382 0.0018883649 0.003923403 -0.005174378 0.004255543 -0.0007557058 -0.0036474282 0.00030206257 -0.00076348527 0.0026314438 -0.0033084773 -0.0011701959 -0.004443699 0.002150323 -0.0015785099 0.00018388777 -0.0030922412 0.0036852378 0.0038682723 0.0007683154 -0.004848183 0.004754181 0.003633522 0.0018840727 0.00045079453 -0.0008728698 -0.0021771868 0.0022197727 0.0051078848 -0.0011738691 0.00034250005 0.0020512468 -0.002798132 -0.0027370166 -0.0029868127 -0.0034820803 0.004948863 0.0048731887 -0.0028870215 -0.0032975036 8.103669e-05 -0.004399824 -0.00019374692 -0.002960196 -0.0030890403
处 -0.003564616 -0.0034014655 -0.0033236968 -0.004198473 0.0007484744 0.00076535804 -0.0025424152 0.0033367428 -0.002628976 0.0011703371 0.0028806848 0.0032340102 0.0038640122 0.0025659965 0.0016039931 -0.0026087835 -0.002870627 -0.0032530248 0.00076203555 0.003490007 -0.004444769 -0.001968988 0.0009421094 -0.0045666206 -0.002420366 -0.0049233898 -0.002013263 0.004269428 0.0025294335 0.0032556455 0.00040745904 0.003385283 0.004476244 -0.0037448541 0.001083081 0.0048494963 0.0027583337 -0.0025431116 -0.0030858505 0.0031865905 0.0050783935 0.0021588018 0.003567159 0.004705262 0.0034627935 0.0029245885 -0.0022240104 0.00087946415 -0.0029172665 -0.00043336378 0.0020875272 -0.0038759105 0.0008595778 0.00503158 -0.00048345572 -0.0024561451 -0.0024699569 -0.004755108 -0.002585327 -0.0014015391 0.00075070147 -0.0007072524 -0.0012886412 -0.0037993246 -0.0015487325 -0.0035733392 0.00467975 0.0027236016 -0.004943137 -0.0035202587 0.0052602673 -0.0030047374 -0.0034132593 0.0024208827 0.004039881 -0.00482057 0.0024528222 0.0025932826 0.003147191 -0.0031331864 0.0027993026 0.0043469006 0.004283028 -0.0030639712 -0.0024975222 -0.0029821082 -0.0023337035 -0.00023309274 0.0033230095 0.00451443 -0.0042556035 0.0037634843 -0.0037842565 0.0014788404 0.0010118631 0.001368371 -0.0042823907 -0.0027209758 0.0032311596 0.0003613684
值 0.0009598846 -0.002153229 -0.0007878853 0.0013540267 -0.00041837126 -0.0042537265 0.00065151666 0.004446479 0.0005493731 -0.0033377886 0.004633204 0.0032287135 0.002563514 -0.00066358317 -0.003609804 -0.0044494667 0.00019530216 -0.0007775294 0.0020565933 0.004177014 -0.0047646086 -0.003457522 -0.00046385723 0.0012616989 0.0039046176 0.0040168455 0.0025314544 0.00205595 -0.00295298 -0.004523763 0.0008806333 -0.0012257496 4.723388e-06 -0.0043800995 -0.002433864 -0.0027836445 -0.0039127613 0.0030342464 0.0028917834 0.00025487554 0.0020816722 -0.0033925162 -0.0023435995 0.0010220918 -0.0030299223 -0.0029983083 -0.0017291136 -0.004388039 0.0030881502 0.0009834678 -0.0033643488 0.0006528433 -0.0033978967 0.003910363 -0.0027320539 0.00080303475 0.004588544 0.0027395096 -0.004537367 -0.003661367 -0.0040726103 0.0040985076 -0.00449723 -0.0025765272 -0.002267304 -0.004714357 -0.0034409007 -0.0005658016 0.0006097569 -0.004404741 -0.0030803913 -0.00083011825 0.0033834889 -0.0023177303 -0.0035631154 0.0046471027 -0.0029334016 -0.0020182 0.00014032023 -0.0013624076 0.0047138957 -0.0003342022 0.00073282677 -0.0020568853 -0.004035887 0.0032651166 -0.0027804847 -0.000985867 -0.0014424269 -0.0027917868 0.0037187762 0.0043185367 0.0019926045 -0.0046240897 -0.002133655 -0.0007334131 -0.0034293397 -0.00088544696 0.0013339764 0.0013398941
是不是 0.0017885668 -0.0010266545 -0.001219366 -0.0032623133 -0.00432963 -0.0044899737 0.00019230627 0.0039812927 -0.0024792212 0.0007204053 0.0048008165 -0.0021465144 -0.0033340347 0.003881409 0.0025863599 0.0016473344 0.002675403 0.0010735255 -0.0029223275 0.002106623 0.0044841804 0.0045450768 -0.004901418 0.0045250887 -0.0021066475 -0.005129491 0.0027052083 -0.0005068734 -0.00076017174 -0.0031757718 0.0042977487 0.0038459257 0.00021275718 0.00065776054 -0.00045657248 0.00045378966 -0.0005852855 -0.00017455187 -0.0030725792 0.0026209347 -0.0014846637 -0.00082855625 -0.0012871767 -0.0012665383 0.00028210823 -0.0011282197 -0.0022202986 -0.0032984114 -6.8573194e-05 0.00042890673 0.00026965098 -0.002679649 -0.0035897424 -0.003828268 -0.0017391985 -0.0005791168 -0.00047249813 0.0020560806 -0.0021622188 0.0035120428 -0.0037601818 -0.003140429 0.0007803548 0.0019257779 -0.0015650633 0.0017271839 0.0024267456 0.0013747264 0.003599976 -0.0010195115 -0.001039609 -0.0002670159 0.001035469 0.0018511141 -0.00020152255 -0.00064987456 0.0036631953 -0.0009506013 0.0027446628 0.0026833406 0.003264393 0.002976041 -0.0046968255 0.0021290185 0.0045541744 -0.00428844 0.0047200033 -0.002813203 -0.0026140155 0.0002411915 0.0030606603 -0.0043095867 5.4787233e-05 -0.00039235532 -0.0010567815 -0.0014290722 0.00073950656 -0.00430243 0.0049439818 3.3390017e-05
题目 -0.0037483796 -0.0044241687 -0.00012602398 7.526025e-05 5.2038216e-05 0.002268337 -0.004120369 -0.0004893881 0.0039047145 0.0014784978 -0.0045906464 -0.0041048476 0.00027134622 -0.0013885546 0.0038529737 0.0043798657 0.0027425098 0.0046379818 0.0036197049 0.0035422763 0.004253897 0.002268287 -0.00442448 -0.0027216715 -0.00196966 0.0011808855 0.00014317248 0.0021109995 0.0022095966 -0.003163441 0.0022606247 -0.0029568889 -0.003694896 -0.00022146429 -0.0047409735 -0.0029297716 -0.0011157742 0.0016085925 -0.00054665306 0.00046277884 0.0007788662 0.0008763082 -0.0026588961 -0.0016127448 -0.0031932185 0.0011992076 -0.0015559761 0.0021038584 0.003728154 0.0026629919 -0.0018993457 -0.0011611412 -0.002308745 -0.002257298 -0.0027703564 0.0010184575 0.0015870577 0.0025027092 -0.0015598697 0.0046061305 -0.0008184896 -0.0043906923 0.0046703517 0.00049623393 0.00401946 0.0035639927 0.004958853 0.004246508 0.0030676029 -0.0020609305 -0.00172985 0.0037987565 -0.003300352 -0.0006702727 -0.002876129 -0.0050673955 -0.004902172 0.0007309395 -0.00014618706 -0.003453677 0.0033727363 0.0018774503 -0.003094135 -0.0013848881 -0.0016231237 0.0043172077 -0.0012016788 -0.004694295 -0.00068832125 0.00038880648 0.0015795438 0.0021978149 0.0038528002 0.00079977745 -0.0017333642 0.00342302 -0.0035517374 0.004277692 0.0026702003 0.0026910573
不会 0.0027220685 0.0018553431 0.0034884466 0.0025026926 -0.0018826856 0.0017434868 0.0028929485 -0.0032452755 0.00527916 0.00018437175 -0.00053733814 0.0032045776 0.0043326453 -0.0041251876 0.0031994353 0.0036455435 0.0011238897 0.004125533 -0.003072861 0.00014762049 0.003392219 0.003888158 0.0026191315 -0.00052779564 0.0013528102 0.0035112468 -0.0016990498 -0.0008222917 0.00501782 -0.003080591 0.004354235 -0.0050559817 0.0014741893 -0.0025783342 0.0006005753 0.0020363166 0.0003228964 -0.003918964 0.004928724 0.0018897202 0.0029880516 -0.0025618293 0.004072194 0.0021354111 -0.003537585 -0.0015589609 0.0029544178 -0.0027190743 0.004950895 0.0039415807 -0.0031491478 -0.0030719803 0.00041457586 -0.002000912 -0.0022573103 0.0010176903 0.002328546 -0.0027183609 -0.0048076343 -6.3411295e-05 0.0049833795 0.0037147766 0.0037245662 -0.002204645 -0.0019591392 -0.0018488127 -0.000612277 0.00028372626 -0.0018189525 0.0029131311 0.00296657 -0.0043408736 -0.00014630573 0.0007271164 -0.0005533855 0.0012890339 -0.004390735 0.0012567887 0.0046304627 -0.0018654161 0.0023715447 0.0043826182 -0.0010135389 0.0014807418 -0.003599442 -0.0018636095 0.0012293376 0.0019207015 -0.0010870554 -0.0047684205 0.0022495678 0.0038890128 0.0016447451 0.0036441837 0.0038476037 0.0030393386 0.002371426 0.004809111 -0.0024740233 0.0040539727
这个 0.0041890005 0.0015580892 -0.0042765024 -0.0015278758 0.0032922055 0.00044687203 0.00042258535 0.0020286515 0.005336539 -0.001560276 -0.0030377419 0.00022124274 -0.0020779024 0.0034453156 0.003276564 -5.0192008e-05 -0.00045101834 0.0020357675 -0.0065081916 0.0012924437 -0.0014519222 -0.0023154635 -0.0021062924 -0.0016307925 -0.0033608293 0.0032941324 0.0050736284 0.0032173763 0.0050854227 -0.0038087484 -0.0021177765 -0.0032527347 0.006210372 -0.0019720087 -0.0018928718 0.00228844 0.0032927329 -0.005839023 -0.0003000825 0.004222505 -0.0036419241 -0.0028287207 0.00061306776 -0.0040892856 -0.0022119717 0.0017745262 0.0025589645 0.0057857796 -0.0027006639 0.00033013307 0.0014777683 -0.004991396 -0.0037108564 0.0034314936 -0.0046081943 -0.0021835305 0.0037823718 0.0012164867 -0.0048167463 0.0024847698 0.0035750852 0.0029605627 0.0022194015 0.0019281007 -0.003546165 0.0034573444 -0.0018335766 -0.004037416 -0.0036917264 0.004502402 0.0004717334 0.0017243659 0.0031817246 0.0039606625 0.0025485237 0.002974045 0.0030477268 -0.0024955415 0.0013514728 -0.0042091543 -0.0034888547 -0.0028544734 0.0043130894 0.004305361 0.005767959 0.004237703 0.0009233619 0.005597855 0.0016465886 -0.0060661226 -0.0033565012 0.0026207294 -0.003417638 -0.0043004286 0.004534996 0.0012899867 -0.004662756 -0.0033777694 -0.0019640932 -0.004922001
部分 0.0034962539 -0.004703038 -0.0010431664 -0.0026042655 0.003732088 -4.011742e-05 0.0039322516 0.00068709627 -0.0006266956 0.004529712 -0.0027251486 -0.0017818562 0.0011079814 -0.0040258197 -0.0011398296 0.0033472364 0.00093292503 0.0049542473 0.0021888772 -0.0019681226 -0.0014763459 -0.0004789158 0.0026397984 -0.0020255172 0.0016279161 -0.00049761054 -0.00042435786 0.0020594732 -0.0008498475 -0.0038971717 -0.004075359 -0.0037730779 -0.00033517086 0.003201644 0.0023221169 0.00027340633 0.0030369572 0.0049500642 0.001709735 -0.0017235986 0.003714242 0.00055515894 0.0029074328 0.0030335702 -1.7222474e-06 -0.004841625 -0.0035269645 -0.0048322007 0.00021317539 -0.0011720901 0.0022912552 0.000689359 -0.004417344 -0.0015134125 -0.0029507924 0.0016028077 0.0019158137 0.00460427 -0.002326979 0.003442355 0.0005091101 0.0009545226 -0.0043115537 0.001199295 -0.0013262182 -0.0009781866 -0.0039811237 -0.0018790837 0.0010120025 0.0032378954 -0.004013244 -0.0047678202 -0.0019100619 0.0012068525 -0.004591633 -0.0048769875 0.0014966824 0.00139184 -0.0015469736 0.00023519063 0.0026280698 0.0020671722 -0.004397695 0.004189331 -0.0041070143 -0.00273231 -0.00070104375 -0.0017000491 0.0025933997 -0.00012017351 -0.0042794 -0.0022724366 0.0029397556 0.0008612365 -0.0024873733 0.002644119 0.0049911044 -0.0020250527 -0.0028009708 0.004692534
呢 0.00179348 0.0016455095 -0.005061333 0.005200863 -0.0042436426 -0.0006771233 0.0016759908 0.0030246603 -0.00216032 0.00013492843 0.003856663 0.0028656132 -0.0045812423 0.0022060168 -0.0038777592 -0.0023970737 -0.0012141629 -0.0019830998 -0.000996363 0.0030545688 -0.002989678 -0.0028556571 0.002479591 0.0018797329 -0.0030864188 0.002275095 -0.00028748193 -0.0010694497 0.00090278976 0.00042886933 0.0038459399 0.003844311 0.0007498358 -0.0024838424 -0.004829869 -0.002903478 -0.004286434 -0.0011050291 0.00039080426 0.00075635454 0.0036926232 0.0035986237 -0.0018197899 0.00032379475 0.0013220548 -0.0005073525 0.00020496274 0.0020912073 -0.0005456044 0.0034527627 0.0025431537 0.001490845 -0.0032094577 0.004695281 -0.00041763118 0.0042962315 -0.0021466543 -0.0045338213 -0.0033358363 -0.00080870406 0.002232704 -0.0021518304 -0.0025308733 0.001725481 -0.0019178721 0.001565387 0.0016838893 -0.0011966386 0.0017175629 0.005002294 -0.0006433804 -0.0032612192 0.004432146 0.0029236404 -0.0042190035 -0.00128574 -0.0018990324 -0.0042921603 0.00048336247 0.0023442032 -0.004836427 -0.0016941008 -0.0019688993 0.004844993 0.0024192655 -0.0012756801 0.00045078585 -0.0023610198 -7.080444e-05 0.004310548 -0.0023543173 0.00030744498 -0.0031965645 -0.0030067458 0.0029384915 -0.00014217704 -0.0017091716 -0.00073497655 0.0029812749 -0.0043970053
t -0.001180635 0.0018996986 0.0015275867 0.0028820692 0.002072367 0.0049788924 -0.0013826292 -5.7672078e-05 0.00076706783 0.003113936 0.0023189336 0.0045521893 -0.0003878099 -0.0027232608 -0.004986927 0.0032991818 -0.004246187 0.001626343 -0.0010173039 -0.00046414352 -0.00027814452 0.0004676702 0.0017469549 -0.0025542043 -0.0035240443 0.004006498 -0.0028766824 -0.0042284057 -0.0027641691 -0.0012986826 0.0046830983 -0.0031992176 -0.0017493288 0.004928076 0.0035340816 -0.004210984 -0.0013041632 0.0030589572 0.0006719167 -0.004242222 0.0049254266 -0.0014069171 -0.0013468344 -0.0014760545 0.0010627244 -0.0008343812 -0.0011494093 0.0049949787 0.0023673996 -0.0008430217 -0.0047516744 1.3816787e-05 -0.00047641125 0.0036015487 -0.0047495165 0.002135213 0.0046718405 -0.0013359437 0.0031809688 0.003380605 -0.0033692238 0.0027684295 -0.0026146364 0.0014613017 0.0026407128 -0.0020809348 0.0017335783 -0.0024191928 0.0040888265 -0.0028635403 0.0030901798 2.8986704e-05 0.0032332225 -0.0029151023 0.003097906 -0.003079205 0.003367254 0.004226925 -0.0010628394 -0.0014106542 0.0041924277 -0.0036470008 -0.00050365075 -0.003231315 -0.004471465 0.0037924862 0.0030206144 -0.0019895465 -0.0024691885 0.0033769119 -0.004857973 0.0035038167 0.002513724 0.0011445971 -0.00097144605 -0.0048377644 0.0010332556 0.0033377535 -0.001460436 0.0028371627
算 0.0014489264 -0.002114256 -0.0036035038 0.0004266165 -0.0038883314 -0.003739136 -0.0030934615 0.0004959904 0.0038196628 0.0028676784 -0.0033813154 0.0016506853 0.0023757992 0.0038944688 0.0016475136 0.0022037236 -0.003834949 0.0033913502 -0.0050448165 0.0029832153 0.002894351 0.0033077293 0.0018786105 -0.0037102103 -0.00088787737 0.004716062 0.0020798803 -0.0005405298 -0.0030306017 -0.0035942066 0.0019155361 -0.0037569215 0.004272554 -0.00092797016 -0.0050928006 0.002931885 0.0034277441 -0.0016948201 0.004341685 -0.0012157562 9.594624e-05 0.0015934043 0.00075872947 0.004740524 0.0046952325 -0.002349073 -0.0016262508 -0.003478192 0.0042731646 0.0025387732 0.001977403 -0.00051808177 -0.0020649177 0.0043936903 0.0007352836 -0.0033162376 -0.004676707 0.000563425 -0.0018885405 0.00013986511 -0.0017076451 -4.2299063e-05 -0.0038758495 -0.00019341617 -0.0010948393 0.00037031178 -0.001086631 -0.0037448707 0.0048673265 -0.0046052225 -0.00195617 -0.0024181132 0.00370683 4.9649512e-05 -0.0025694878 -0.0018108386 -0.0046208715 0.0034149028 0.0002347021 0.003915372 0.0041667214 -0.0036217761 -0.003715927 -0.0033296268 0.0011279318 -0.00021029275 0.004373009 0.00026878936 -0.004469329 0.003964102 -0.0030744267 0.0012986857 -0.0037865518 -0.0036766247 0.0025258209 0.002514488 0.0006817214 0.0016771357 -0.004188212 0.0036597545
直接 0.004821501 -0.0021390382 0.004295098 -0.00097359036 0.003912189 0.0026451498 -1.0016811e-06 -0.003524891 -0.002651543 0.0026562223 0.0042217993 0.0006890452 0.00057560275 0.00014974881 -0.0019029025 -0.0011605882 0.003667595 -0.0029575864 0.0013977377 -0.0032679276 -0.0004935893 -0.004465688 0.0006646827 -0.00080263295 0.0021136107 0.0027374602 0.0049361885 -0.003936572 0.0034023884 0.0010344059 -0.0017577483 0.0030292743 0.0003415108 -0.002595174 0.003043529 -0.003138155 0.0013534782 -0.0042384407 -0.0026097856 -0.0020202042 0.0009703753 0.0048951837 -0.0026801543 0.0047446117 -0.0015506491 0.0017644247 0.0013774787 0.0019576736 0.0022021665 -0.0016538734 -0.004403174 0.004206659 0.0013015495 0.00016825409 -0.0042413455 0.0012104791 -0.0038398237 -0.00089691917 0.0020633386 0.00011223597 0.0022415123 0.0031521972 0.00097323355 -0.0037032042 -0.003928088 0.0016573126 -0.0011271054 0.0013284707 0.0045626 -0.0041301358 -0.00053531176 0.0013268308 0.0030361328 -0.00037682697 6.900659e-05 0.0027616303 0.0012082896 -0.0036494455 0.0031876052 -0.0038763757 0.002266304 0.0005397374 -0.0022190209 0.00237468 0.0032399795 0.0052347416 0.0041473545 0.0006029966 -0.003353101 -0.0050485944 0.0032605638 0.004352946 -0.0026891322 0.0004644664 0.004644193 0.0040053925 0.0038440484 -0.0020243942 0.00042966974 -4.0418206e-05
有点 0.0011612761 0.0018936847 0.00280279 0.0013656159 -0.0032867598 -0.0033761503 0.003953564 0.0043081744 0.0035697212 -0.00020097199 -0.0027283218 -0.0030967793 0.00037319763 0.0046890196 0.0023344057 -0.00039704095 0.00045835128 -0.0018892566 -0.0049212924 -0.0020842215 0.00046808796 0.0038842226 -0.0029794632 -0.0045039863 0.000146473 -0.004061998 0.00046282224 0.0038832312 -0.0049730735 0.003494221 -0.0006530722 -0.0031204529 0.00044393534 -0.000764932 0.0007771399 0.004096036 -0.0026346392 -0.0041380124 -0.0019506427 -0.004431453 -0.00186972 -0.00026743236 2.6019501e-05 -0.003538845 -0.0013975576 0.0023600222 0.0035304755 -0.0006212298 0.001107967 0.00036515042 -0.003878886 0.0013359993 -0.0037861655 -0.004444785 -0.00035179028 -0.0031285493 -0.0048587574 0.0028346318 -0.00480872 -0.0018283048 -0.00078428723 -0.0027614455 -0.0013743654 -0.0025593475 0.0047420883 -0.0037881222 -0.0008919254 -0.0010758527 -0.0024831747 -0.0036262055 0.0045809676 -0.0006541195 -0.002122666 -0.0025758196 -0.0028857477 -0.00302025 -0.0006976948 -0.003919941 -0.003152679 0.0013816862 -0.0040014037 -0.002807453 -0.00015018338 -0.0024972477 0.0011541084 -0.0031101212 0.0036974945 -0.0012673461 -0.004495743 -0.0013872129 -0.0049138702 -0.001104202 -0.0010251892 -0.0020243612 0.0043649063 0.0014882706 0.0003734321 0.0016476716 0.0017181515 -0.00042686614
求助 0.0019994592 0.0019757377 0.0001186829 0.0014432954 0.0018750981 -0.0015441133 0.0019669184 -0.0006378693 6.674329e-05 -0.0048259296 0.0025058747 -0.0019223591 -0.0029197899 0.0006871895 0.0017759523 -0.003086182 0.0005616748 0.004604518 0.0015408201 0.0035387387 -0.00424613 0.001199804 0.0044635516 -0.0046445243 0.0029747277 0.0022779407 0.0036757074 -0.0033859252 -0.003414355 -0.0023927863 -0.0006337577 0.0043969504 0.0035356246 -7.0760085e-05 -0.0014679646 0.004830544 0.0032410333 -0.0044649746 0.003998549 -0.0028087492 -0.0049399314 0.0014931872 0.0036813873 -0.0048584165 0.0033627965 0.0035191954 -0.004462448 0.0023461133 0.0023314506 -0.00034516034 0.0032279438 -0.0009577031 -0.0041527054 0.0043330947 -0.0025066498 0.0007421732 0.0044020005 0.0020926436 -0.002940568 0.0022889045 -0.0023039416 -0.0013151637 -0.0015580024 0.004514171 0.0023741748 -0.0016862793 -0.0002443705 0.0042122845 -0.00026821115 0.0013767653 0.0024798084 0.0038018583 0.0012172586 -0.0042061773 -0.0033593234 -0.0048633935 0.004238011 -0.0018846028 -0.002359113 0.0008054096 -0.0044104345 0.0042679403 -0.0030576184 0.0009625418 0.003567275 0.0034147536 -0.001246145 -0.004478411 0.00490971 0.0012397277 0.0013090528 0.0016122523 0.0013508108 0.0037928976 0.0016803704 0.000607517 -0.004222702 -0.0019297779 0.003244014 0.0040111104
这是 -0.0046017426 0.0011468922 0.0018056238 0.0006972014 0.0009132718 -0.0033195887 -0.00039208322 0.00037034455 0.0049929437 -0.0001799744 -0.0012409908 -0.0010748277 0.0008595256 0.0017367199 0.0018295515 0.003476713 -0.0044934275 -0.0043942407 0.0040787887 -0.0014607636 0.00023546437 0.0012029688 -0.0016309215 0.0030167021 -0.0029750837 0.004380057 0.0049640536 0.0022882633 -0.00041044675 -0.001861876 -0.0013192963 0.0010782533 -0.0021828136 0.0027928264 -0.0024021878 0.0009955337 0.0020269302 0.0017937626 -0.0024409336 -0.0045726453 0.0014944748 -0.0046860566 0.0019338063 -2.611148e-05 -0.0013341216 -0.002738269 -0.0029596465 0.0029737824 0.0016175932 -0.0037790085 -0.0046073096 0.0030027984 -0.0037277432 -0.0042875055 0.0008074347 -0.0030785692 0.0007583521 -0.0021522213 0.004986838 -0.003298082 0.0033479398 -0.00032110163 0.0028401732 -0.00059146195 -0.0035230927 0.00337714 0.0015436751 -0.0022641376 -0.00440617 -0.00047175525 0.0038246613 -0.004232426 0.00053418713 0.004006875 -0.0025418438 0.0034209029 0.0044338843 0.0011488198 -0.0005743642 -0.0008196906 0.004855481 0.0022674464 -0.0031783073 0.0021843682 0.00034735003 -0.0046045803 -0.004239045 0.0012367923 -0.0010099136 -0.0020398237 0.004391636 -0.0026136439 0.0010315616 -0.0023568315 0.0013152112 0.0027918958 -0.0033180374 -0.0013449393 0.0026555134 -0.0005120661
两个 -0.0026157158 -0.0035917992 -0.0001808651 0.003215975 -0.0031374164 0.0013442319 0.0012155772 -0.0004897428 -0.00012636895 0.0035092607 -0.00484579 -7.4755655e-05 0.003857912 0.0017058013 -0.002071668 -0.0037999565 -0.0031754184 -0.0031639975 0.0016151003 -0.003567892 -0.00023437792 -0.0042476337 0.002686187 -0.004086249 0.004987199 0.004773447 0.0030444476 -0.0041737147 -0.0033409286 -0.00054790237 -0.003778055 -0.0034348017 0.0034690893 -0.0050132587 0.0035649182 0.0052124998 -0.0033047912 -0.00044837073 0.00080711226 -0.0016284473 0.00062555325 -0.0030981863 -0.001788282 -0.0022193566 -0.0010559113 -0.0037380625 -0.0006124385 0.0009996175 0.0014748744 0.0032051867 -0.0018338732 -0.0010634188 -0.0014108124 -0.00111741 0.00013082699 0.0025978272 -0.0036213126 0.00084578054 -0.00032388803 -0.0025931306 -0.0043463297 0.0045934026 0.0010258204 0.00066921447 0.0017311465 -0.003729406 0.0019939423 -0.0009126965 -0.00028110787 0.003656005 0.0045632655 0.0031823788 -0.002253519 -0.0019590075 -0.0031778319 0.0034799704 0.0017232137 -0.0044346107 0.0010314094 0.004064576 0.003915101 0.0017910763 -0.003897612 0.002713144 0.0016996269 0.0020100588 0.000668618 0.002167818 -0.0035456014 0.00020267052 -0.0014507085 0.0009034864 -0.0022147924 -0.00254823 0.001200877 -0.0005586101 0.0035784154 0.0011939042 -0.0028479295 0.0044065244
不同 0.003154961 0.003847092 0.000500484 -0.00026866078 0.0010123397 0.0017323942 -0.003195109 -0.0011348743 -0.0035890643 -0.001131819 0.002726762 0.0033097852 0.0020531025 0.00023704732 -0.0029079914 -0.003867358 0.0016399903 -0.00055505405 0.0031333547 -0.0017067277 0.004105654 -0.0032433383 0.0023466898 0.0043924972 -0.00089376786 0.0032566225 -0.004329375 -0.0005656788 0.004048551 -0.00079319486 0.0045814933 0.00457025 -3.8970946e-05 -0.002196229 0.0037116357 0.002994126 -0.0030682087 0.0045466297 -0.0008688017 -0.0014427812 -0.004217463 0.0017525468 0.0016278959 -0.002770165 0.0039250967 0.004778407 0.004937912 0.004909058 -0.001713317 -0.0007364185 0.0036455381 0.0006429503 0.0028183036 0.0017782992 -0.00020284658 8.033984e-05 -0.0049733073 -0.0025566148 0.004559319 0.00022468716 -0.00024264622 0.00016722103 0.0013723607 0.0023328413 -0.0017586321 0.00047019226 0.0011459127 -0.0010477926 0.00198426 -0.0030898717 -0.0016636936 0.004650381 0.004548795 -0.0037080683 -0.004249393 -0.0033963337 -0.0010754094 -0.0016546488 -0.004630379 0.0045270217 -0.0049193753 -0.0030530144 -0.0049230037 -0.003338388 0.0021975006 -0.003861006 -0.0009036155 -0.0022721456 -0.0019093747 -0.004985154 0.0039755856 0.0048738252 -0.0018716388 0.0037936126 0.004391567 0.0019058746 0.0040650396 0.0028828694 -0.004357524 -0.0014668065
求 -0.0047184075 0.004349897 -0.0011322272 0.0051391856 -0.0025169572 -0.0036982936 0.0030124236 0.0044199238 0.0033564614 0.0037718653 0.0017890849 -0.0025340177 -0.00196587 0.0028976747 0.0019109946 -0.0012659451 0.0013282539 0.0020365356 0.0012662197 -0.0045553404 0.0033977309 0.002208164 -0.0025482273 -0.0041748625 0.0039006935 -0.0035045377 -0.0004972921 -0.004624237 0.0011861759 3.2637323e-05 0.0019029331 -0.004166318 0.0045950115 -0.0014641092 0.0029627644 0.0020693059 -0.0018490807 0.0011604261 -0.002927235 0.0047222353 -0.0017003887 -0.0023698737 -0.0035380549 0.0010587032 0.002012509 0.0046644807 -0.0021724957 0.002654293 -0.00036906707 -0.00503531 0.0017125191 -0.0017890544 -0.00040386393 0.00069076 -0.0035033077 -0.00089797965 0.00065639085 -0.0032097863 -0.00077750516 -0.00046371637 0.00074723584 -0.0039660158 -0.0039310562 -0.00083381595 -0.00026782227 -0.0044537946 0.0027337326 -0.003720172 -0.003934799 -0.0019392858 -0.0027649363 -0.0023214845 -0.004010246 0.0028734787 0.0015741391 2.557808e-05 0.0010366868 -0.005767095 -0.0022031984 -0.0033284975 -0.003869557 0.004318712 -0.0046094973 -0.0011208343 -0.0013298589 0.0016927357 0.0013443743 0.0026835515 0.0033171219 -0.0024868406 -0.0024871677 0.0011510676 0.0021473356 0.00014329152 0.00045973834 0.0023301013 -0.004727776 -0.0038941568 -0.0030709663 -0.0048733093
那 0.004504582 0.0016114679 -0.00084869703 -0.0009592337 0.0028657177 -0.004099262 0.0045195366 -0.00017116345 0.0008792704 -0.002759219 0.0015609496 -0.0027953195 -0.0024429508 0.0007261255 0.001663708 -0.0012417833 -0.0046225167 -0.0035018283 0.0032392472 -0.0037143177 0.0016222344 -0.0039924453 0.0033739302 -0.0011887313 0.0042517795 0.002878242 0.00018326532 -0.0013460947 0.0017674551 0.004623749 -0.0018573167 0.0044387328 -0.0044199554 0.0016120113 -0.0012998634 0.003024638 0.002508221 -0.00088729034 -0.0014424556 0.00013721877 -0.00069238857 -8.239883e-05 -0.0032981923 0.0045879683 0.0013921615 -0.0016947885 0.0017358909 0.00093900634 0.0029222423 -0.0048458274 -0.00030990958 0.0033707041 0.002161516 0.004852884 0.002426703 0.0032078524 0.0014997192 0.0010813957 -0.004284502 0.0019667784 -0.0018915094 -0.001264072 0.0016151989 -0.0010667669 0.00072119874 -0.0030215278 -0.0004324011 0.0044822996 0.00069810485 0.0014649305 -0.0038764281 -0.00024342186 0.002054795 -0.002853839 -0.0027020609 -0.0040665423 0.0015074987 -0.0045880815 -0.00031764465 -0.0015577507 0.0026181927 -0.0030170307 0.00489685 0.004291433 0.0034000603 -0.0028963909 0.0027264506 -0.004520597 -0.000119728946 -0.004213089 7.8107965e-05 0.00012106017 0.0046121306 -0.000812683 -0.0012596404 0.002475906 -0.0017992703 -0.00446303 0.00411114 -0.0027676949
你 0.0010946452 -2.636063e-05 0.001854047 -0.003790103 -0.0008222933 0.0030532246 -0.004874151 -0.00017489906 -0.0017409401 -0.004062578 0.0009092315 -0.0017053776 0.0012563205 0.00076214893 -0.004606088 -0.00065102824 0.00013763325 0.00409438 -0.004886593 0.003036385 0.004683545 0.0032613866 -0.0008527909 -0.00043069536 0.002374284 -0.0036954877 0.0040374636 -0.0035970698 0.0019084293 -0.003386122 0.0024230797 -0.00046525584 -0.0007801387 -0.0015614991 -0.003950872 0.00043051277 -0.0007044936 0.0030221536 0.003710151 0.006284398 0.0051353923 -0.0015543749 -0.0040178075 0.00017566688 0.0012877049 0.004765586 -0.0010592262 0.0019779024 0.0018523235 -0.001597859 -0.0038401224 -0.0008561687 -0.005016755 -0.00070851855 -0.0018836892 0.0011168936 -0.0005199349 -0.005003582 -0.0044741374 -0.0028801407 -0.001419294 5.525126e-05 0.003010485 0.003708186 0.0007507061 -0.0021503805 0.0046074446 0.00023726374 -0.0033888507 -0.0013285421 0.0054652384 0.0013061848 0.0029344652 -0.00026726542 0.0009386655 -0.0046558823 -0.003977274 -0.003868374 -0.0024563705 0.0021174357 -0.00028271409 0.0029684121 -0.004332437 -0.0043402137 0.0014197901 0.0051498646 -0.0014920526 -0.003628109 0.0044369595 0.0023391605 0.0025442885 -0.00038199997 0.0036029518 0.0027989447 -0.0007330651 -0.0011664475 0.0022847333 -0.004867818 -0.0031893787 -0.004620969
选 0.0026384478 -0.00087887497 -0.0040777456 0.00075655617 0.0026413104 0.0043122866 0.003178637 0.0010439205 -0.0020252836 -0.0013972609 0.004713427 -0.002154896 0.0038682467 0.0018591429 -0.0014150807 0.0035105052 -0.003265852 0.003703864 -0.003362559 -0.0021905731 0.0016900848 -0.0049309996 0.0011515964 0.003094559 0.0026694455 -0.00022205136 0.0043252846 0.0032518872 -0.004969195 0.0039690356 0.0041131014 -0.0010001368 -0.0010349997 -0.0048991656 -0.0022246456 0.0030506833 0.0043716915 -0.0033326566 0.004059442 0.003570923 -0.0016093411 -0.0032217286 0.0027308597 0.0002791933 -0.0034979256 -0.0046213283 -0.0009975 -0.0036354954 -0.0033532751 0.0034713917 0.0023563514 0.0017719191 0.0035104898 -0.0018679596 0.0034345947 0.0030836805 -0.003116163 0.0044339313 -0.0037664776 0.00060747087 -0.0031015002 0.004820828 -0.0017536456 -0.0032434922 0.0016517086 -0.0047139768 0.0014135885 -0.0045931363 0.0041801212 -5.647548e-05 0.003923138 0.0031132128 -0.0022812912 0.00038019192 0.0026571397 -0.0019230915 0.0018036844 -0.004300349 -0.0016373317 -0.00094013574 0.0042451303 -0.002611496 -0.0014689233 -0.004038633 -0.0031917344 0.00023288738 -0.002682207 -0.0002525323 0.000666844 0.0011470445 0.0003750291 -0.004889197 -0.00423432 -0.00069511245 0.0042502885 -0.004604219 -0.003180096 -0.0036253124 -0.0037454902 0.0028709844
趋于 -0.0044542947 0.00076316786 0.0017568481 -7.8398734e-05 0.0012776956 -0.0044227308 0.0015464015 -0.00360855 -0.0029526248 0.0040251836 -0.0021196345 0.00058402825 -0.0036345422 0.004193505 -0.00069807784 0.005105112 -0.0028157148 0.0003011546 -0.004578366 0.0001776335 0.0046019973 0.0034213415 0.0038206633 -0.004214008 0.004421079 0.0008745077 -0.0042720144 0.0017224743 0.0006408599 1.1501678e-05 0.002527789 -0.0042518172 0.0008285449 0.0036875217 -0.001077664 0.0042803492 0.002943854 -0.0003777609 0.0032139088 0.0024127741 -0.0004483846 -0.0012633068 -0.00050950766 0.00040198056 0.0049482123 -0.00048106883 -0.0024238154 -0.0019238183 0.003480734 -0.0034246163 0.0023610773 0.0048955176 0.0011259412 0.0054292954 0.0039836857 0.0049476135 -0.00016268899 -0.0036339336 -0.004394563 -0.004369747 -0.00083962904 -0.0037800218 -0.0023859693 0.0038715526 0.0028440806 -0.0022904833 0.0005396447 -0.001335703 -0.00054052135 0.0022186653 0.005151693 -0.003446761 -0.0045167347 -0.0039378256 0.0009586644 0.003477223 -0.00094377913 -0.0017231526 -0.000757394 0.00011164153 0.0012260309 -0.0036355434 -0.0024507085 -0.00048884324 -0.0034390334 -0.0025460024 0.0016852455 0.0012222255 0.004758187 0.0021037187 -0.001635091 0.00034403667 0.0007906995 -0.0009799496 0.0053797103 0.0032008144 0.0037013749 -0.004033186 0.0034096262 0.00026858042
无穷大 0.0021978486 0.00035830872 0.0027103042 -0.00079526065 0.0013200497 -0.0007910909 0.0032587238 -0.0016860558 0.005027558 -0.00035534104 0.002015827 -0.0010572742 0.0012656412 0.0003420465 -0.0013002818 0.0030800751 0.0030946345 -0.0048683654 -0.0041291458 0.0005485818 0.0046522836 0.0009700737 -0.0045157103 0.0011766313 0.0013111696 0.003615433 -0.0017972596 -0.0018811857 -0.00173919 -0.003970096 0.0042793225 -0.0046355217 0.0036106028 0.0020751501 0.002738439 -0.00064716826 0.0024546045 -0.0009421461 -0.0012713529 -0.0030497878 -8.495571e-05 -0.00061325124 0.0028713932 -0.0028215048 -0.0013039759 0.0008043606 -0.0042884513 0.0035070973 -0.003760507 -0.004721253 0.0022295376 -0.0007673583 0.0015303753 0.0003599019 -0.0027831628 0.0006011831 -0.004569575 0.0043965625 -0.002563485 0.0028657736 -0.0044426094 -0.001115965 0.0038845479 0.003784275 -4.47971e-05 -0.00092510437 0.00014750454 -0.0016445727 0.002227387 0.0012811315 0.00016757127 -0.0024294218 0.0033394392 0.00046590282 0.004554227 -0.0008157429 -0.0034713896 0.0010612332 0.000403571 0.00057760405 0.004318131 0.003238034 0.0031272385 -0.00073035946 -0.0016172951 -0.001341361 0.0023696604 0.0037181554 0.00046089955 0.00022214463 -0.0049564596 -0.00038826393 0.00391803 -0.0029210493 0.0047529275 -0.0023479874 0.00301227 -0.0035777218 0.0037763277 -0.004132613
时 0.0046298383 -0.00031263137 0.0006870825 0.004622718 -0.003878111 -0.002268404 -0.0015710724 0.0017050765 0.0020936066 0.00015638694 0.004199128 -0.0040120524 0.0028070325 0.0030807513 0.0015053832 0.0019266545 -0.0022532188 -0.00027372807 -0.00055158854 -0.0047729616 -0.004437584 0.0030297344 -0.0013486907 -0.0033212833 0.00026803405 -0.0031470163 -0.004167414 0.0014472549 -0.0036627422 -0.0017329911 0.0006349065 0.0037222565 0.0040472597 -0.00455098 0.0022362045 0.0055669732 0.0044999393 0.0020925475 -0.0014447749 -1.4269463e-05 0.00037859715 -0.0034256272 -0.00068647886 -0.002201134 0.0024139937 -0.0035239821 0.0044104164 -0.0027673533 0.0034668776 -0.0030452812 -0.0021172047 0.0045808163 -0.0022165328 0.001730222 -0.0013442523 -0.0007953733 -0.00073531724 0.0015346785 -0.0036703139 -0.0045381887 0.00021249155 0.0047085476 0.0051118038 0.00029286722 0.0006983947 -0.0017508287 0.0026521145 0.0010593948 -0.0013118694 0.00077708694 -0.003825735 0.0031340423 -0.0035134593 0.0013603737 -0.0013928773 -0.0034147336 -0.0007196828 -0.0034624725 0.0015162705 0.003013292 -0.002946798 -0.00076060346 0.0029631648 -0.0003273408 -0.00025890398 4.2739506e-05 -0.0016180808 0.0019780393 -0.002812735 -0.004542255 -0.004306968 -0.0015469095 0.00054019986 0.0037813054 0.004743855 0.0021899326 -0.00053362106 -0.004245596 -0.0013028163 -0.0026549855
没有 0.00015876624 -0.0016682923 -0.003912947 0.0021801216 0.0038257835 0.0028254245 -0.0046647456 0.0008760949 0.0049579307 0.000976645 0.0048776558 0.0010066456 0.0012071319 0.0010397919 -0.0049202098 -0.0030002042 0.004929827 -0.00079010305 -0.0040737987 0.001108726 0.0004940059 -4.0019004e-05 -0.0006231903 0.003980044 0.0036869063 0.0031623293 0.0030271877 -0.0029804762 -0.00038649765 0.0021018512 -0.0032065767 -0.004386221 -0.0018200901 -0.0008116096 -0.00038699864 -0.0014052481 0.0041859434 -0.0024198222 -0.0019936662 -0.0033252768 -0.004157059 0.0043407194 0.004691917 0.0018631233 0.0039303256 0.0020469322 0.004497318 -0.0049665226 0.0038432996 -0.0020869016 -0.003006603 -0.0010936805 -0.0015872491 -0.001180962 -0.0042524426 -0.0018841886 0.00088106876 0.0047470946 -0.00043335033 0.0033625884 0.001592876 0.0008617521 0.00082177046 -0.0036146902 -0.0032907566 -0.0033128795 -0.0011669904 0.002543248 0.0042608473 -0.00017406928 -0.0029699826 0.0033344734 -0.003786669 0.0011538982 0.0037579185 0.001954652 -0.004277132 -0.004764 -0.003034019 0.003931406 -0.0034898317 -0.0025995802 0.0035996616 -0.0041327914 0.0013556981 0.0017829153 0.0006388292 0.003379772 0.004611054 -0.00035387767 -0.0017698985 0.0034863222 -0.004853248 0.0042521986 -0.0003217847 -9.878593e-05 -0.0048376285 0.0020403184 0.00069284934 -0.0014634137
极限 0.0034738034 0.004664181 -0.0040338915 -0.00283327 0.0015064151 -0.0002433937 0.0008530829 0.005126283 -0.0011339396 -0.0016473234 -0.002157045 -0.001719487 -0.00035368837 0.0058886637 -0.004749507 0.002716631 -0.00397977 -0.00043241133 -0.0010075048 0.0019406327 0.0016068083 0.00039032026 -0.0010347723 -0.0024754938 0.0034153906 0.0021456494 0.0036080533 0.0020143962 -0.0022007856 -0.0037757924 0.0032074421 -0.0008321904 0.005250864 0.0012023649 -0.0017832079 0.0053250776 -6.339484e-05 -0.0049002366 0.0015298805 0.0044068242 0.0029969523 0.004278613 -0.0032306167 -0.0023029114 -0.0009502648 0.0020970395 -0.0019749247 -0.00014275746 -0.00053684926 -0.002838218 0.0020568809 0.0007885234 -0.0035118426 0.002508142 -0.0033482995 -6.86787e-05 0.0004380307 0.0043045497 -0.0052526095 0.0040751146 -0.0029857645 -0.0032921897 0.0029060547 0.0016633612 0.0031022597 -0.0009374893 -0.0020477262 -0.0026782057 -0.0033511475 0.0052848975 -0.0021793596 0.0010320026 0.0027357114 0.00086957857 0.0001623577 -0.001429845 -0.0042188177 -0.0019332931 0.0024750445 -0.0022305402 -0.0045319763 0.0021363583 0.002271167 0.0054701753 0.0029114762 0.003852988 0.002216774 0.0039273133 0.0060227984 -0.00039818132 -0.0044075954 -0.0034821432 -0.000416293 -0.00050313 0.0008540702 -0.0051204213 -0.004481997 -9.006806e-05 0.0009364896 -0.0026869075
可以 0.0009964214 -0.0038640273 -0.0042323526 -0.0013854763 0.004511193 0.0025480902 -0.004023271 -0.00316129 0.0033142595 -0.0045170197 0.0034141664 0.0047457023 -0.0013885766 0.0016475259 0.001749947 -0.0036702496 -0.0016297833 0.0044464683 -0.0031092255 0.004685065 0.005346166 0.0049460973 -0.001280092 0.002252425 -0.002168774 -0.0048909457 0.0035758084 0.002059875 -0.0031544787 -0.0004084525 -0.0045449417 -0.0029517403 -0.001365347 -0.0034586901 -0.0050550452 0.0033578926 0.005097955 0.0022820367 -0.0030278459 0.006463701 -0.004354066 0.0012360262 -0.0020003307 6.517451e-05 -0.0037143398 0.0049433657 -0.004313615 0.0008691008 0.002182509 -0.004852692 -0.003843656 0.0009029473 -0.00019000251 0.0009219768 -0.0019013545 0.0009755175 0.0022703272 0.003020205 0.00080083346 0.003545236 0.0047306013 -0.0042895293 0.00033564758 0.0009807841 0.00067608483 -0.0050044646 0.0037607562 -0.00029242187 -0.0020170785 0.0014448876 0.0016545333 0.0019707554 -0.003617835 0.0003397528 0.0020659454 -0.0046378435 -4.6393507e-06 -0.0015951842 -0.003091172 0.0018618398 -0.0024297012 0.00453321 -0.004029229 -0.0032224676 0.0056708306 0.0026421328 0.002566254 0.003990851 0.0008078874 -0.002221101 -0.0046249568 0.0008993856 0.0024736894 -0.005232292 0.004631 -0.0052223327 -0.0019269243 0.0016152827 0.005016096 -0.004525796
取 -0.0015235498 -0.003868711 -0.00075561047 0.0045630625 0.0019972255 -0.0044036303 -0.0022061768 0.0036721488 -0.00472356 0.0038176093 -0.0005913052 -0.002959306 0.0014574344 -0.003940752 -0.002176759 -0.00018248249 -0.0043416084 -0.002231468 -0.002395825 0.00047924195 0.004409167 -0.000105614956 0.0027441552 0.0041766358 0.0035609452 -0.0023864065 -0.004073409 -0.0037627523 -0.003885878 0.0023287088 0.0039237128 -0.003846298 0.00027311474 0.00047027282 -0.004226682 -0.0034033584 0.00051887066 -0.0047969366 0.0005509831 -0.004744238 -0.004782613 0.0010041154 0.004505685 0.0008096471 0.0044132886 0.0008750186 0.004800319 0.0016522142 0.004223115 0.00093769707 0.001388368 0.0032650784 -0.0005601393 0.0011186075 0.00044858185 0.0013471496 0.0014120168 0.0028011191 -0.0026428432 0.0047385823 0.0031253186 0.0006539317 -0.0014211087 0.0036716869 0.0022014156 -0.0038016103 0.0045313886 -0.0036945601 -0.0042196224 0.0019913628 -0.0038812642 -0.0017380691 0.00074325246 -0.002378426 -0.0025515014 0.0013390759 -0.00041485578 0.002912039 0.0028519325 0.0023996008 0.0022470597 -0.0017286227 -0.002074411 -0.0022275147 -0.004834737 -0.0017746334 0.0037084762 0.002457118 -0.000585075 0.0024032467 -0.004930727 0.00054457417 0.0019757783 0.0019729147 0.00017537738 -0.0028213076 -0.002489311 0.0043521947 0.0028556413 -0.00407152
收敛 0.003853187 -0.0015105186 0.000707646 -0.0036856774 0.004145046 0.0038982795 0.00036001578 0.0007554133 0.0011700928 -0.0016041265 -0.00065358944 -0.002344728 -0.002632998 0.001073775 -0.00016607737 -0.00038161816 -0.0010774878 -0.0021454857 -0.001427368 0.0025208006 0.004978018 0.0032829465 0.0033241762 -0.004323827 0.003627556 0.00406111 -0.0046230117 -0.00079543557 -0.0012154526 -0.0040869843 -0.00062625104 -0.004558065 0.004302079 0.0016727232 -0.0003772434 0.0029716014 0.0050675976 0.0006844856 -0.0008384958 0.0048218467 -0.00023063358 -0.00015769487 -0.0024763928 0.004959915 -0.0048699887 0.0013928515 0.0010870801 0.0034361521 0.0047691367 0.0042007486 0.0049574953 -0.0047233156 -0.00043893175 -0.0039671264 -0.00090864266 0.0012128438 -0.0035859614 -0.0018055459 0.004766659 -0.0013110505 -0.00109212 0.0049140467 0.0015417463 -0.002474579 -0.0015807195 -0.00014464757 -0.003927833 -0.0007066599 -0.0019921225 -0.0016287266 0.0050201844 0.0022240216 0.004605443 0.0016521957 0.00086473965 -0.00021290417 0.0037421295 -0.0032180464 0.003277867 0.0002892399 0.004782793 -0.0037888077 -0.004181203 -0.0026189948 0.0019045998 -0.002456094 0.0021443865 -0.0038086872 0.0045792335 -0.0016931681 -0.0010520995 0.0028532292 -0.00031983695 -0.0038054676 -0.0003745108 0.00336628 -0.00019254601 0.0014507544 0.00080229086 0.00045531054
这 -0.0032214264 -0.00043644558 -0.0023663563 0.0041123517 0.0038619942 0.0028457379 -0.00075282675 0.0035787462 0.0011843512 0.00199205 -0.0018943944 0.000110408706 -0.0031557758 -0.0047783046 0.0031397338 0.0010182312 -0.0025588307 -0.00259747 -0.004788807 -0.0013766189 -0.0030896598 -0.0019217428 -0.004410985 0.001090141 0.0042836242 -0.0009953915 -0.0030759696 0.0028777097 -0.0015797537 -0.0036077115 -0.0049839295 -0.0050359373 0.0012204727 -0.0033944093 0.0020760356 -0.00030077033 0.005180046 0.0010898212 -0.0034161487 0.0016440834 0.0016461419 -0.0004013904 -0.002708946 -0.0048002447 0.0031063687 -0.004459928 -7.043996e-05 -0.0018099458 0.0010375264 -0.0024285805 0.0014651037 -0.004752516 -0.003229203 -0.0016432652 0.0033988408 -0.00028290722 -0.0035498634 -0.0015191183 0.0006466362 -0.001005865 -0.004132681 -0.0012237402 0.0015904828 0.0018096209 -0.0043569035 -0.0046262452 0.0033940854 -0.00017627669 -0.0013338978 -0.004449621 -0.0019017447 0.0022476749 0.00094153325 -0.00462667 0.0031764843 -0.002159441 0.0018964019 -0.0038299742 -0.003173745 -0.00014316288 0.0032327392 0.004023235 0.0008060156 0.0034567143 0.001979328 -0.00087019353 0.0048960815 0.0032870115 0.0033306126 -0.0027624255 -0.004491561 -0.002022875 0.0014959347 -0.0032431122 0.0023175254 4.0469902e-05 0.0018178322 -2.2798422e-06 0.0018754223 0.00042076
