词语数量: 663    嵌入维度: 100
测试题 -0.00446275 -0.0038614136 -0.0029427442 -0.00058283703 0.0027014117 0.005496799 -0.0070278943 -0.00017490936 0.0007218001 0.0035761427 -0.0028922919 -0.0010823432 -0.004503375 0.00083318015 -0.0011151868 -0.00079256337 0.00052958657 -0.0013569389 -0.0023156945 0.0015473797 0.0013287226 -0.00019051542 0.0030484167 0.0035960455 0.00018545496 0.0011372429 -0.005084872 0.0014000062 -0.0010681187 0.0018734916 -0.0012988703 0.00062810373 -0.0059974985 -0.0051015234 0.004515296 -0.0006548659 0.0007710878 0.00390301 -0.0037669714 -0.0014746394 -0.0012775615 -0.0077187167 0.0020512904 0.001397093 0.0044187545 0.00045714655 -0.0014861298 -0.0023930634 -0.0005060419 -0.00022736104 0.0032860884 0.0010358655 -0.0014573036 0.0021145565 -0.00055134646 -0.00070905173 -0.00110872 -0.0041964897 0.003949049 -0.0016844944 0.0037400941 0.0007396514 -0.0033453957 -0.003716122 -0.00020395376 0.00060397666 -3.9408624e-05 0.0014308167 0.007202698 0.0021546837 -0.001469292 -0.00018622587 0.0035344171 0.0008899113 0.0039109304 -0.00063757936 0.0034924948 0.0036803416 0.0002600369 0.002187729 0.004681457 -0.0054288306 0.0017487257 -0.0022678052 -0.0038137475 -0.0037303139 -0.0026336021 -0.0045273816 0.0013054794 0.00021586304 -0.0034193154 -0.0019384623 0.003996723 -0.00253688 -0.0033084478 0.0011075168 0.0028398507 0.0024257544 0.0018687572 -0.004325679
这个 -0.020054074 -0.058480002 0.0401108 -0.10676518 0.013986583 0.07590409 -0.091047026 0.019163674 0.014581132 -0.0035262716 0.02710716 0.066403955 -0.10599651 0.1072325 0.033960614 0.028558586 -0.053187404 -0.092288546 0.06981738 0.08017849 0.048263825 -0.058944307 0.080769286 0.08835053 0.089490265 -0.085990876 -0.016914435 0.017995413 0.0017023192 0.010604554 0.029755032 -0.08940806 -0.02892241 -0.13004714 0.054133743 0.06857807 0.10019882 0.012644461 0.033365242 0.01768159 0.11262197 -0.09259333 0.022868717 -0.021236025 0.030447464 0.054439288 0.030788552 -0.0084197065 0.041937944 0.015171352 -0.00047097667 0.032162 0.056371458 0.0688838 0.054917593 -0.08494798 -0.015632225 -0.012217201 -0.016788753 -0.006781546 0.021351133 0.04833716 -0.031010557 -0.053588524 0.011885215 0.10921982 0.021472167 -0.043642886 0.07098604 -0.009849094 -0.0048236707 -0.06392321 -0.041854184 -0.08796402 0.036641084 0.016020466 -0.035901487 0.054933872 -0.053356823 0.010067232 0.057976525 -0.116624445 0.0019076254 0.029533498 -0.010390161 0.006112905 -0.015888793 -0.09067644 -0.05113764 0.0020895381 -0.023547279 0.07919216 0.031295054 0.03589332 0.009632694 -0.010051369 0.0136028305 -0.0031544287 0.1006545 -0.041612715
难道 -0.0032315946 -0.004763245 0.0028667308 0.0039428165 0.0038554925 -0.003548187 -0.0012888269 -0.00183533 0.0027862634 -0.004805658 -0.004032495 0.002338399 -0.003695281 0.0014192308 0.0029649995 0.0010893435 0.004725849 -0.0025214322 -0.0007137115 -0.0046445816 -0.0009909823 0.0014335291 2.8989918e-05 -0.00011738777 0.005292609 0.00010140444 -0.0011894909 0.0025126054 0.00065120595 0.0028922798 -0.0019064364 -0.005301638 -0.00022522305 -0.00045158842 -0.00052124314 0.0033235888 -0.003277488 -0.002362785 -0.00074584107 -0.0006859524 0.00018958902 -0.0031763704 0.0048386026 -0.0026330766 0.0015717089 0.0020943868 0.0042065214 0.0025504911 2.6154434e-05 0.004767736 -0.0048043625 -0.0009264472 0.005024612 -0.0010030399 0.0015831455 0.0045114467 0.003966015 8.507198e-05 -0.0033607287 -0.0035159618 0.0027288143 -0.0027122546 0.0024772293 0.0039032195 0.0010017621 -0.0037285762 -0.003601521 -0.002383171 -0.00013755349 -0.00031045213 -0.001569535 0.0016106699 0.0031208436 -0.0025258935 -0.0017937591 0.003167085 0.0005332987 -0.0014842977 -0.001303517 -0.0005222779 0.002985385 0.004549674 -0.0027081852 0.0006882758 0.0025775714 -0.0033110895 0.0044068517 -0.00482013 0.0020536433 -0.0009965963 -0.0012188054 0.005262516 -0.0043830806 -0.0021354014 0.00011350379 -0.002405493 -0.0021294428 0.0030387337 -0.0016429727 0.0031903235
不是 -0.0029176786 -0.026774993 0.013320275 -0.044229396 0.010153152 0.034272972 -0.031546317 0.0036588353 0.005239127 -0.005731147 0.012102396 0.029964754 -0.043588255 0.039758123 0.009694772 0.015232384 -0.025692588 -0.03174979 0.030544098 0.03378988 0.024641704 -0.028083272 0.036448345 0.036538243 0.03279089 -0.03734815 -0.00801397 0.0077143353 -0.0031213537 0.0072593307 0.008679335 -0.0369733 -0.015989738 -0.05143429 0.018806124 0.030930072 0.04654023 0.0024362989 0.018536272 0.0061424393 0.04157141 -0.03344437 0.012308665 -0.0033707845 0.008663216 0.025240194 0.0069242446 -0.0022631995 0.014223428 0.008969103 0.001086979 0.017806085 0.019086238 0.03194454 0.020733468 -0.03260544 -0.0068110772 -0.0070131184 -0.0058705555 -0.0055114785 0.004175701 0.017359752 -0.013091486 -0.025271447 -0.0003779246 0.04139992 0.007758047 -0.01682053 0.027513526 -0.0011132171 -0.0028788517 -0.025545185 -0.014897221 -0.031228751 0.015313357 0.007315074 -0.016795574 0.020745086 -0.021223728 0.0006471762 0.021916734 -0.04222095 0.0016684324 0.015723078 -0.0030027558 -0.0020666004 -0.0030081123 -0.039377067 -0.0177501 -0.0033563129 -0.008287532 0.030403838 0.013179522 0.016141975 0.0060406635 -0.005380429 0.008420199 0.0032154731 0.04135191 -0.016786763
算 -0.0077727013 -0.016443998 0.016148042 -0.033291716 0.0056275357 0.023408476 -0.02798973 0.0092900405 0.005915822 -0.0036957287 0.004080113 0.019337993 -0.028295618 0.029393451 0.007667184 0.0038221164 -0.01578226 -0.026957048 0.019718073 0.028373018 0.012115581 -0.017179143 0.030221764 0.025301151 0.022834068 -0.030602025 -0.0045376937 0.007553208 -0.003140219 -0.00048301413 0.013563785 -0.023274995 -0.015279658 -0.036906376 0.016453106 0.017500235 0.031874202 0.005557896 0.0118103 0.002242521 0.031555764 -0.032551967 0.009736402 -0.0016022573 0.009545255 0.013466587 0.005372366 -0.0038938655 0.012801648 0.00032363128 -0.0032265126 0.0065754736 0.011078126 0.024481397 0.019110193 -0.030205049 -0.003653634 -0.0057841116 -0.0036806625 -0.0006714754 0.0049664276 0.018507656 -0.003800224 -0.021853138 0.006590489 0.032010864 0.007972517 -0.013984264 0.026203055 -0.0032191938 -0.0044840095 -0.020355988 -0.011964762 -0.028683424 0.016046386 0.0047183502 -0.012593814 0.016926428 -0.021299217 0.005977965 0.020499777 -0.035662077 0.0029496818 0.012961796 -0.0048901592 0.0012251863 -0.0072250864 -0.03272448 -0.015199254 0.004513653 -0.008288688 0.020553453 0.009306798 0.014642705 0.0033764797 -0.0069481116 0.0037362496 -0.0038274648 0.029676562 -0.012230838
吗 -0.027093925 -0.07975142 0.055389844 -0.13265409 0.01926606 0.10401781 -0.12525083 0.025793236 0.02397052 -0.011541585 0.033693552 0.087591335 -0.13949999 0.14150925 0.037022833 0.033947065 -0.066465184 -0.12660818 0.09630681 0.10016157 0.0716645 -0.075354345 0.11731554 0.10621888 0.1120264 -0.1152828 -0.018958755 0.02796336 -0.0050757932 0.015942676 0.03969678 -0.12072448 -0.0460458 -0.17369673 0.06750465 0.09700043 0.14161044 0.015785756 0.04500759 0.023709163 0.14211632 -0.120479845 0.029405344 -0.021635983 0.036077045 0.075506635 0.0353377 -0.013743908 0.05540599 0.017105926 -0.0074271695 0.044619106 0.074793145 0.09369112 0.075161025 -0.114025794 -0.027164752 -0.021569122 -0.018934308 -0.008140652 0.032889776 0.064830095 -0.03881902 -0.07574054 0.015661195 0.14544599 0.02960543 -0.061598733 0.098846436 -0.010237326 -0.012465357 -0.09169883 -0.046710785 -0.115368515 0.048770715 0.021222357 -0.051669784 0.06879634 -0.07209738 0.0061355825 0.07909425 -0.14971831 0.008747812 0.049634248 -0.016540946 0.004806632 -0.026907125 -0.122671284 -0.06514882 0.0087578595 -0.03824329 0.094771266 0.03233024 0.04705244 0.013623426 -0.018182715 0.023751572 0.0026260728 0.13234924 -0.057173613
次 0.0015288709 -0.0026751217 0.0021243987 -0.0020203174 -0.0022718324 -0.0033495822 0.004762016 0.0025913322 0.0032750564 -0.0023002545 -0.00067537616 -0.003155758 -0.00457818 -0.0032192029 0.00084534934 0.0010466385 0.0043867095 -0.0015749724 -0.0033406331 -0.0020058027 -0.0012142751 0.0022323597 0.0047981376 0.0032057874 -0.0038104227 -0.0026577574 0.0048712892 -0.0005725031 0.0045516375 0.0035734673 -0.00016612207 -0.0043946 -0.0027260901 -0.0023853795 -0.0031167353 -0.001159304 -0.0037213569 0.0017775913 0.004085353 -0.00088553276 0.004747735 0.0034187462 0.0017101555 -0.001645952 -0.0042614676 0.0003608908 0.0033061581 -0.004505037 0.0048993984 -0.0014489199 0.0045441543 -0.0032150024 -0.0014767115 -0.00030086207 -0.0036893128 0.0025009906 0.0007963936 -0.003980523 -0.003090722 0.004814608 -0.0042510834 -0.0003784124 -0.0043737637 -0.003975176 0.0014338963 0.004517242 0.0004467247 -0.0015119535 -0.003216275 0.0019456038 -0.0041673845 -0.0017735662 0.0040227487 0.0020208799 0.0036446194 0.0036029837 0.0045847185 0.0011085827 0.0036179263 0.0041241962 -0.0011735391 0.0020282858 -0.0033883876 -0.0041161813 -0.0021119462 -0.002493424 0.0047249803 -0.0038320348 -0.00017424628 -0.004977839 -0.003324706 -0.00087102526 0.0034042702 9.112887e-05 -0.00060959917 0.001702591 -0.0013208421 0.0027218251 -0.001711318 -0.0042646816
有 -0.022823794 -0.05522099 0.044968188 -0.10839424 0.0218543 0.076547325 -0.087614246 0.022729037 0.019692376 -0.0056322813 0.025708837 0.069205806 -0.10630475 0.1060842 0.036251254 0.024281653 -0.059181474 -0.09539175 0.06963172 0.07773213 0.049046956 -0.06309338 0.082014985 0.08772231 0.093194045 -0.092007406 -0.008753418 0.027228912 0.001167778 0.01623294 0.02860585 -0.08669159 -0.037022207 -0.12600845 0.05591405 0.07282989 0.11183392 0.017279876 0.03471966 0.017568624 0.111258104 -0.0916329 0.025819093 -0.01918129 0.023408845 0.059457824 0.031083144 -0.011276131 0.04308926 0.012824472 0.00019970642 0.04043567 0.056925308 0.07370495 0.05238113 -0.08218427 -0.022324594 -0.019239642 -0.016406735 -0.003869792 0.023517013 0.046487305 -0.026844393 -0.06200196 0.013534239 0.110124946 0.016565818 -0.050881628 0.071233444 -0.016166897 -0.0066662477 -0.06550273 -0.035985768 -0.090707995 0.03837257 0.018335683 -0.04391706 0.049350347 -0.05773191 0.0035909947 0.058878947 -0.1171093 0.009612766 0.04045831 -0.011772238 0.009719119 -0.015391238 -0.10007481 -0.048833646 0.0077573946 -0.02195898 0.07679417 0.024311356 0.040753387 0.012811454 -0.014719904 0.015633572 0.0042377505 0.10208778 -0.047439862
理化 -0.0017790155 -0.002606959 0.0089981435 -0.010820795 0.006180989 0.0029395884 -0.011066235 -0.0011968738 0.0026925262 -0.0017667336 -0.00025551487 0.009020976 -0.01156741 0.011134981 0.00527764 0.0059998347 -0.006610644 -0.011058378 0.011504801 0.01202756 0.004144402 -0.002808289 0.004386887 0.0048335553 0.007412232 -0.008713997 -0.00393718 0.0020365766 -0.00068161445 0.0038744186 0.003398043 -0.010414427 -0.00042649312 -0.009844034 0.0034042983 0.00303542 0.007666243 0.0017664987 0.0010480948 0.0021164687 0.00859081 -0.012218442 -0.00056153256 -0.0056269136 0.00064520445 0.0017820387 0.0003676233 0.0036230828 0.0044134376 0.0055442364 -0.0022982026 0.0073310714 0.0077784825 0.0023398215 0.0026637018 -0.003530117 -0.00016416423 -0.0015052808 -0.0034259013 9.543053e-05 -0.0013553671 0.008965205 -0.007147498 -0.0014985509 -0.0010996241 0.015054101 0.004184507 -0.009259107 0.0073260595 -0.0015867425 -0.0010911003 -0.009250132 -0.00240059 -0.012180597 -0.00039001624 -0.0028573922 -0.0055601355 0.009645511 -0.0042905943 -0.0024192394 0.010024143 -0.011246992 -0.0022475186 0.005502954 -0.003374125 0.0023267898 -0.0066592116 -0.0056438306 -0.0025517652 -0.0012097133 -0.005253749 0.008689602 -0.0016560779 0.005928655 -0.002779091 0.0005551518 0.00011524232 4.6468114e-05 0.0052027954 -0.0016555754
这道题 -0.0039554285 -0.023129947 0.020918937 -0.03751561 0.0036528942 0.033182435 -0.03858888 0.003490467 0.010637662 -0.005948951 0.0067517166 0.022139246 -0.041454334 0.043000143 0.017599093 0.013047457 -0.017319977 -0.035986755 0.031219717 0.035178382 0.019207453 -0.01960901 0.038595743 0.03007781 0.032886915 -0.030977942 -0.0046407906 0.011145847 0.0031418032 0.00017754958 0.015928369 -0.03780559 -0.01455861 -0.054039404 0.02153267 0.02948443 0.047339078 0.0015675719 0.011367502 0.0029479337 0.04690425 -0.032926057 0.015532218 -0.0062401304 0.009439633 0.023799978 0.013516309 -0.002498703 0.013884407 0.004036512 0.00147788 0.009635043 0.016389927 0.028764764 0.021576468 -0.036172874 -0.0064122286 -0.003415835 -0.0079477895 -0.00048438448 0.005477765 0.018216636 -0.011655215 -0.019508416 0.007776583 0.04175093 0.013590346 -0.021425357 0.024993164 -0.0011074237 -0.0046165516 -0.029696522 -0.016119618 -0.031953268 0.017207012 0.010716344 -0.016168864 0.026068779 -0.020729387 0.00200398 0.019635785 -0.043172013 0.0032783533 0.012812082 -0.0030356555 0.0041810614 -0.00658584 -0.03795574 -0.021030897 -0.0020452219 -0.014893019 0.028966134 0.00870881 0.013671514 0.00081171363 -0.0077006477 0.0118396785 -0.0048338883 0.03958365 -0.01884273
做 -0.01764014 -0.058688056 0.03782293 -0.09293289 0.012723701 0.07065697 -0.08260082 0.02114929 0.020987822 -0.0056910487 0.025302604 0.05850513 -0.096475035 0.09959909 0.0333208 0.02477158 -0.053162556 -0.08859438 0.06311329 0.077386096 0.050378647 -0.054248624 0.07966189 0.075158834 0.08613334 -0.079583704 -0.012935081 0.026058057 -0.0055508767 0.005145315 0.023658015 -0.0771133 -0.029403247 -0.11600705 0.043178916 0.060757063 0.09523542 0.014097769 0.03664 0.017233288 0.09732287 -0.07919572 0.027462143 -0.013284328 0.025910217 0.058198888 0.026634777 -0.008660687 0.03173573 0.010678288 0.0020177758 0.036287565 0.047713835 0.057742365 0.049086593 -0.08264333 -0.019734811 -0.017883582 -0.015843399 -0.004635989 0.02143726 0.039500326 -0.026747622 -0.052589018 0.009514677 0.10183028 0.021136077 -0.04328376 0.068811044 -0.0136115495 -0.0059295762 -0.058116764 -0.03422977 -0.07353797 0.027356524 0.0117503265 -0.03404 0.05328318 -0.048307292 0.0007348861 0.05634808 -0.105273835 0.008574343 0.026792256 -0.017004505 0.0030762043 -0.019538375 -0.08655093 -0.048422355 0.005601519 -0.024213688 0.067784294 0.025625864 0.0306738 0.00801513 -0.014815991 0.01556524 -0.00045915163 0.09290744 -0.037969872
对 -0.011822988 -0.032722328 0.019518025 -0.05144253 0.012636357 0.043308817 -0.04331363 0.0130962245 0.0057035433 -0.003817739 0.011032304 0.03601008 -0.054806188 0.0530743 0.012929441 0.0181376 -0.03138239 -0.05065712 0.036031332 0.043218218 0.023135826 -0.026632845 0.04474256 0.046106674 0.049698584 -0.039412055 -0.008704448 0.013782077 0.0011354109 0.010833251 0.012325785 -0.048036505 -0.013861648 -0.061555654 0.023289545 0.033337228 0.057339564 0.0075286245 0.01741875 0.008771193 0.05945003 -0.044339683 0.017627457 -0.0072705243 0.011541568 0.027365336 0.017580306 -0.0051866793 0.019098409 0.009069976 9.569095e-05 0.022349725 0.026595665 0.03677061 0.030840013 -0.038197163 -0.010866375 -0.0052064103 -0.007859699 -0.007283458 0.010051179 0.024964303 -0.017842144 -0.029660929 0.004971448 0.05022575 0.0056453887 -0.021932218 0.03592378 -0.009343648 -0.0072497213 -0.037267156 -0.024482595 -0.039150544 0.0207887 0.01366859 -0.023611434 0.023909947 -0.030955734 0.00645733 0.028855579 -0.056967992 0.0060896166 0.014382251 -0.003575271 0.007837649 -0.0048179068 -0.054144345 -0.026912369 -0.0025430748 -0.016216084 0.037607525 0.018306687 0.017626958 0.010562657 -0.005109522 0.007517001 -0.0010682833 0.05321891 -0.027875256
了 -0.029549427 -0.0868776 0.056904126 -0.1506827 0.026104748 0.10883488 -0.12694022 0.028204042 0.021037798 -0.0016120618 0.037555538 0.09560985 -0.14669159 0.15150644 0.05077118 0.039291237 -0.07591831 -0.13028874 0.09996393 0.10721918 0.07894518 -0.088847294 0.124350585 0.1226116 0.12816 -0.12621158 -0.019439833 0.03028954 0.0018175689 0.021374777 0.03836207 -0.12138903 -0.04957376 -0.17924269 0.07060615 0.108324915 0.1510902 0.013415773 0.04525323 0.01665954 0.15151858 -0.13291976 0.04140194 -0.025866535 0.03270346 0.087065235 0.046908867 -0.011854787 0.06117176 0.013207667 -0.008034651 0.04992892 0.07885495 0.10041151 0.07708036 -0.11850929 -0.03287622 -0.021014826 -0.02706954 -0.005038426 0.028431958 0.06290987 -0.0382288 -0.07983111 0.016914612 0.15426603 0.02669006 -0.06956751 0.10290206 -0.010417277 -0.015917536 -0.0973192 -0.059546113 -0.12041002 0.05713127 0.02579165 -0.06178862 0.07456174 -0.07557666 0.010192267 0.08179858 -0.15543096 0.009367004 0.054325923 -0.01605028 0.0126733 -0.023919066 -0.13443646 -0.074953705 0.0061717206 -0.032853056 0.10827538 0.041861266 0.04921538 0.0127184205 -0.009983109 0.024700508 0.00097258046 0.14343198 -0.06858729
的 -0.081986785 -0.29220822 0.20060591 -0.50472 0.088849604 0.37645575 -0.43764642 0.10840018 0.09109328 -0.023119912 0.13202058 0.30768046 -0.49962398 0.51653504 0.15080155 0.12882376 -0.26478553 -0.4539818 0.34420446 0.3932708 0.26466885 -0.28923056 0.415949 0.41772327 0.4252498 -0.42410132 -0.061830994 0.11463625 -0.002054636 0.052952632 0.14730154 -0.43812343 -0.17074463 -0.6201241 0.25912312 0.36286902 0.522191 0.06503297 0.16731922 0.079996645 0.53812057 -0.4505807 0.12362183 -0.10496821 0.121491395 0.29030445 0.14526856 -0.055861995 0.1918855 0.046101216 -0.008626941 0.18262295 0.25340778 0.34087873 0.26853028 -0.3997549 -0.08819578 -0.07913338 -0.07447967 -0.04416582 0.10821013 0.22893795 -0.14084134 -0.28898934 0.05071356 0.5204375 0.09869699 -0.22593671 0.3531894 -0.060520805 -0.058117907 -0.33951673 -0.19524895 -0.42015788 0.18826586 0.09546998 -0.19295572 0.26015717 -0.2648987 0.029490395 0.30715948 -0.55655813 0.019730773 0.1710349 -0.056063797 0.03309773 -0.082729995 -0.47727314 -0.2577796 0.012430804 -0.13270019 0.37004948 0.12962137 0.18352184 0.049029123 -0.049776405 0.0928064 -0.0018329025 0.48485398 -0.21438329
第二 -0.0041887905 -0.0108746085 0.012583323 -0.02098541 0.0057329033 0.018171882 -0.023518223 0.0075797574 0.0059385095 0.003584243 0.0038361615 0.017554061 -0.025083384 0.022487313 0.0068876124 0.0030610287 -0.008229541 -0.018486837 0.014409338 0.020862887 0.015169149 -0.012683966 0.021074621 0.017443078 0.01883999 -0.015244697 -0.0073827724 0.0047385283 0.0027958998 0.0011322463 0.0016820391 -0.020632768 -0.0063419295 -0.03012675 0.011113804 0.018791927 0.02517322 0.0033618489 0.010918875 0.0020559882 0.021141293 -0.01872005 0.0074436106 -0.0017294993 0.006386577 0.010140705 0.00746586 -0.0042300476 0.009617202 -0.00052244135 -0.0012812901 0.007482496 0.013749251 0.010611304 0.009996417 -0.022375235 -0.0020888145 -0.001902499 -0.00060570403 0.0028981578 0.007312075 0.012931769 -0.0058443947 -0.014994273 0.0010905995 0.027232636 0.008508098 -0.0067032445 0.014986608 -0.0041141547 -0.0036488073 -0.017432373 -0.011227126 -0.020510033 0.0050503938 0.005738209 -0.005062449 0.015839487 -0.014608794 -0.001695847 0.013817435 -0.021046024 0.0059468416 0.004376451 -0.005510811 0.0030498544 -0.004181775 -0.022094842 -0.009651476 0.0026160204 -0.0035802154 0.01710791 0.0074298303 0.010903842 -0.0018862647 -0.0045309193 -0.00025787068 0.0008191134 0.0178472 -0.009235057
题 -0.01902862 -0.060584847 0.050200928 -0.10981348 0.022361325 0.08516325 -0.0988633 0.016888257 0.020256748 0.0003661203 0.026829038 0.07313029 -0.10815091 0.11067826 0.03652656 0.02489057 -0.062146522 -0.10362809 0.073913164 0.090200186 0.053172883 -0.0614396 0.0886906 0.09629399 0.09555893 -0.09591582 -0.018717837 0.027228676 -0.0010346037 0.011372967 0.027030198 -0.09803504 -0.033417754 -0.14083229 0.05712258 0.081005484 0.11874646 0.015306381 0.034027953 0.016747605 0.118891425 -0.102036744 0.029186204 -0.023333168 0.025870943 0.06916201 0.028896056 -0.0069607715 0.04198126 0.014268748 -0.0024384346 0.043342907 0.06063604 0.076550275 0.057100434 -0.0904924 -0.021822609 -0.012324008 -0.019193504 -0.0038582545 0.025442356 0.055730235 -0.033440538 -0.058359202 0.017551033 0.118608676 0.028800536 -0.04837792 0.07323058 -0.014926493 -0.0060323635 -0.07152868 -0.043570682 -0.08744826 0.03402083 0.019190319 -0.047304276 0.0600189 -0.058206327 0.0050139516 0.06780181 -0.11740776 0.0023700618 0.040377896 -0.012662134 0.004862757 -0.014902195 -0.10570048 -0.056897707 0.004644759 -0.025671292 0.08294762 0.031125674 0.043166123 0.008105366 -0.015112776 0.016009783 0.004038096 0.11050542 -0.050780058
疑问 -0.001513755 -0.004105673 0.003345682 0.0016596743 0.0025509782 -0.0027915032 0.004755256 -0.000980781 -0.0017274553 -0.0005958624 -0.0036117379 -0.0005683348 -0.002536016 -0.0036386463 -0.003005626 -0.0012163593 0.004412266 -0.0030446723 -0.00020618942 0.0029767528 0.0015211843 -0.0033853585 -0.0036124724 -1.8364444e-06 -0.0040606963 0.003644835 -0.0038576939 -0.0041503934 -0.0006282493 0.000527401 0.0014585399 -0.0011901854 0.0030788535 -0.002179443 0.00012646677 -0.00016568427 -0.00050689233 0.00454889 0.0016343152 0.004424711 -0.0038483362 0.00021171574 0.0021403953 -0.0041730693 1.5358419e-05 0.0045418185 -0.0043534166 -0.0021551496 0.0050003505 0.0016592642 -0.0029325045 0.0019996117 -0.002733727 -0.0046722637 -0.0047600446 -0.002874174 -0.004049485 -0.0044938573 0.0018533404 -0.0002918114 -0.000107446715 0.0029983406 -0.00326881 -0.003251398 0.0044610044 -0.0007486892 0.0016618747 0.004640114 0.003622964 0.001881946 0.0026814907 0.0029861624 -0.004129236 0.0027455885 -0.0009260581 -0.0024652258 0.003509926 0.0035916832 -0.0039859633 0.0015248561 0.0046924176 -0.00024903833 -0.004347729 0.0044986927 0.00020064387 0.0012989345 -0.0041020615 -3.2591153e-05 -0.0011153966 0.0039622113 -0.0012456981 -0.003110592 0.00097211445 0.0009004839 0.0014636483 -0.0015427269 -0.0007298459 0.0030877765 0.0033202614 -0.00492375
老师 -0.039036606 -0.1173953 0.0889051 -0.20772141 0.031858858 0.15345345 -0.18074958 0.043368902 0.038487583 -0.005388571 0.050973196 0.13224436 -0.20452899 0.21493256 0.06269205 0.056463927 -0.108221166 -0.18494913 0.14376047 0.15788403 0.10300465 -0.11790566 0.1721067 0.17145637 0.17919907 -0.17104499 -0.031851854 0.043488603 -0.001800078 0.02135905 0.055463377 -0.1710217 -0.06567855 -0.25304 0.099607065 0.14181569 0.21215415 0.021981362 0.071261965 0.02828882 0.22341831 -0.18157755 0.055045296 -0.03315346 0.053788602 0.121716954 0.06172269 -0.025142802 0.08266341 0.02157532 -0.0042199576 0.07338666 0.10703487 0.13320442 0.109545246 -0.17269355 -0.04041975 -0.02951755 -0.036785662 -0.019159425 0.05047991 0.09833926 -0.056259412 -0.11182386 0.027266301 0.21419258 0.048903193 -0.09396314 0.14655708 -0.026844786 -0.016932359 -0.14297643 -0.081610754 -0.17680785 0.069012344 0.037805457 -0.0844331 0.114079334 -0.111034974 0.008462711 0.12017896 -0.23233514 0.013864518 0.06843231 -0.02216908 0.0078368075 -0.037587997 -0.19268289 -0.10450349 0.009649483 -0.050016228 0.14831841 0.055897143 0.07035638 0.022416616 -0.023349281 0.03783968 -0.0012989591 0.1996931 -0.093041666
为什么 -0.023737244 -0.06258745 0.045735843 -0.11135103 0.016171638 0.08565752 -0.10094521 0.021048864 0.023189338 -0.0012161704 0.026412398 0.07006277 -0.11061841 0.10750397 0.036641266 0.024178343 -0.05729082 -0.097788475 0.07136985 0.08295892 0.057578217 -0.06530008 0.09441345 0.09239622 0.0895485 -0.08821657 -0.012561233 0.026115648 0.0011343119 0.009451073 0.034504488 -0.09166165 -0.03107955 -0.13924071 0.056662284 0.078896634 0.11412086 0.018159168 0.0412434 0.01752003 0.11607682 -0.095274284 0.02345301 -0.025484202 0.031507432 0.0636006 0.031356324 -0.011611851 0.039916255 0.014845866 0.0007851331 0.0425337 0.05334301 0.06978397 0.05561234 -0.09131222 -0.022134986 -0.015472918 -0.011908282 -0.009232045 0.020391773 0.046053816 -0.029611615 -0.05831697 0.014604145 0.116280355 0.018022634 -0.04577023 0.07948045 -0.012990479 -0.010039982 -0.073760964 -0.037455972 -0.09650185 0.042889696 0.014294178 -0.041332763 0.060430065 -0.056783512 0.004836588 0.066583306 -0.12543379 0.008305249 0.039208703 -0.01586956 0.0027575248 -0.02158925 -0.099636264 -0.05232183 0.0037680834 -0.02379333 0.08295153 0.029375907 0.036156546 0.010738187 -0.016110923 0.020582823 -0.0027111107 0.1029172 -0.052049458
极限 -0.026315225 -0.09832382 0.06429604 -0.17535071 0.025529599 0.12397929 -0.15131354 0.035649106 0.025148321 -0.0127797 0.0406871 0.107280016 -0.1754136 0.17407352 0.05105994 0.039715376 -0.08377305 -0.1521561 0.119397655 0.12485658 0.092373244 -0.09621529 0.14032817 0.14136182 0.14655554 -0.14482047 -0.016858887 0.03622127 -0.006638049 0.018099941 0.05030637 -0.1461444 -0.052847587 -0.20823407 0.09159273 0.1258286 0.17448677 0.023221942 0.056788705 0.023252614 0.18307889 -0.15012382 0.040798165 -0.033648867 0.037913498 0.10255208 0.053271137 -0.015948001 0.06264182 0.014508097 -0.0008427238 0.055591222 0.08464465 0.1161879 0.09389493 -0.13870935 -0.03625217 -0.028756455 -0.024057752 -0.01065049 0.03817568 0.07668564 -0.04222793 -0.10052233 0.02285318 0.17402855 0.03852158 -0.080629766 0.12369802 -0.015654601 -0.019856801 -0.11461956 -0.059465576 -0.14346914 0.06480932 0.026735004 -0.07036577 0.09130187 -0.09158959 0.0038851146 0.09841656 -0.18286493 0.0053957305 0.062644735 -0.022390943 0.0048109675 -0.025500556 -0.16453972 -0.08218453 0.002874616 -0.046273097 0.119654536 0.042003997 0.06069014 0.023018084 -0.016158435 0.028113598 0.004223762 0.16418673 -0.07726074
是 -0.053323865 -0.15368511 0.10644251 -0.27188382 0.04635653 0.20598121 -0.24394909 0.053658303 0.04334719 -0.011071865 0.073876426 0.16849081 -0.27562663 0.2756963 0.08215536 0.07444392 -0.14180619 -0.24691594 0.18381368 0.21020927 0.14178684 -0.15883452 0.22591385 0.22345239 0.2364119 -0.22800621 -0.03115723 0.055144157 5.41147e-05 0.030571306 0.081135444 -0.2355547 -0.08894412 -0.33956215 0.1396384 0.1986437 0.2789419 0.036247376 0.093997985 0.04424429 0.2902823 -0.24030192 0.062940255 -0.051279135 0.07152662 0.15750217 0.07441121 -0.034355342 0.09992807 0.02533224 -0.012104593 0.09827882 0.14217682 0.18338276 0.14125407 -0.2198548 -0.05028013 -0.040466767 -0.044922106 -0.024162406 0.059387103 0.12283436 -0.07664771 -0.15708952 0.031406183 0.28246814 0.05088784 -0.11548216 0.18918803 -0.03294238 -0.022900444 -0.18677273 -0.10356243 -0.2272915 0.103010386 0.04191358 -0.105375305 0.14647706 -0.14723812 0.016549805 0.16697565 -0.2999657 0.014563282 0.091904886 -0.03271737 0.012496952 -0.040534344 -0.252341 -0.1380582 0.0027907712 -0.06565272 0.19984783 0.06714828 0.09957003 0.030012308 -0.02466503 0.044686448 0.0011274178 0.25687802 -0.12314529
选 -0.0022046596 -0.013412128 0.014185988 -0.023060676 0.0050088707 0.01734225 -0.020035576 0.0056495494 0.0042772284 -0.0008797791 0.0075907297 0.013839469 -0.02609817 0.028130878 0.0029202537 0.0047120224 -0.017136248 -0.016391799 0.011155702 0.014013526 0.009749454 -0.014196733 0.023668278 0.019781288 0.020976918 -0.022926927 -0.0033450099 0.0046525286 -0.004465588 0.0056278235 0.0043973685 -0.022887137 -0.005303551 -0.03286968 0.015595616 0.0181193 0.025781179 0.0024503954 0.012351541 0.001034899 0.030111127 -0.020578898 0.009978367 -0.0063459165 0.0045607 0.009474768 0.0065170703 -0.0049735215 0.01293428 0.0014059414 -0.00366112 0.011312618 0.015141599 0.01759277 0.01580836 -0.019437328 -0.007830329 -0.007370508 -0.006557405 0.0029168949 0.005043381 0.006218605 -0.0034347244 -0.013991924 0.0059931735 0.028753037 0.0033962778 -0.009139882 0.020072585 -0.00230286 0.0014446013 -0.013744398 -0.0051190476 -0.020095058 0.005287206 0.002009334 -0.005146523 0.01639519 -0.0121573275 0.0033107796 0.011941512 -0.02369294 -0.00046671077 0.012924514 -0.003349028 -0.0032767109 -0.0053723305 -0.019459147 -0.007806957 0.0016986408 -0.005023414 0.018039457 0.0051751425 0.012711366 0.00018077786 -0.00091520656 0.00726947 -8.543574e-05 0.018661981 -0.0135790855
D -0.0009803226 -0.009519184 0.001529296 -0.017000789 0.0036325438 0.015261586 -0.013065485 0.00040370156 0.0039533544 0.0023263996 0.0032624688 0.0068423846 -0.020326646 0.01992466 0.0042071403 0.0014345688 -0.011461894 -0.010175994 0.009427693 0.013687871 0.0050770603 -0.0058437414 0.010490298 0.013768818 0.01144401 -0.017368285 -0.0003477924 0.004379126 -0.0027847092 0.005854136 0.007469802 -0.011778691 -0.0024988453 -0.024215715 0.011461012 0.012044111 0.01483928 0.0038011929 0.009586017 -0.0016249892 0.018932682 -0.015876425 0.0005115036 0.0009906291 0.007983106 0.010300785 0.008152263 0.0014918259 0.009080699 0.0067691454 0.0024056507 0.004086557 0.0045065465 0.0079794265 0.0063992348 -0.012815578 0.0014043106 -0.002044849 -0.005428783 -0.004173452 0.0073404573 0.0071453573 -0.0046782843 -0.013057522 -0.00070005667 0.014563259 0.00540985 -0.0025755703 0.010967012 -0.0017345326 0.0032764643 -0.01068523 -0.009136805 -0.011776743 0.008555896 0.0029977912 -0.0021976263 0.0095346505 -0.008860432 -0.00011257203 0.010712083 -0.014009327 0.004220073 0.0025713663 0.002504851 0.0055950494 0.0016988309 -0.016916407 -0.0064063915 -0.0013915654 -0.006690394 0.015070649 0.004968703 0.007767233 0.0018965603 0.0022028866 0.0012514058 -0.0037005043 0.0144024445 -0.0023272103
而 -0.0015044699 -0.0056580175 0.008673046 -0.017367821 0.005913388 0.011082092 -0.01782427 0.0024142198 0.007458375 0.0025998747 0.00088564213 0.005724394 -0.016817493 0.01926389 0.0001920897 0.000736909 -0.010275505 -0.018350605 0.0144805005 0.01503577 0.011527425 -0.006825086 0.010062702 0.015573904 0.010925107 -0.017509282 -0.0066422066 0.007246559 0.0011738158 0.0048817033 0.005362017 -0.008313583 -0.0008096552 -0.023749607 0.011630183 0.014280781 0.015372619 0.0017527771 0.0035586602 -0.0007118847 0.017794343 -0.011200225 -0.0002660585 0.00069171784 0.0017150238 0.010443168 0.006404197 -0.005358916 0.010442558 0.0045372695 -0.0037506388 0.0026467717 0.010122606 0.0077361567 0.004042953 -0.016359013 -0.0029629783 -0.0069786943 0.00056865066 0.0018262267 -0.0007945966 0.0035900418 -0.0067168716 -0.0069557633 0.005169377 0.017093888 0.0069886036 -0.010796167 0.012443 -0.0028585899 -0.002870599 -0.010637313 -0.008943006 -0.014615461 0.008876748 0.0043180822 -0.0069360165 0.003833124 -0.008702362 0.0056943987 0.013140311 -0.018446399 0.0048606647 0.0058047785 -0.006373199 0.0021535421 -0.0020056397 -0.013905968 -0.0067023514 0.0020957545 -0.0011607707 0.015408708 0.0034149175 0.009694764 0.0006688082 0.0016708137 0.0018178944 0.0014344952 0.010646525 -0.0033338466
C 0.00083234964 -0.011452425 0.0076293247 -0.015011662 0.0052983398 0.008105878 -0.01609929 0.006403107 -0.0022850628 0.0017127394 0.0013618344 0.004456488 -0.01443165 0.011764002 0.0068041477 0.0018055092 -0.008863474 -0.014185389 0.01071344 0.009868324 0.006084501 -0.0119548645 0.015838876 0.010701282 0.013367434 -0.0068563246 -0.006626958 0.0050633885 -0.0007472471 0.0063093523 0.008271867 -0.009618417 -0.0067278696 -0.018574845 0.0022075535 0.006123392 0.019393124 -0.0032333324 0.0056328117 0.0059606587 0.012570982 -0.010517992 -0.00096385827 -0.0022849988 -0.00020485598 0.009666305 0.0074794483 -0.0026214062 0.0078121806 0.005419764 0.0029246185 0.002641558 0.005854126 0.013568495 0.0076797456 -0.014654201 -0.0025370354 -0.0015496234 0.0006906601 -0.0002677195 -0.00046065781 0.0038653982 -0.0032715735 -0.010683863 0.0052015125 0.010054368 -0.001556935 -0.0062587475 0.011294531 0.0032080533 0.0016373158 -0.009265866 -0.007134088 -0.008703408 0.0008374452 0.0047108843 -0.009861833 0.0027930003 -0.0035720887 0.0029401386 0.005806801 -0.01467882 -0.0040465132 0.0004024739 -0.0010466139 0.0048724664 -0.0012193568 -0.008265273 -0.00722863 -0.0025568958 -0.00753085 0.0056117587 0.0014030784 0.00319501 0.0037814877 0.0015181542 0.0050518396 0.0045072814 0.015844567 -0.010518728
一个 -0.005148349 -0.028237052 0.020788692 -0.03883795 0.010925234 0.028398756 -0.033593837 0.0037037036 0.007880217 -0.006825797 0.008175285 0.024332453 -0.040942483 0.04528148 0.012165438 0.009187521 -0.023344219 -0.034580853 0.03325003 0.027866423 0.02304139 -0.026352394 0.038725615 0.038762785 0.038638562 -0.031905055 -0.00055909046 0.0051121432 0.0015611699 0.0041144285 0.016720697 -0.040065102 -0.016248245 -0.056306086 0.024873208 0.034023173 0.04184158 0.0032449323 0.014972316 0.001995836 0.043267265 -0.035124935 0.014058163 -0.007237798 0.011950478 0.021199321 0.009100177 0.00032865105 0.018990196 0.0069931163 0.0032853296 0.010951014 0.022231806 0.028633643 0.025388353 -0.03905939 -0.005117166 -0.0021716524 -0.0080165 -0.0042657526 0.012307 0.018611955 -0.013432566 -0.021799052 0.0016835466 0.047917157 0.0052285786 -0.021769922 0.027202874 -0.0036720615 -0.00095969415 -0.028731368 -0.013777455 -0.033454094 0.017866788 0.012176034 -0.016430967 0.01764303 -0.023597214 0.0046118833 0.020769255 -0.05064493 0.002133322 0.011677312 -0.0026717582 0.0066496423 -0.007877682 -0.041322708 -0.016516227 0.0022781084 -0.01362698 0.030674389 0.01158452 0.011995919 0.0070241457 -0.006327207 0.0038549146 -0.00095422886 0.043051198 -0.019677747
概念 0.0013798903 -0.0039974875 -0.00014808097 0.0001822972 0.0010152939 -0.0011908724 -0.0014887985 0.0017627693 -0.0038836964 -0.0031823416 0.0053525697 -0.0018055864 -0.0018708041 -0.0016014957 0.0010065367 -0.0024537924 -0.002659665 0.0027206899 -0.00082297163 0.002218725 1.807668e-06 0.001333339 0.005460258 -0.0013469053 0.0026720108 -0.0039404053 0.004594916 0.0031148125 0.0028848457 0.0003198527 0.0051085344 0.00087286916 0.00064210396 -0.00029042328 -0.0027506873 0.0046905144 0.0064794417 -0.002341975 0.00012614073 -0.0030943179 0.006242811 -0.0063670184 -0.0025866474 -0.0033405204 0.0011048911 0.0017822782 -0.00069823256 0.0025664251 -0.002444904 -0.004706324 -0.0013414785 0.0040438497 -0.0019785718 0.002363081 -0.003948804 -0.0055591254 -0.00397378 0.0026856377 0.0019170584 -0.0037448176 0.0020616723 0.004106112 0.0037441212 -0.0006855151 0.0008168582 -0.0020673266 0.0023873714 -0.0004945847 -0.0037162942 -0.0019502967 -0.002568973 -0.0056046396 0.0013875047 -0.00248965 -0.0013113249 -0.003990367 0.0007050042 0.001978356 -0.0054233507 -0.004033684 0.0039441725 -0.004859738 -0.0032624984 -0.002653416 -0.003972561 0.0011226498 -0.002061564 -0.0010007732 -0.0026841178 -0.001635424 -0.00088667247 -0.003760285 0.0018134287 -0.0028191314 0.0052101198 -0.0040870514 0.00049810053 0.0010135575 0.0009332835 -0.0025252663
说 -0.0086158 -0.009529191 0.011188198 -0.019344637 0.005014902 0.015030321 -0.023671152 0.002350396 0.0014880854 0.002658348 0.006403583 0.015302996 -0.023903245 0.023965506 0.008600489 0.004554535 -0.011053957 -0.019233147 0.018807132 0.019912716 0.011305868 -0.01226569 0.014431765 0.017125368 0.015082153 -0.019297685 0.0017121523 0.0008845197 -0.0030439065 -0.0023540116 0.0014198151 -0.020696739 -0.0034353496 -0.023334486 0.015859203 0.014290186 0.017265666 0.006361568 0.0035738447 0.0013601957 0.019070406 -0.016257359 0.0019426204 -0.0022671975 0.008495257 0.016152048 0.006665594 -0.00585053 0.010695959 0.0051015588 0.00088922173 0.0062870765 0.012149067 0.016772455 0.009891991 -0.015096463 -0.003430107 -0.005438818 -0.0058563305 -2.3175991e-05 0.006683684 0.012903912 -0.008594811 -0.01573406 0.0018580179 0.025484916 -0.00033768045 -0.006321124 0.013148095 0.0019891406 -0.0024599226 -0.010035692 -0.0057924865 -0.01571649 0.0069798734 -0.000809319 -0.01212793 0.010875565 -0.007861657 0.0021333098 0.0117328465 -0.0270046 0.0044178367 0.010892237 -0.0023321933 0.002375362 -0.004999001 -0.017150208 -0.006399723 0.0039409893 -0.009896923 0.015350217 0.0087023955 0.0074048415 0.0072027324 -0.0055152383 0.0019033939 0.000695608 0.015871841 -0.006365872
常数 -0.005832638 -0.011519634 0.002908758 -0.01776314 0.0071145063 0.01049933 -0.013454506 0.0033677327 -0.0025037162 -0.0010449738 0.006441516 0.0059202514 -0.0161175 0.008430938 0.002038783 -0.0015439175 -0.006806582 -0.012043228 0.00402374 0.011696654 0.0036877226 -0.0059068613 0.013199985 0.0071561635 0.0149507895 -0.012805016 0.003483859 0.00017133993 -0.001918329 -0.0019803725 0.0028228194 -0.012329943 -0.003668596 -0.015145468 0.008833176 0.013912626 0.014378279 -0.0007258097 0.0038897153 0.0045692576 0.018132493 -0.008580487 0.0014651385 0.00048238778 0.0053992225 0.008644851 0.001549043 -0.0036940952 0.0067394776 0.0031515316 0.0045739845 0.0054498683 0.006436796 0.009841163 0.004530231 -0.012496236 -0.006137993 -0.0068428535 0.000991966 -0.0009823857 0.0072348267 0.0009978057 -0.0020334972 -0.010416822 -0.0017706244 0.015013775 0.006775831 -0.0012812172 0.0072625396 0.0010785835 -0.0028702314 -0.0056803753 -0.0019299008 -0.009868544 0.001773415 -0.0010123214 -0.0056710984 0.0044423966 -0.007307337 -0.0037510693 0.00944622 -0.0123835765 -0.0017892729 0.007483005 -0.00050560175 0.0026021872 0.00091636844 -0.009023567 -0.010489904 0.0023368744 0.00034788114 0.012216665 0.006313783 0.0010864143 -0.0035856483 0.002263732 0.005503831 -0.0013024241 0.01615005 -0.008695528
它 1.7654907e-05 -0.017211374 0.010710508 -0.022481646 0.0036589778 0.01956614 -0.023238705 0.0050586006 0.006600701 0.0037731926 0.007814549 0.012866811 -0.029110849 0.024129288 0.0024458726 0.0069112517 -0.0132543165 -0.025872748 0.014366603 0.018580582 0.009072125 -0.012634142 0.015680164 0.016189845 0.017324707 -0.020207766 0.00090311276 0.008279186 -0.004843851 0.006818416 0.0060162437 -0.016254183 -0.012052634 -0.026696688 0.0138106635 0.021189373 0.029607669 0.0029224106 0.004391022 0.00010114716 0.02796169 -0.020288797 0.009272006 -0.007495006 0.008895613 0.010473795 0.0021850362 -0.00095524895 0.004559749 0.0030349037 0.0039965985 0.0070045637 0.010902187 0.016928872 0.014071843 -0.017723469 -0.0026601586 -0.003337021 -0.00414206 -0.0056024105 0.007852306 0.0064637056 -0.004037234 -0.010693303 -0.00033665638 0.024584582 0.0068066185 -0.008220028 0.0166418 -0.0018932143 -0.0008001727 -0.0128621925 -0.01299135 -0.018800968 0.009712378 0.002788994 -0.011621272 0.0146068055 -0.008524644 0.002869803 0.019227102 -0.02726866 -0.0012513028 0.007980105 0.002120053 0.0016895256 -0.00341503 -0.019484155 -0.013269676 -0.00028797603 -0.0052035344 0.015928634 0.0020083832 0.0063843424 0.0033670051 -0.002691919 0.0068912343 0.004551054 0.022560924 -0.008090238
本身 0.0022210379 -0.0011011441 0.007418904 -0.011008973 -0.002939821 0.0075411787 -0.0051011476 0.0042467695 -0.001338724 0.0021084026 0.0013277779 0.0018379604 -0.008725547 0.003057321 0.0044047465 0.0032812436 -0.0057457983 -0.002867533 0.0017890333 0.0041678254 0.00088821363 -0.006588015 0.0025478434 0.0031220168 0.0020348406 -0.0066104643 -0.00577811 -0.0025608006 0.0046862033 0.0032868346 0.006262719 -0.0018555963 0.00030596752 -0.012296288 0.00833248 0.0040440876 0.0033752727 0.0035206152 0.0008131433 0.004568573 0.009496019 -0.011325482 -0.0005224287 -0.004710119 0.0010337464 0.0069056726 0.00116818 0.0010402226 0.0015366753 -0.0033625409 -0.0013529882 0.002554257 -0.000887693 0.0019649742 0.008220819 -0.0036856867 -0.004580505 -0.00072009384 0.0021739842 0.0029339693 -2.8450013e-05 0.006757525 -0.0055564316 -0.0056581087 0.00016822282 0.010398289 -0.00026354397 -0.0016287006 0.0026784525 0.0016386069 0.00034733186 -0.0061473185 0.0005133535 -0.0036332114 0.0007909996 -0.0016992491 -0.00074590003 -7.9837046e-05 -0.0032490408 -0.00038063427 0.0059118457 -0.008800643 -0.0035986628 0.004644152 0.0037639956 0.0007416719 0.0023236799 -0.010272099 0.0007056678 -0.0014982445 0.0013003078 0.0039092824 -0.0011617652 0.00081793184 0.0033822455 -0.002799849 -0.00087705743 0.00022418215 0.0071887923 -0.0033884635
第五 0.0026181191 -0.007467879 0.0080161225 -0.014620299 0.003046621 0.007319105 -0.010276834 0.0014138338 0.0028841225 0.00016023814 0.0034444225 0.009217859 -0.00689401 0.01475047 -4.708956e-05 0.0037471973 -0.0046976637 -0.0064122346 0.011203863 0.004604748 0.0045013344 -0.006174064 0.007647536 0.0069592753 0.010474496 -0.009219236 -0.0020938495 0.005870671 0.0012534324 -0.00066819746 0.0055850446 -0.012750846 -0.0049501434 -0.0107978145 0.0068055177 0.011833332 0.013804458 -0.0011107111 0.0033106287 0.00045012886 0.015145655 -0.0065270467 0.0034789084 -0.0068293754 0.00017502182 0.007542151 0.00717253 0.0030170612 0.0027592815 0.0030048245 -0.0047313175 0.00802195 0.010083367 0.0118660405 0.00906528 -0.013862005 -0.00058632763 -0.0035011994 0.0013421611 -0.005021944 0.00612766 0.003333184 -0.002850368 -0.00393705 0.0054100356 0.011579879 -0.0017426835 -0.0026198956 0.011227742 0.0030095382 0.0013770657 -0.010226545 -0.006127531 -0.0047212346 0.0067649195 0.0066426587 -0.0032191542 0.00612257 -0.009456371 0.0005903309 0.010329099 -0.011476704 0.0003191783 0.00723154 -0.004987992 -0.0033863103 -0.006135288 -0.009743919 -0.0061506815 0.004671256 -0.0023470218 0.004149513 0.0036456035 0.008544453 0.0012216154 -0.0047915415 -0.0010686492 -0.0023303977 0.0075592017 -0.0002822631
怎么 -0.035549376 -0.106550224 0.086030215 -0.20218273 0.028324839 0.15356277 -0.17813604 0.037362706 0.03359034 -0.00995985 0.043009732 0.116623156 -0.19639724 0.2040795 0.067216545 0.05159721 -0.100716695 -0.17857237 0.13058567 0.14693993 0.1045703 -0.11577777 0.16119681 0.16662115 0.16692807 -0.16349557 -0.029413357 0.042322785 -0.0042454633 0.022869421 0.061221417 -0.16259538 -0.057772163 -0.2452863 0.09501304 0.13248508 0.20239833 0.022870809 0.0700397 0.025202114 0.21167815 -0.16896412 0.050959304 -0.03403989 0.053156905 0.114426486 0.05832029 -0.024748763 0.07647148 0.02739583 -0.009047037 0.07072375 0.10149536 0.1262535 0.10577652 -0.16496454 -0.031160655 -0.029703416 -0.0318537 -0.016685206 0.04079296 0.0943838 -0.049584646 -0.10695032 0.02489769 0.20129275 0.044820804 -0.08763642 0.13719864 -0.022853456 -0.013133336 -0.13567507 -0.07212861 -0.16617955 0.06418068 0.032255933 -0.07546964 0.10544556 -0.09802999 0.010440983 0.11763424 -0.21731386 0.0060960245 0.06394518 -0.029986821 0.012676692 -0.036228146 -0.18592662 -0.10036263 0.0035623705 -0.054645065 0.14489308 0.04740368 0.064696446 0.01956182 -0.022292467 0.036182653 -0.0004496248 0.19007348 -0.08694732
呀 -0.0069449823 -0.024243295 0.015014658 -0.035097785 0.0014879387 0.02999542 -0.03343552 0.008330972 0.0067236396 -0.0021641639 0.0046667675 0.02355568 -0.038373582 0.032858 0.007714221 0.0045024063 -0.014822055 -0.036078054 0.024317658 0.03125896 0.022285005 -0.023725975 0.026763335 0.032263126 0.03098711 -0.030411005 -0.0002806261 0.009810565 0.004460558 0.0069981064 0.013162598 -0.03427951 -0.012809485 -0.043990985 0.01639512 0.027232243 0.036432452 0.0059108664 0.015591555 0.0030328676 0.040551644 -0.0328978 0.010386701 -0.0015360159 0.01130142 0.024949322 0.008265376 0.00087702624 0.011756742 0.007270401 -0.0025644903 0.010866839 0.019331116 0.024461064 0.018710023 -0.033619706 -0.0038070227 -0.0049461992 -0.005273662 -0.00023539997 0.010278299 0.018569853 -0.0057660546 -0.019281404 0.006425849 0.0398511 0.005924775 -0.011070286 0.023688387 -0.006154951 -0.00025591257 -0.026311655 -0.016147874 -0.029842617 0.007896977 0.008457324 -0.016447423 0.014318026 -0.020495746 0.0030952403 0.023061201 -0.04045731 -0.0007230554 0.009159929 -0.005105876 -0.00115137 -0.0017666941 -0.028274737 -0.017553713 0.0056491997 -0.0045759026 0.027348258 0.009068548 0.011469853 0.0052682557 -0.0005639661 0.0041394923 0.002552725 0.030782111 -0.010992599
详细 -0.006230809 -0.007810148 0.005284816 -0.0180876 0.0040302104 0.009476 -0.013402994 0.0011766122 0.0036059471 -0.0017517811 -0.00055659557 0.00673283 -0.017041309 0.02078356 0.010426494 0.0087138405 -0.012342672 -0.018973533 0.013401353 0.01303063 0.0042425604 -0.014459251 0.010440778 0.012273025 0.019125652 -0.015321628 0.0003298315 0.0014781043 -0.0012229921 -0.0022478004 0.0069407634 -0.018878171 -0.005719486 -0.023190577 0.009252488 0.015538973 0.015406067 0.0025348396 0.0013943787 0.0040370626 0.015159047 -0.014109177 0.0063934578 -0.0041821767 -3.6313286e-05 0.005200894 0.0048043793 -0.0045249835 0.0036975967 0.0041193115 0.0030804796 0.008049504 0.012017417 0.014393931 0.014011376 -0.015122784 0.0012084402 -0.0018654962 -0.006879781 0.0031081317 0.0020073054 0.00571518 -0.006717168 -0.011907964 0.0024172282 0.020826926 0.00443538 -0.00289964 0.0074334564 -0.0032490094 -0.0011790737 -0.008375011 -0.0108033875 -0.013607788 0.0025537335 0.004390253 -0.0020539341 0.009604272 -0.008985203 -0.0009190107 0.0071847048 -0.019635817 0.0004978083 0.0016933982 0.0003104029 -0.0033179314 -0.004963148 -0.017947 -0.0039392067 -0.002327325 -0.0065755225 0.011089634 0.007731022 0.010975536 -0.002822785 -0.004254938 0.0035466235 -0.0046395627 0.016668407 -0.012321373
点 -0.014287667 -0.043129977 0.029029485 -0.08765738 0.016905231 0.059760775 -0.07330192 0.0136628365 0.017064994 -0.0012734892 0.017143419 0.05590673 -0.082906336 0.08360608 0.023319323 0.022619057 -0.04173796 -0.07278523 0.06073138 0.067779526 0.047330625 -0.051069073 0.06450994 0.071400665 0.07129665 -0.06550908 -0.00999225 0.0189635 -0.0036252688 0.0045890133 0.024231724 -0.073538974 -0.027856378 -0.099017315 0.03852786 0.056424778 0.08753668 0.012652725 0.025055781 0.0128536085 0.09161871 -0.07281358 0.02361483 -0.018791752 0.015847972 0.05076437 0.01938724 -0.005394414 0.028223017 0.0059522605 0.00047546998 0.024960028 0.04166209 0.056832686 0.045227405 -0.0708367 -0.010806853 -0.009776292 -0.013229341 -0.005786302 0.019603815 0.03751003 -0.023991166 -0.050926793 0.010173909 0.08395359 0.013889786 -0.038927313 0.05930528 -0.01094625 -0.008684494 -0.056485947 -0.035279002 -0.07351511 0.02863916 0.013004002 -0.028974423 0.042338997 -0.04607366 0.007382591 0.050017186 -0.08739209 0.0028343063 0.031717073 -0.01109525 0.0018420296 -0.016156541 -0.07896863 -0.039735883 0.0072365585 -0.020709803 0.062373932 0.017927889 0.026385931 0.0049095363 -0.007273139 0.015801506 -0.001231781 0.079207435 -0.039507594
不 -0.03314188 -0.082707256 0.06169663 -0.14776757 0.027096216 0.115024745 -0.13119608 0.0342207 0.02392027 -0.004054795 0.038114715 0.09572177 -0.15208156 0.1482622 0.044836316 0.041728 -0.074174464 -0.13812584 0.10117543 0.11342409 0.0819252 -0.08507698 0.12024825 0.119805396 0.13305828 -0.12436557 -0.0144296605 0.03642274 -0.0058239787 0.014335375 0.03843105 -0.13312978 -0.052344423 -0.18574354 0.07434688 0.10892896 0.14934364 0.019766506 0.05058842 0.02047444 0.16451298 -0.13317117 0.03811165 -0.02677335 0.037961125 0.08110611 0.041071754 -0.010804801 0.05799642 0.020048402 -0.007719533 0.054460958 0.076912254 0.098837174 0.079648286 -0.122092955 -0.032393616 -0.01960405 -0.024314258 -0.010235165 0.032909058 0.067025945 -0.04543273 -0.088774994 0.017526338 0.1573452 0.029581591 -0.06793577 0.10850542 -0.0143417055 -0.011047135 -0.09848764 -0.056318697 -0.1289151 0.056344774 0.021938233 -0.06318941 0.0831366 -0.08259458 0.0038494747 0.09203455 -0.16697967 0.011817515 0.049559698 -0.017750079 0.007258217 -0.022724565 -0.1432933 -0.078851335 0.007790325 -0.034034327 0.11267632 0.034479048 0.056369793 0.013102506 -0.0117669115 0.024616497 0.0008634034 0.13929787 -0.064012885
知道 -0.004932404 -0.01282145 0.012358913 -0.019317951 0.0072236746 0.014708113 -0.023132332 0.004025088 0.0008557041 0.0040267445 0.0016644532 0.017476972 -0.017382119 0.019035349 0.0063943625 0.0011174951 -0.011576629 -0.024221033 0.016163867 0.012464785 0.0130305765 -0.010549207 0.021176148 0.019482443 0.016815243 -0.013555765 -0.0007159817 0.009729594 0.004750337 0.00059257325 0.0050624814 -0.014593382 -0.00233583 -0.026107512 0.015831366 0.011793477 0.025795616 0.0033834556 0.003257151 0.0045753475 0.019135302 -0.017151402 0.009018762 -0.0071503106 0.0011245684 0.0124819735 0.007715072 -0.0057273507 0.0060342397 0.00081581896 -0.002925197 0.006957598 0.0081259 0.011705155 0.006924337 -0.014584749 -0.0034805993 0.00091733097 0.0010505191 -0.00450164 0.002537155 0.013769487 -0.006603829 -0.007428113 0.002769316 0.023759281 0.0031310432 -0.009110328 0.016810708 0.0017375983 -0.0025728235 -0.014926935 -0.0126173375 -0.022225855 0.0055366484 0.0023003228 -0.012395018 0.012478983 -0.009413584 0.0018094255 0.016183471 -0.020194177 -0.0008249859 0.0114832 3.3993812e-05 0.005439904 -0.0047699623 -0.024112279 -0.013755526 -0.0016730946 -0.0072968984 0.020578958 0.0069517232 0.0038930485 0.0027616634 -0.00256835 0.002096371 -0.0019282534 0.020561982 -0.0065491847
你 -0.00811627 -0.03326225 0.025559008 -0.05549103 0.006011337 0.035742696 -0.050171617 0.007231639 0.0061757574 -0.0050395136 0.016991848 0.03470115 -0.05169745 0.052387323 0.0210997 0.015887 -0.03014958 -0.05232389 0.032330796 0.039652765 0.025814192 -0.02942397 0.042936087 0.047847092 0.050571583 -0.04781749 -0.00459046 0.010609247 -0.0012089525 0.0029129118 0.011997121 -0.05065782 -0.017377129 -0.066716604 0.024702001 0.04192895 0.056979828 0.010999625 0.015180863 0.008548974 0.060660377 -0.048614327 0.012890359 -0.0088895 0.0087181255 0.027323395 0.015089088 -0.0074380715 0.01969851 0.0021591787 0.0035147802 0.019858373 0.025380326 0.038508974 0.024308966 -0.042818867 -0.014970759 -0.004424713 -0.004965504 -0.0030377991 0.015305937 0.019820917 -0.01407233 -0.035216387 0.0013155537 0.053924337 0.010089386 -0.020182863 0.03758612 -0.010842404 -0.0067608105 -0.0343968 -0.020897917 -0.041007515 0.015784305 0.009180781 -0.017354038 0.025001094 -0.032262202 -0.000806312 0.036096398 -0.054025 -0.00081212947 0.022260465 -0.005403591 0.0049415 -0.009734461 -0.05114447 -0.024993086 -0.0012224782 -0.01551787 0.040402073 0.008815131 0.021732643 0.005458112 -0.0027830612 0.008174534 -0.0039263335 0.04815268 -0.023302194
还有 -0.005184483 -0.0032593296 0.0041645113 -0.0076442147 0.0039791935 0.011207137 -0.010733479 0.006818879 0.0048227366 -4.2472107e-05 0.0037629106 0.009470352 -0.01599167 0.008181267 0.003338371 -0.0016264357 -0.005901721 -0.0137389675 0.0073263524 0.014439 0.0107903145 -0.009610303 0.0058494452 0.013938897 0.009267645 -0.012459476 -0.0033445593 0.0016438401 0.00085340533 0.0031289053 0.0055474634 -0.0149717685 -0.0050894395 -0.016433053 0.005391594 0.012946196 0.008067563 -0.0024186447 0.00060781185 0.00661332 0.018059852 -0.010561965 0.0021916626 -0.004640815 0.0057776636 0.012079952 0.0010101191 -0.0055892863 0.0057737483 0.0010186919 -0.004566943 0.005177621 0.010842797 0.0113580795 0.0056206444 -0.0142385345 -0.0024707925 -0.0021981115 0.00089589896 0.0016080997 0.0071113724 0.0069189426 -0.0028912164 -0.0038492554 -9.399082e-07 0.010102507 0.0050501996 -0.000897095 0.013188896 0.002640962 -0.0018168746 -0.0124668125 -0.0071268836 -0.010695065 0.008015659 -0.0020999715 -0.009528945 0.0055785957 -0.011207535 0.004484074 0.0066222656 -0.017204277 0.0019826568 0.0014223477 0.0010071375 0.004201058 -0.004299854 -0.008776993 -0.003385816 0.003607059 -0.0038357626 0.012160996 0.0038212289 0.005696321 0.0004970556 0.0010058274 0.0045488533 0.002286142 0.01339332 -0.0076180436
没 -0.008948522 -0.018385725 0.006247274 -0.025654934 0.000516361 0.020624066 -0.022328503 0.0050122724 0.0081488695 -0.0040374515 0.0060183187 0.016557395 -0.027927855 0.024694972 0.009359164 0.010157582 -0.012748323 -0.020408623 0.014242137 0.024937328 0.013843191 -0.017188316 0.018407963 0.024156805 0.019022549 -0.024907753 -0.0009632807 0.0095785335 -0.0012009835 0.004274376 0.0061661447 -0.028086608 -0.004954133 -0.03868282 0.012066119 0.0153310215 0.028269881 0.0024784168 0.007848291 -0.00040997233 0.025377695 -0.022176059 0.0035026432 -0.0031319095 0.011662764 0.01419062 0.00424566 -0.006645068 0.012455626 0.00467642 -0.00089590106 0.0051524728 0.011764393 0.016916089 0.016555361 -0.017758237 -0.0025619485 0.0009807211 -0.0005818099 0.0017036804 0.0056062327 0.008269035 -0.0083993375 -0.0130858105 0.004502937 0.027826862 0.0047600353 -0.013548105 0.016017599 -0.0060123997 -0.003918826 -0.022969715 -0.007584155 -0.01814236 0.013126151 0.0015744194 -0.010267663 0.01883447 -0.011953112 0.0026013765 0.014360147 -0.029856028 0.00027268264 0.011643258 -0.0070246058 0.0021324935 -0.0014040596 -0.02715057 -0.012966508 -0.0012612226 -0.0074092043 0.019780759 0.011457008 0.006205945 0.0068462044 -0.0014516793 0.0036815952 -0.0030383659 0.025823416 -0.014151226
替换 0.00050224265 -0.008320121 0.0038809876 -0.016755655 -0.00026789942 0.015215403 -0.014773675 0.002806357 0.006434019 -0.0010690377 0.008232113 0.012551505 -0.01140742 0.020745998 0.005176295 0.008933958 -0.009829279 -0.016334312 0.013767942 0.015223663 0.003962936 -0.005709497 0.01642914 0.009265953 0.008997595 -0.016244758 -0.0054879594 0.005019459 -0.00030041108 0.006249244 0.002079404 -0.018348211 -0.007923572 -0.021286882 0.013293772 0.008311551 0.020279733 0.0058182464 0.009095095 0.005438423 0.020537905 -0.012067601 0.0028881337 -0.0063774334 0.0012933619 0.01073392 0.007675776 0.001483895 0.0049656085 0.003284028 0.0013549345 0.0051926505 0.0066459337 0.013370695 0.0065744994 -0.016471397 -0.005727777 -0.006496644 -4.2061147e-06 -0.0026681959 0.0033160886 0.002656518 -0.0077201747 -0.0051189535 0.004226993 0.0188023 -0.00079443934 -0.00303307 0.011484406 -0.005930926 -0.00012360176 -0.013567319 -0.0075287907 -0.012184453 0.0033822963 -0.0006526853 -0.009129727 0.011228021 -0.0043556476 0.004871291 0.007138503 -0.0134474 -0.00081872905 0.003972388 -0.002641127 -0.0034894785 -0.0019933737 -0.018819151 -0.010874572 0.003542276 -0.009136276 0.0081398 0.0015951066 0.010520564 0.0032196906 -0.001354393 0.0027930262 -0.0025050978 0.01751206 -0.012167722
不会 -0.0030875618 -0.0043383124 0.0096099945 -0.015912779 -0.0011138256 0.013464564 -0.0140328845 0.0054000323 -0.0011893428 0.001156847 9.338447e-05 0.010103762 -0.017192014 0.015030945 0.0013562393 0.00083032926 -0.008900533 -0.015241934 0.0071645835 0.00856828 0.010026956 -0.009009054 0.01362753 0.01272235 0.009399968 -0.0070243874 -0.0034798211 0.002824832 -0.002516674 -0.0033829785 0.0016498188 -0.015559269 -0.00020835214 -0.020294927 0.005236901 0.008296922 0.008519445 0.003296233 0.0015062308 0.002113664 0.009050685 -0.007689939 0.008041186 -0.00029625418 0.0042503257 0.007842967 0.003640781 -0.0031033172 0.00932491 0.0011388138 0.0017028075 0.0011212564 0.003705583 0.00551995 0.010575687 -0.014792405 0.0020947438 -0.003672969 0.0009728438 0.0005227037 0.0061890944 0.0037810546 0.0012512815 -0.003650289 -0.003444315 0.010410605 0.0011327675 -0.004710707 0.007724891 -0.0039003817 -0.0022772853 -0.007508894 -0.0069100065 -0.012316711 0.007891502 0.0056973263 -0.002063021 0.0023898445 -0.011672879 0.0031860706 0.0060620653 -0.014096623 -0.0009142234 0.00775676 0.0009003852 -0.0008604245 0.00094089395 -0.016498543 -0.007850635 0.0005088301 -0.006040742 0.011793943 0.0056418525 0.0064016944 0.0043700878 -0.004830458 0.0013374564 0.002657224 0.016897842 -0.0045897937
一道 0.0022467521 -0.0051166033 0.0036697066 -0.0049339267 0.0037862614 0.008105878 -0.00824954 0.0025016188 0.004406105 0.0023791124 -0.0022649071 0.0022105374 -0.0026200572 0.0010548148 0.00030192515 0.004733035 -0.0028234553 -0.004685822 0.0045835427 0.006375606 0.0029043905 -0.0034117897 0.00774269 0.003528013 0.0049054306 -0.006820897 -0.0005034432 0.001804697 0.001676401 -0.0006467531 0.0060539003 -0.0042541604 -0.005717721 -0.0047554728 0.006897277 0.005787708 0.00817924 0.0027872394 -0.00014781312 0.0018850344 0.0077573457 -0.0038227597 0.0058423067 -0.0031633764 -0.0013418169 0.0060260044 -0.0026445386 0.0026965416 0.002690745 0.00019603549 -0.0010948109 0.0045505892 0.00053419796 -0.0011558258 0.0036833058 -0.0038997189 -0.0056590466 -0.0052485834 -0.0052813864 0.0015103618 -0.0026613954 0.0028515963 -0.004707832 -0.005630377 -0.0025693509 0.0022603709 -0.0033566826 0.0017316212 0.0009848531 0.0024860697 0.0023146009 -0.0012481089 -0.0065985513 -0.0048612747 0.004125842 -0.0006724035 -0.0012877226 0.0038560575 -0.0059264363 -0.0014954112 0.003327866 -0.0014549164 0.001850288 -0.0005770046 0.00033404847 0.00029832422 -0.005071934 -0.0062064845 -0.0011497174 -0.0032121213 0.0013965268 0.007471252 0.0062698405 0.004563432 -9.5298776e-05 0.0018759681 -0.00048736084 0.0002547816 0.008337219 0.0021941287
希望 0.0016332637 -0.0039549796 0.00820879 -0.010664833 -0.00022467662 0.005738184 -0.013001022 0.00072602305 0.002975233 -0.005024383 0.008371099 0.009474951 -0.0125124715 0.01146167 0.008138105 -0.00081160944 -0.0061700055 -0.0108757345 0.007923886 0.010731332 0.004887065 -0.01245972 0.009358661 0.015332172 0.008356042 -0.008740224 -0.0041057076 0.007820796 0.0031848694 0.004392992 -0.00097056036 -0.010209641 -0.008978428 -0.01757012 0.008479584 0.010465227 0.014826952 0.0029055814 0.0019345211 0.0041360315 0.018159898 -0.012151599 -0.00016623049 -0.0029703556 0.00765918 0.0066125877 0.00776066 -0.004461616 0.002984497 0.0041433945 0.0032694424 0.0057422393 0.0077291424 0.012506421 0.008589642 -0.015267378 0.00029674452 -0.006343601 -0.00014969497 -0.00288953 0.0040914025 0.005464634 0.0005031758 -0.009077467 0.005885922 0.012841226 0.007201486 -0.006012474 0.010412814 -0.0018856879 -0.002735979 -0.010723677 -0.0037453924 -0.012846493 0.009385876 0.0022680466 -0.0032895522 0.006829068 -0.0024713895 0.00051728595 0.003573508 -0.011396337 0.004759288 0.009358747 0.000999474 0.0012167019 -0.0009958604 -0.01574066 -0.0040273713 0.002837594 -0.005211174 0.012240142 0.0047013806 0.004412535 0.0027124013 -0.004928089 0.0055548707 0.004531991 0.016711224 -0.0064887917
可以 -0.023720795 -0.064519525 0.040398154 -0.10660554 0.017176984 0.083212666 -0.09929146 0.022169951 0.022074034 -0.0026832852 0.023797004 0.07102584 -0.113426864 0.11237532 0.03801947 0.025464907 -0.059871744 -0.09525985 0.07416061 0.08891195 0.05938754 -0.061215166 0.09356171 0.086918876 0.092517816 -0.096451744 -0.011461898 0.020968499 -0.0067924075 0.017893316 0.027490277 -0.09431879 -0.03936957 -0.13711107 0.059020232 0.08048239 0.110181816 0.009525362 0.04217052 0.011717502 0.11411968 -0.10043842 0.032527123 -0.0161321 0.031123482 0.06718914 0.03701947 -0.008005098 0.045706037 0.015490362 -0.007505965 0.039684597 0.056605503 0.07483763 0.061285757 -0.08678234 -0.025696026 -0.013570832 -0.018175563 -0.0045918087 0.023886275 0.04837756 -0.032491695 -0.061725833 0.016842252 0.11731718 0.024109725 -0.04946671 0.077644944 -0.014619976 -0.011922113 -0.06968465 -0.036923673 -0.09147518 0.035134457 0.017801581 -0.03866031 0.060998168 -0.057633415 0.006727317 0.06323259 -0.12148458 0.0069858376 0.037282374 -0.015884697 0.0017968842 -0.02131616 -0.10650638 -0.05307874 0.0035699862 -0.024907239 0.08018557 0.026389979 0.0360975 0.007386545 -0.010876541 0.014044096 -0.00079843664 0.11079646 -0.04570081
解答 -0.010096812 -0.018467367 0.009558327 -0.032728493 0.0043986035 0.029158715 -0.02835631 0.004067279 0.010442771 6.772802e-05 0.008068959 0.01662865 -0.03068238 0.0293791 0.0068888376 0.0054904693 -0.019563396 -0.028843148 0.024340563 0.029087523 0.019464208 -0.01861362 0.022907063 0.02725717 0.031150484 -0.02993644 -0.0069881394 0.0073662046 0.0027619943 0.0025679816 0.010973306 -0.030475736 -0.008791478 -0.036497626 0.019321667 0.02264265 0.03245746 -9.914211e-05 0.011913519 0.002162083 0.03920851 -0.027774421 0.011344068 -0.0073513095 0.007322952 0.023636028 0.013794345 -0.0037041823 0.011572748 0.0074310685 -0.00291245 0.009000388 0.016492054 0.024058912 0.017200025 -0.029671751 -0.0018313787 -0.007264065 -0.010164462 0.0023144763 0.008347052 0.0144263655 -0.010636464 -0.021323854 0.004831087 0.037697975 0.0026596691 -0.016767655 0.019062739 -0.004835081 -0.0010459461 -0.018379621 -0.0071611777 -0.026607383 0.008052126 0.0025704782 -0.011466021 0.016070772 -0.012211751 -0.0012189933 0.016042529 -0.03459092 0.0010728637 0.013231471 0.00054187607 0.0027800123 -0.005697176 -0.027354937 -0.017216366 0.002037252 -0.0060787178 0.021529455 0.012868674 0.008034844 0.002716407 -0.00058872753 0.0007874662 0.0044013057 0.0325225 -0.018739581
谢谢 -0.018869733 -0.056439452 0.039708607 -0.09632297 0.01913144 0.07236261 -0.077267915 0.016246205 0.018499406 -0.0027552089 0.024878792 0.054965116 -0.09522386 0.091450885 0.030124761 0.024453467 -0.048214704 -0.0842412 0.059498616 0.07512624 0.045183912 -0.04904338 0.07361843 0.07333085 0.080306515 -0.07419921 -0.008277526 0.018314226 -0.003176872 0.013102735 0.027782243 -0.07911155 -0.033346884 -0.11388227 0.04575352 0.06483907 0.09956723 0.014569756 0.02594705 0.01171295 0.10359041 -0.07906927 0.02076646 -0.012872562 0.023808552 0.053471107 0.025441492 -0.006736691 0.034639154 0.015347424 -0.0007330688 0.03287746 0.050936993 0.06694658 0.04955493 -0.07170438 -0.019540494 -0.017363032 -0.016234165 -0.0074769566 0.02390223 0.03821286 -0.021613251 -0.055308267 0.0126681095 0.09491323 0.0220992 -0.043934595 0.06634144 -0.0106533095 -0.007045884 -0.06601684 -0.03186527 -0.075413175 0.03242298 0.020742131 -0.035369776 0.052477494 -0.0480282 0.0033941315 0.05568468 -0.10677498 0.004170335 0.03644252 -0.01576011 0.005807163 -0.017322399 -0.089253835 -0.04474355 0.0057711066 -0.02242643 0.072433524 0.027072443 0.030449105 0.009481439 -0.0094695 0.014628282 0.002217761 0.085018985 -0.04179376
解 -0.007089039 -0.010367208 0.0099889515 -0.01723069 0.0009116117 0.012060432 -0.012412178 0.0016889502 0.001467223 -0.0034419138 0.0076324344 0.0068718605 -0.018013652 0.0177254 0.0028566876 0.0025667245 -0.009804884 -0.01134372 0.0075080935 0.009034005 0.01083361 -0.011007738 0.007716275 0.015487069 0.015314438 -0.016072791 -0.003745408 0.006228664 -0.0019342073 0.005363173 0.0071617058 -0.013369402 -0.0054981364 -0.019133883 0.0038765348 0.013973935 0.011506064 0.0048514213 0.007942082 0.005332407 0.020143677 -0.013752944 0.00108161 -0.0022145887 -0.0005352271 0.010714635 0.0064585125 0.0012478355 0.008341467 -0.00171386 -0.000750064 0.0032001967 0.010843724 0.006178111 0.00933562 -0.016729632 -0.0023004133 0.0023579174 -0.0043403218 0.0017346528 0.0064997333 0.009585695 -0.0059935777 -0.012317505 -0.0019189281 0.016130561 0.0036723306 -0.00948558 0.0074573234 -0.0025015734 0.0019010413 -0.007543722 -0.009217855 -0.008568766 0.003167447 0.0005594597 -0.008285743 0.01098659 -0.01269019 -0.0037828567 0.00776414 -0.017382849 0.001284059 0.00018173829 -0.0009813905 0.0028548657 -0.0030450025 -0.01772493 -0.011734778 0.004757143 -0.0020513772 0.01371689 0.003834623 0.005347605 0.004706992 -0.0059089386 0.0070271776 -0.0012528703 0.017200481 -0.0065926965
呢 -0.0106889075 -0.028258171 0.020611256 -0.056044716 0.0044082548 0.036630675 -0.046790164 0.006870149 0.0063444907 -2.010323e-05 0.015257279 0.031528443 -0.054681953 0.055111524 0.019750437 0.012135096 -0.02729097 -0.04372198 0.030670658 0.042621158 0.024578873 -0.026507106 0.03950243 0.04816099 0.04171458 -0.04716858 -0.008693941 0.015378358 -0.0010562825 0.0022153896 0.012384861 -0.040925756 -0.013255394 -0.06332629 0.030766625 0.033411916 0.053653453 0.0031184226 0.022104021 0.0078511825 0.06043122 -0.04854359 0.013003117 -0.011331966 0.017613294 0.031017382 0.012057855 -0.0063158805 0.020420348 0.0083928425 -0.0019148934 0.016006906 0.031528093 0.031100271 0.033073176 -0.043985542 -0.008231269 -0.0065881857 -0.012974026 -0.0020079485 0.0074125975 0.027411137 -0.018396517 -0.02888418 0.001181915 0.054606307 0.011884314 -0.020325355 0.035531823 -0.009114126 -0.0042374856 -0.033631615 -0.020967087 -0.048667543 0.02031572 0.014049302 -0.019453425 0.02730091 -0.029456487 0.0032771686 0.029172584 -0.06043179 0.0038474756 0.016882569 -0.011325039 0.006210021 -0.010082643 -0.044692453 -0.029663537 0.0052657425 -0.009443696 0.041547213 0.011383049 0.017870951 0.008136888 -0.0029976326 0.011542906 -0.004752955 0.051817358 -0.017866196
麻烦 -0.005480555 -0.01033753 0.010004795 -0.022898318 0.007187972 0.013565809 -0.016354091 -0.00032145513 0.00034160592 -0.004712312 0.00022066606 0.012377847 -0.015463602 0.024310984 0.0027723396 0.0012283543 -0.011381156 -0.013355266 0.014492089 0.017630342 0.007148582 -0.013092207 0.01984313 0.019216195 0.014418295 -0.019825416 -0.0054333634 0.00021875848 -0.0025919296 -0.0003984892 0.0031531942 -0.020657314 -0.0022610126 -0.020511765 0.005868043 0.016264679 0.017757466 0.0064741173 0.007262333 4.1322783e-06 0.025490634 -0.013841538 0.005852763 -0.0030612582 0.0020382819 0.011062206 0.007849393 -0.001875774 0.0051507275 -0.0014249881 0.00027927503 0.01178152 0.014009401 0.015321177 0.00890069 -0.015127407 -0.0035366302 -0.0018722037 -0.0066386615 -0.00014250891 0.0032382053 0.01157321 -0.00677498 -0.011653978 -0.0022447193 0.02288651 0.0014713168 -0.013504939 0.011146524 -0.002291955 -0.0015203786 -0.011692708 -0.009220378 -0.017786575 0.010946472 0.00034993154 -0.012798023 0.005952232 -0.012478235 0.004361115 0.007101612 -0.02549664 0.0006319996 0.010957862 0.0022434755 0.0041261986 -0.005540558 -0.015836399 -0.011951307 -0.0020096432 -0.0075095054 0.01563539 0.0007257221 0.0022496777 0.0015774888 -0.0023095084 0.0034130265 0.0026336953 0.020183135 -0.0049409387
您 -0.0062961113 -0.008588378 0.007276527 -0.008537965 -0.0029496911 0.0059723263 -0.006889145 0.0042383675 -0.0014120513 8.894774e-05 -0.00011304766 0.00047378044 -0.0049496875 0.0034242906 0.00667973 -0.0010300183 -0.0057207644 -0.004518428 0.0037189508 0.004835482 0.0035564643 -0.0017031648 0.007496221 0.0027588508 0.007995522 -0.0042882445 -0.000615582 0.005161596 -0.0032644086 0.0028543747 0.002675931 -0.005873408 -0.0073867184 -0.013604722 -6.786524e-05 0.010361308 0.0056820037 0.0041239006 0.0061872182 3.3193326e-05 0.011080995 -0.010235561 0.006808018 -0.0032239673 0.0028588425 0.006097382 0.0016757185 -0.00091852294 0.0041666133 -0.0031511323 0.00088486756 -0.00038353715 0.0032024523 0.0028573042 0.0042340285 -0.011137265 -0.0011888362 -0.00063789834 -0.005466316 -0.0035152906 0.0007930505 0.005810164 4.9105613e-05 -0.00016854564 0.0046600364 0.0037778358 0.001989129 -0.0021283221 0.0022356329 -0.0040565124 -0.0027658644 -0.0083140675 0.00020163762 -0.0036030132 -0.001199465 0.0031022015 -0.0054808687 0.008646935 -0.0042718593 -0.004560966 0.00845976 -0.011302426 -0.0019116055 0.004861606 -0.0013908861 -1.521298e-05 0.0009579555 -0.007727827 -0.0046520177 -0.0011277118 -0.0014861769 0.0009026397 -0.00074065453 -1.8180232e-05 -0.0023298666 -0.0057612574 4.03921e-05 -0.0016052489 0.0041144015 -0.0007784127
请问 -0.0089281555 -0.041733295 0.035181195 -0.0799993 0.011192211 0.05897288 -0.0638088 0.014554753 0.016642807 -0.0013351643 0.018710107 0.04703552 -0.079804674 0.07748144 0.019333687 0.01648221 -0.03949234 -0.068459384 0.049678676 0.057532057 0.034237064 -0.039219398 0.06359094 0.06416372 0.06645173 -0.059197534 -0.009151828 0.021603249 -0.0034501096 0.0062855897 0.026116401 -0.05906393 -0.021838805 -0.08952422 0.040520005 0.056309823 0.07270829 0.008870172 0.02629586 0.012684555 0.08012233 -0.06973301 0.022887139 -0.009184378 0.01697655 0.042655237 0.02431286 -0.0126703745 0.025669862 0.01191919 -0.0013117172 0.023258783 0.03962543 0.046385206 0.03980804 -0.060033947 -0.014792853 -0.010721296 -0.01607516 -0.0022068787 0.012263379 0.032398753 -0.021391226 -0.044714212 0.0050132372 0.075706005 0.01569084 -0.038199592 0.05069408 -0.009339041 -0.007997925 -0.052525483 -0.027237576 -0.06206348 0.02462711 0.013430468 -0.025959937 0.040782742 -0.0443831 -0.00069760607 0.048119172 -0.08714075 0.008203938 0.025777945 -0.008179753 0.0077476865 -0.007942986 -0.06584996 -0.036563396 0.007269794 -0.019745179 0.05482668 0.02213762 0.026761085 0.012615203 -0.004397714 0.0131735625 -0.0012134254 0.06778987 -0.030711839
不能 -0.008206009 -0.019551188 0.008687191 -0.02849354 0.0068281214 0.023566881 -0.020287212 0.00085521507 0.0010817014 -0.0052444045 0.004534123 0.014783331 -0.029908556 0.031676628 0.009426473 0.011630436 -0.017269071 -0.018917406 0.021539247 0.018324783 0.016317252 -0.014170188 0.022078613 0.017258134 0.021948393 -0.025482887 -0.004329297 0.008660709 0.0041096634 5.7117693e-05 0.0050431807 -0.018757816 -0.010627536 -0.028992157 0.00899664 0.01928569 0.029762188 0.00245549 0.0116175385 0.0033843252 0.031787887 -0.022249596 0.010338112 -0.0072778445 0.011393607 0.017352788 0.0036172322 -0.006664182 0.010456303 -0.0013028606 0.0020382337 0.011428123 0.015634354 0.019888088 0.010995025 -0.02579719 -0.00020047225 0.0008053274 -0.001898514 0.00050189317 0.0038673086 0.015531451 -0.009302204 -0.013465434 0.0032621205 0.023046648 0.003963248 -0.008765637 0.016330197 -0.006408058 -0.003753286 -0.020799443 -0.0059130257 -0.022445135 0.0065935403 0.007801446 -0.01208975 0.0144983195 -0.018363776 0.0049586203 0.012314172 -0.025620757 0.0009865767 0.012422428 -0.004333173 -0.0024086216 -0.0030004354 -0.026258823 -0.00882316 0.003511281 -0.0071844435 0.023152117 0.009835174 0.010687181 0.0036693655 -0.005379636 0.002633327 -0.0046600024 0.024675865 -0.008912151
直接 -0.009803842 -0.025194742 0.01586302 -0.04419727 0.0059361565 0.03303496 -0.04162532 0.013280889 0.009727556 -0.0034264177 0.010097599 0.027344588 -0.04664934 0.043167785 0.008548637 0.015471633 -0.023342641 -0.037670113 0.029686503 0.035533726 0.019462137 -0.026681794 0.036039952 0.033429775 0.036700714 -0.03747467 -0.0061850892 0.010035822 0.00038681936 0.0025299815 0.010020422 -0.03978914 -0.01405404 -0.055496283 0.01923544 0.033470593 0.041386172 0.008372303 0.015889404 0.0019974057 0.042853314 -0.03207659 0.009436928 -0.005446066 0.008308035 0.022989796 0.012300358 -0.0028931987 0.019219069 0.0061899927 -0.0038419948 0.019681567 0.02422158 0.032855205 0.027020894 -0.032619562 -0.0059242845 -0.009332376 -0.005758066 -0.00803134 0.011014909 0.015757374 -0.014565106 -0.020524696 0.0028693709 0.047670566 0.005368094 -0.0146494955 0.03366677 -0.0007835494 -0.0010535044 -0.024459992 -0.01583881 -0.03891166 0.019468877 0.0027647328 -0.020751653 0.016887438 -0.026689136 -0.0022215745 0.028145013 -0.045694422 0.0068912692 0.015620667 -0.009161283 0.0016345731 -0.0041019404 -0.04091392 -0.025040006 0.005859504 -0.007309654 0.029130816 0.013128459 0.016919801 0.0005502356 -0.0076131094 0.0025351718 -0.0027442377 0.03626097 -0.018166754
求导 -0.0062208762 -0.029703446 0.015961524 -0.05459621 0.011193958 0.03640755 -0.04787274 0.005108582 0.010285725 0.00089309475 0.01589746 0.03056829 -0.048018984 0.050595053 0.011879476 0.013007393 -0.027851399 -0.047990672 0.035514344 0.0426646 0.022779236 -0.027041607 0.036071215 0.041747075 0.040804274 -0.0383841 -0.007617029 0.014838195 0.0019825762 0.003062545 0.01707362 -0.039048903 -0.01959358 -0.061790977 0.024650052 0.03188354 0.05414055 0.0020795036 0.013871921 0.0091930535 0.052996874 -0.042537414 0.011912967 -0.008128284 0.01495547 0.025760062 0.0099022975 -0.0073527433 0.0194737 0.005287008 -0.0028709099 0.015208106 0.029652955 0.033801023 0.031316698 -0.035899993 -0.008475058 -0.0061245537 -0.011766629 -0.004033735 0.009638509 0.022488354 -0.012038512 -0.02700854 0.0031733436 0.055159114 0.010165045 -0.022164099 0.039110996 -0.00955435 -0.005783815 -0.03488332 -0.020920072 -0.038570393 0.020234589 0.012300897 -0.015665116 0.025579557 -0.027290052 0.00445339 0.029440962 -0.053467996 0.003542607 0.016048707 -0.0038048564 0.0029029697 -0.007366313 -0.050395094 -0.024942275 0.00576147 -0.013687378 0.03797999 0.015991773 0.015492527 0.00828082 -0.0001650416 0.007871849 0.0016840869 0.046894304 -0.020957362
等价 -0.01255291 -0.035952628 0.02758969 -0.07022617 0.009718593 0.04889061 -0.05862854 0.018175568 0.012786151 -0.0055796914 0.016123833 0.04480494 -0.06716023 0.07087618 0.01990904 0.022307672 -0.034304257 -0.063706554 0.04414863 0.05485941 0.035014305 -0.035758022 0.060402002 0.057148192 0.06002981 -0.060967486 -0.0052544614 0.016187537 0.0035107648 0.008362309 0.01820668 -0.06019981 -0.025778258 -0.081505686 0.03916653 0.046634622 0.07519012 0.011133913 0.01882942 0.012251197 0.073231496 -0.056341175 0.015926547 -0.009036465 0.019162478 0.04032452 0.015143512 -0.011572205 0.02601683 0.0066162697 -0.0018954116 0.025178986 0.03280214 0.049331628 0.036012746 -0.052182768 -0.016490286 -0.014564852 -0.007298752 -0.0033064177 0.010792887 0.030228015 -0.0150555605 -0.040669046 0.0041120388 0.06541368 0.011751038 -0.02574253 0.05011714 -0.0045222985 -0.011676118 -0.046853054 -0.02045539 -0.05168177 0.02957438 0.0102133835 -0.028517615 0.032347456 -0.030954031 0.0071865935 0.04008634 -0.07030438 0.0040170224 0.02628136 -0.0075866356 0.007859641 -0.0063301832 -0.062251613 -0.035625823 0.0046892185 -0.013354988 0.04496587 0.013270277 0.02703658 0.010889323 -0.003699651 0.012881601 0.0040963967 0.06274319 -0.03168943
无穷小 -0.01591033 -0.060558125 0.04418664 -0.11193627 0.017139178 0.078658156 -0.098212644 0.02440259 0.014429653 -0.0011019869 0.030964194 0.068024024 -0.11266054 0.10835493 0.028557872 0.031437352 -0.057869323 -0.100241065 0.0741525 0.085197724 0.05542624 -0.056636535 0.08611307 0.08630551 0.09406642 -0.093914874 -0.009994356 0.021101465 -0.0061462885 0.015520167 0.0342832 -0.09560895 -0.036844663 -0.13153194 0.058723673 0.08026935 0.11546538 0.011415522 0.039847046 0.018938575 0.11618515 -0.09916325 0.024316221 -0.017155614 0.024470141 0.06608713 0.035951354 -0.016421938 0.041543234 0.011823677 -0.0011554162 0.042223077 0.055461172 0.07803176 0.060257033 -0.08961639 -0.022799835 -0.0208541 -0.017468533 -0.010822074 0.026089374 0.05194506 -0.02637677 -0.06640147 0.008530633 0.11654999 0.02727104 -0.050102808 0.079048045 -0.008528357 -0.013132283 -0.07645919 -0.04336967 -0.089568 0.036069214 0.017699532 -0.040855672 0.06068591 -0.05512639 0.0016277846 0.060062222 -0.11752525 0.006464297 0.036863863 -0.016263181 0.008269436 -0.019064376 -0.099865034 -0.056521896 -0.001902686 -0.029842874 0.07743688 0.03123999 0.042169467 0.017075425 -0.011379667 0.02039838 -0.00189151 0.10845519 -0.04604601
习题 -0.0015017756 -0.0075374194 -0.0010369312 -0.001411469 -0.0013460219 0.0058890497 -0.00456719 0.0053750845 0.00052670913 0.0032545808 0.0047634444 0.005727562 -0.0067337314 0.0076420605 0.0036585778 0.005576323 0.00063536223 -0.0034626513 0.008654792 0.000708058 0.004478245 0.00028818543 0.0075226785 0.00793526 0.00703644 -0.009548446 -0.0022356268 0.0015919246 -0.0033517634 0.0038045468 0.00041144277 -0.006530345 -2.670614e-05 -0.010908326 0.0042812964 0.004860314 0.0043389336 -0.00010616711 0.006788631 -0.0041336063 0.003430056 -0.0055860365 0.005080785 0.00061852345 0.0016355081 0.0022864307 0.005942349 0.00045285086 -0.0025054014 0.0012868245 0.0019092283 -0.0010519457 0.0043599494 0.00831316 0.002422797 -0.0011331176 -0.003594429 -0.002858322 -0.0026679223 0.0005416635 0.003965989 0.0032120447 -0.0034459264 -0.0018422764 0.00051538215 0.0067803524 0.0022267273 -0.006895476 0.0036933029 -0.0018838856 0.001086636 -0.008700132 -0.00028392964 -0.00019726576 0.0047179726 -0.00017280667 -0.0023194163 0.006870202 -0.005774265 0.004943054 0.0055848784 -0.010350475 0.003752142 0.0049991123 -0.0016034705 -0.0014364483 -0.0015834344 -0.004680207 -0.0032493048 0.004625887 0.00019966438 0.0034096336 0.0039898907 0.00021863938 0.004115551 -0.0029341106 0.005554874 0.0036833538 0.002476965 -0.006263973
都 -0.0120199295 -0.04631957 0.034100845 -0.07259862 0.0142993685 0.05674249 -0.0702313 0.019030852 0.017849522 -0.006259767 0.019038163 0.043512527 -0.07987071 0.07906021 0.023444634 0.014247739 -0.043705128 -0.06614673 0.05295601 0.05603064 0.04074815 -0.04705393 0.06078279 0.057765614 0.06465978 -0.06565458 -0.008122923 0.013516713 0.00044123697 0.0061876983 0.026075233 -0.06039131 -0.02536227 -0.09163334 0.041054003 0.058171578 0.07499013 0.0068694144 0.027285602 0.015059557 0.079172134 -0.0629965 0.02114854 -0.012433874 0.0147965625 0.04648491 0.025135823 -0.0076312614 0.025338167 0.008775724 -0.0069480147 0.02226228 0.034332905 0.045829907 0.03874244 -0.06336631 -0.012689736 -0.014078433 -0.011276368 -0.007542001 0.014704068 0.037365764 -0.021982018 -0.04511903 0.0055257846 0.07513576 0.018419974 -0.028616255 0.053219326 -0.010185398 -0.011608871 -0.0479643 -0.027341357 -0.061908625 0.02307198 0.016973952 -0.029999197 0.03670923 -0.0403187 0.004654395 0.045238085 -0.0794293 0.003301298 0.020619903 -0.007988038 0.008629187 -0.009293884 -0.06927107 -0.038703267 -0.0006703307 -0.01744308 0.05864273 0.024155939 0.024099965 0.007889409 -0.011431971 0.012665664 -0.004809616 0.06698848 -0.034164812
学校 -0.003977724 -0.0026460516 0.0062265866 -0.0097295195 0.0033328 0.009271852 -0.008476516 -0.0023691738 0.00069497176 0.0036015448 0.0058904486 0.0068001123 -0.0072736004 0.0028338204 -0.0011952871 -0.0011572868 -0.008211499 -0.0012932966 0.002031235 0.00997321 0.0022137128 -0.008644538 0.002204515 0.0026302335 0.0028327256 -0.007947034 0.0012384589 0.005261347 -0.0031093496 0.005461005 -0.0014161302 -0.01008743 0.0027654397 -0.011324244 0.0015070146 0.008184387 0.010261497 0.0044609103 0.0050695874 -0.0028089276 0.010054443 -0.0064527197 0.0065742643 -0.006036057 0.0035328548 0.0059597464 -0.00029921584 -0.0034654282 0.007057101 -0.0008339476 -0.0011116022 -0.001341753 0.0037434842 0.0015580821 0.006316912 -0.0028685124 -0.0055582654 -0.004907826 7.983457e-05 0.0040079555 -0.0028818622 0.0069176815 -0.0034350606 -0.0023533483 -0.0018357764 0.0040814513 0.0051310356 -0.0013947762 0.001363354 -0.0011346932 0.0018239638 -0.0038243588 0.0005253118 -0.0037727966 0.0018464875 -0.0019613248 -0.0009675905 0.00640177 -0.00057270995 -0.0008888206 0.0082774265 -0.004038531 -0.0030047516 0.0034288259 -0.005775131 0.0006444496 -0.0011277101 -0.005919344 0.0007936596 0.00091986137 -0.005334341 0.007150053 0.006677584 -0.0012026855 0.0031653803 -0.0022671323 0.0019914587 0.0004404086 0.009502074 -0.007348951
还是 -0.00795732 -0.02259776 0.017981626 -0.041631438 0.002766556 0.034052197 -0.037589327 0.004902177 0.0019910769 -0.00081183645 0.009495019 0.025093636 -0.037130125 0.041069757 0.009100008 0.009452882 -0.01731073 -0.035732187 0.026716664 0.031966213 0.0149926115 -0.024893008 0.032047234 0.036003485 0.037281755 -0.032060325 -0.0015044068 0.00822828 -0.0034778907 0.0058171395 0.009836279 -0.034631666 -0.017599795 -0.05081824 0.019152477 0.024102151 0.040856015 9.415964e-05 0.015753934 0.0047996156 0.042618755 -0.038295288 0.007190066 -0.0032187642 0.007849636 0.01990588 0.0075262836 -0.008520481 0.0180044 0.0033675581 -0.002551528 0.014466168 0.020519009 0.03067562 0.017346809 -0.03181369 -0.010279699 -0.008072747 -0.0017055086 -0.0041793594 0.010534027 0.013563621 -0.008194947 -0.025938774 0.000977918 0.04027323 0.010393013 -0.020865107 0.024647694 -0.00035849807 -0.002037463 -0.022404965 -0.01794283 -0.027963527 0.010044176 0.010512655 -0.013109082 0.016198533 -0.017485263 0.0006228398 0.023904216 -0.04410919 -0.0022125992 0.014854007 -0.00069933984 0.002753597 -0.009411641 -0.038859457 -0.016656516 0.0049941638 -0.010906121 0.026112737 0.0051669357 0.010196166 0.00035380502 -0.0034035007 0.010978177 -0.0036719842 0.036777012 -0.016036965
上面 -0.0005048412 0.0015400867 0.0057408544 -0.0052987677 -0.0033409093 0.0007973056 -0.006828646 0.000979972 -0.0016547882 0.0014594169 0.0063485773 0.0053520836 -0.00952511 0.0013072083 0.0044786595 0.0045282505 0.0010412446 -0.007933084 0.004419621 0.0052682827 0.0011857443 -0.0056403 0.008048697 0.006981433 0.004584099 -0.0016840548 0.0040302686 0.005663079 -0.004602727 -0.0015912176 0.0029490194 -0.0039050083 -0.0048948564 -0.010577305 0.005151174 0.003952848 0.002114148 -0.0025335436 -0.00075632316 0.0018095106 0.010285484 -0.0046117147 0.0021695367 0.00058046414 0.0046670944 0.005346181 -0.001762731 -0.0008707654 0.0018522558 -0.0024387105 0.0002493918 -0.0028706158 0.002424511 -0.00014697097 -0.000896462 0.0005073142 -0.0006264256 -0.00092777435 0.00034649653 0.0018721586 -0.0011302619 -0.0006815066 -0.0053815567 -0.0012060133 -0.0015014408 0.0075734556 0.0036051036 -0.00087353407 0.0026107628 0.003676826 0.00062030135 -0.0017960805 0.0028144158 -0.002490433 0.004474534 0.0023893414 -0.0060491 0.0035195914 -0.0016657163 0.005198802 0.0059191096 -0.011018468 0.0044638123 6.5378263e-06 0.00063512276 0.0027312853 -0.004708918 -0.005362279 -0.0010590841 0.00033419015 -0.0056471075 0.006227047 -0.0016248308 0.0038519257 -0.0024503656 -0.004053438 0.0017627997 -0.0028815214 0.0075808605 0.0011162676
请教 -0.0061516445 -0.0057713557 0.006583365 -0.013123226 -0.00037116627 0.0060156425 -0.007914749 -0.0009929568 -0.0016283432 0.0014434655 -3.365276e-05 0.006481877 -0.010972811 0.01635856 0.006416001 0.0019913972 -0.012478266 -0.01427381 0.00789156 0.012086537 0.0057991296 -0.008827649 0.010969989 0.014074608 0.011153584 -0.007973857 -0.001340711 0.0076271193 0.004191864 -0.002804702 0.007209128 -0.015315027 -0.0077288784 -0.021113954 0.008188948 0.01098863 0.018184545 0.004832399 0.005457171 0.0026811813 0.014516876 -0.01698978 -0.0003310151 -0.00045374525 0.0025566244 0.012628509 0.007489201 0.0014020548 0.0104420865 0.0028279992 0.00021654248 0.005113499 0.007558438 0.008239489 0.0036784841 -0.01069176 -0.0073657082 -0.00077504414 -0.0004250866 -0.0035262841 0.006424614 0.007745919 -0.008180005 -0.013060804 -0.0030563218 0.017092012 0.0070746434 -0.0028405066 0.012420092 -0.0005993859 -0.0031488617 -0.005414974 -0.006442019 -0.013286248 0.0024472065 0.00042691652 -0.008054131 0.011699873 -0.010973692 0.00016861402 0.012301554 -0.011618717 -0.00029002002 0.0055012205 -0.002026084 0.0033785277 -0.00012783683 -0.011677543 -0.009944257 -0.0024323026 0.0010828846 0.011593191 0.004819118 0.00268456 0.0010188944 -0.0048667723 0.0036989609 -0.0043059927 0.012914943 -0.003341218
代换 -0.0010781705 -0.007500628 0.008160047 -0.016116844 0.0026234007 0.011895254 -0.01929738 0.00501322 0.0041196607 0.0016115031 0.007913886 0.013466757 -0.019086057 0.02233941 0.0044296132 0.002499233 -0.008403631 -0.014539167 0.012130901 0.014347618 0.010298207 -0.008289768 0.015159635 0.014408665 0.0131106265 -0.018511252 -0.0013777271 0.005752817 0.00438144 0.0058404054 0.0067995028 -0.019608062 -0.007935077 -0.023846814 0.0062530665 0.016370466 0.0138731 0.0024428018 0.0090563325 0.0020574345 0.016095713 -0.012523145 0.0007629936 -0.003468406 0.009291749 0.013880363 0.004010486 0.0015508131 0.008735057 -0.0011478658 0.0035088276 0.0059011485 0.013191091 0.017042134 0.012580211 -0.009980983 -0.0011142152 -0.0051674205 -0.0013602176 -0.0063343504 0.006312991 0.0118847685 -0.008082175 -0.0059254803 0.0035324881 0.014263783 -9.971589e-05 -0.011575857 0.015074089 0.0026154423 -0.0051722806 -0.007194664 -0.0103834905 -0.015648607 0.0048733875 0.0064281584 -0.0051853284 0.012075316 -0.013193265 0.005492746 0.008946467 -0.024458557 -0.0022575858 0.009101686 -0.0067925933 0.003830882 -0.0066157468 -0.012059374 -0.008460073 0.004112194 -0.0069323764 0.013471181 0.0027500289 0.010488035 0.004480783 0.0011778572 -0.0016545743 0.00395599 0.013818394 -0.012464352
性质 -0.0042403224 0.002834876 0.005552941 -0.002852778 0.0006211381 0.0011332562 -0.006410619 0.002069469 0.00010545745 0.0025774692 -0.0036406596 0.0029979 -0.0022599644 0.00049801427 0.00029370486 0.001707137 -0.0046366584 -0.0022982308 0.0037883315 0.004401735 -0.0009295691 -0.004319524 0.0009158659 -0.0022434397 -0.0020994637 -0.0036459854 0.0033635765 -0.0033535254 -0.00035075904 -0.0005062201 0.0033105165 -0.0002901184 -0.0005076209 -0.0020649936 -0.0013474696 0.0015411888 0.0002468431 0.0030908124 -0.0028237936 0.0008562243 0.0015157167 0.0019249836 0.0005270601 0.0037631216 0.0051130364 0.005816614 -0.0025731055 -0.0016309009 0.004717776 -0.00084516406 0.0047947406 -0.0015342447 0.006585311 0.0012875281 0.0050384747 -0.0037449314 0.0004100877 0.00060222566 0.0038907412 -0.0038261737 0.0023453808 0.0033134401 0.003647356 -0.00080624584 0.0031869141 0.006039528 -0.002152479 -0.006130196 0.0015339623 -0.0048071356 -0.0024807644 -0.0023711338 0.0011765828 -0.0027352935 -0.0023573192 -0.00079937396 -0.0028490885 0.0016387389 -0.0039086966 0.003923898 0.0030550917 0.0010268026 -0.0042943615 -0.0028217235 0.0018990771 -0.002245772 -0.005379761 0.0012241285 -0.002498672 0.0038377824 -0.0031943987 0.005048283 0.00037530615 -0.0032110538 -0.003396125 0.0013840833 0.0015583909 4.5046014e-05 -0.0013412415 -0.005400906
结果 -0.0008951002 -0.009542806 0.012367735 -0.025129603 0.0029830155 0.012884648 -0.014348088 0.004298159 0.0070620626 0.0021254437 0.009922577 0.012056766 -0.01686339 0.018846363 0.005376322 0.0008532791 -0.01113724 -0.020952007 0.009127133 0.013886622 0.009176597 -0.016670194 0.020169409 0.017837957 0.019274307 -0.01904617 -0.003552785 0.0038535113 -0.0016066186 -0.0023419175 0.005606658 -0.014894435 -0.011187206 -0.021646874 0.0067930347 0.015901927 0.02013242 0.004352458 0.00977692 -0.00044391782 0.022123558 -0.017009113 0.009321179 -0.0029427332 0.003725716 0.015719693 0.0021185577 -0.0058241286 0.0070818374 0.0060264375 -0.002323849 0.00959116 0.010981983 0.017936986 0.011828421 -0.018527593 -0.0080202455 -0.0075563514 -0.007493328 0.0016416768 0.008747775 0.011178103 -0.0033727083 -0.011385571 0.0012354515 0.020078268 0.0036603475 -0.010572993 0.012686712 -0.0052826707 -0.0011100001 -0.011267435 -0.005385833 -0.022028714 0.0066171642 -0.000993286 -0.0057118684 0.008005473 -0.01342485 0.0058706645 0.008864367 -0.025752895 0.00013875593 0.011483946 0.0009841385 0.00317913 -0.005807982 -0.020725086 -0.0062513785 0.0031723436 -0.008935299 0.018186262 0.005901783 0.0073737605 0.0035953892 -0.00026553415 0.0010940717 -0.001446686 0.022966318 -0.008929606
为 -0.01637495 -0.04360558 0.029065456 -0.08555293 0.013209476 0.06609126 -0.071284115 0.014396185 0.013731084 -0.004173378 0.018537298 0.05359614 -0.09024975 0.09006614 0.0229185 0.022652518 -0.046621382 -0.07442327 0.05879845 0.06083213 0.041936483 -0.051570613 0.06645818 0.066932164 0.07215862 -0.07420697 -0.0053424286 0.020768927 -0.002810997 0.0081889415 0.023910098 -0.072093956 -0.030528856 -0.10837636 0.042953137 0.062342193 0.0865656 0.010553131 0.024723858 0.01739054 0.09268049 -0.07439919 0.024961576 -0.021316314 0.023003109 0.046433073 0.024255723 -0.0059254975 0.03280166 0.0074221096 -0.0019622752 0.032299522 0.039695278 0.056962762 0.04434153 -0.07097877 -0.017410463 -0.012684981 -0.016672555 -0.0022626831 0.021995643 0.038205132 -0.026171992 -0.05038983 0.0072478824 0.087304816 0.016754359 -0.034248635 0.063147135 -0.0104988925 -0.012297531 -0.05709395 -0.029928962 -0.06999282 0.03423661 0.016758848 -0.038013905 0.048152257 -0.043806456 0.008215165 0.049159683 -0.09759256 0.009568548 0.029345708 -0.006762768 0.0056778467 -0.016329223 -0.082380936 -0.044654325 0.00016815757 -0.02126083 0.06184313 0.025982391 0.028022846 0.010168107 -0.004160291 0.013045753 0.0016039084 0.0839343 -0.035287526
求教 -0.0008494947 -0.005237086 -0.00059295737 -0.002073882 0.0043737753 0.000631194 -0.0052845012 0.0032144366 0.0028387308 -0.0030236354 0.0019746623 0.0004741234 -0.005901406 -0.0005541253 0.0037929006 -0.0027928026 -0.00034514908 -0.0068295123 -0.001110226 0.0018506234 -0.00092759007 0.0037199457 0.002683747 0.003295903 -0.000782646 -0.0027062753 -0.0028483523 0.004251591 -0.0029125097 -0.0030262335 -0.00030225265 -0.0015150881 -0.0014994293 -0.003988498 0.0015092506 0.0021236688 -0.0010416883 -0.0007805348 -0.0027550184 -0.00030190303 0.006757386 -0.0009622921 0.0031143306 -0.0038512812 -0.0010814841 0.0006112803 -6.839173e-05 0.004728753 -0.0029551825 0.00044757163 0.0006098397 0.002448844 0.00050504936 -0.0012129592 -0.0025700785 0.0032552402 -0.0013391703 -5.5080687e-05 0.0021007787 -0.0023335945 -0.0030933472 0.003821625 0.0035669252 -0.004176355 0.0029218935 0.00048632186 -0.0019030338 -0.0046026 0.0060830954 0.0043174624 0.0028002798 -0.00021836604 0.003974709 -0.00076533377 0.00042564623 -0.0039846255 0.003297429 -0.0026965872 -0.00058147183 -0.0008173034 0.0009744363 -0.005040074 0.0033010019 -0.0018655241 -0.0049971757 -0.002228457 0.0025560122 -0.0009929077 -0.0057099047 -0.0012634977 0.0020225188 0.00051789044 0.0041404823 -0.00010893174 -0.0021377834 -0.0033232924 0.0040297094 -0.004736651 -0.0008338437 -0.005880079
鸭 -0.0013132829 -0.00032862034 -0.0032413797 -0.0015044743 0.0028573293 -0.00013335212 0.0038717953 0.004750647 -0.0022795985 0.0026537755 0.00362291 0.0032287468 0.0014054315 -0.0011932036 0.0006191552 0.004536409 0.0015232139 0.00041200826 0.0032573699 0.0014855699 -0.0035225025 -0.0016112605 -0.0035405306 -0.0023416118 0.0049814694 -0.0060133343 0.0006382433 0.0024873773 0.0020174228 0.0021403064 0.0024955957 -0.0016290357 -0.004038957 -0.0011522288 -0.0037991249 -0.002053547 0.0061588637 -0.0031380935 -0.0014020752 0.0036483838 0.006088897 -0.0030433608 -0.004226301 0.0047877156 0.0010468649 0.0032626442 -0.0010307785 0.00025594054 0.0031486347 -0.0013422844 -0.0005955169 -0.0013369934 -0.0018122657 -0.0010470755 -0.0034627032 -0.0015706262 0.003390227 0.0008346118 -0.00032428466 -0.0010870037 0.0034104302 0.000903478 -0.0029989518 -0.00082131685 -0.00031169393 -0.0030573038 0.0016247388 -0.0052904263 -0.0009326133 -0.00013400384 -0.0020330243 0.00060385314 0.00419833 -0.00334694 -0.00058970053 0.00497589 -0.0034716718 0.0005257544 -0.0022440068 -0.0022291385 -0.0030716849 -0.005663682 0.0027101005 0.002112558 0.00063110073 -0.003305291 0.0037795743 -0.0018872739 0.0022318657 -0.0022258635 -0.0042007305 -0.0040635015 -0.001163403 0.00039626614 -0.0048930217 0.003075336 0.0050852546 -0.0010809933 -0.0014164639 0.0037371907
再 -0.0040072175 -0.02083466 0.017158847 -0.034434367 0.010733016 0.028840963 -0.034900945 0.005693803 0.005931808 0.002312456 0.0066661676 0.02609282 -0.041007917 0.039017268 0.0073130443 0.011682355 -0.016900782 -0.036622453 0.028902436 0.02497384 0.017942328 -0.018410124 0.032813262 0.02583275 0.03603234 -0.02896316 0.0004051216 0.009749311 -0.0030117785 -0.00019557058 0.0067711216 -0.032957435 -0.013149535 -0.048705254 0.020868108 0.021530284 0.04168291 0.006253819 0.0077506304 0.0018281518 0.037863202 -0.03401766 0.008333546 -0.004102611 0.010854327 0.018232012 0.008223657 -0.006409806 0.016524613 -0.0010328277 -0.0012996807 0.016672157 0.017767552 0.023412328 0.019438086 -0.031978376 -0.0064894175 -0.0096224295 -0.008997861 0.0013271798 0.012635042 0.011809627 -0.005457958 -0.021297451 0.005343262 0.03622478 0.003818646 -0.015150899 0.022540987 -0.00079248485 -0.007982317 -0.021107893 -0.011572663 -0.031665333 0.016205892 0.0018434244 -0.018244166 0.015394039 -0.019853268 -0.0014733964 0.020201389 -0.041751098 -0.0005330671 0.012930562 -0.006397169 -0.0017756695 -0.01092135 -0.029883659 -0.020779919 0.00029010116 -0.012127658 0.02607733 0.007919787 0.0122886235 0.0077389427 -0.004590177 0.0019987754 -0.001315999 0.030635126 -0.013416241
讲 -0.007094693 -0.022111088 0.009629086 -0.034037553 0.0022036552 0.029138437 -0.029712647 0.010677264 0.0037448718 -0.0016338257 0.009138957 0.018918961 -0.03172699 0.03417167 0.011100932 0.011583922 -0.015159427 -0.02718754 0.020144584 0.029498752 0.013034193 -0.016725862 0.025085451 0.02645979 0.030627351 -0.027094128 0.00017405982 0.006899748 0.0017404978 0.005820057 0.006238706 -0.032888066 -0.011423519 -0.04495624 0.012749823 0.021446448 0.03248042 0.008210426 0.015976848 0.0025398708 0.038247116 -0.032192666 0.0065075173 -0.009127005 0.011434589 0.01658021 0.0059966506 -0.0038482097 0.015440963 -0.00024585705 -0.004671221 0.014460767 0.01512585 0.021924116 0.019984916 -0.031024002 -0.0100266775 -0.0010158748 -0.0055289543 -0.0032405097 0.011903129 0.012337001 -0.011816101 -0.020002654 0.003100417 0.03955842 0.0030537755 -0.011483166 0.024831304 -0.008226651 0.00018934344 -0.026621465 -0.015360461 -0.02919028 0.008177651 0.004873195 -0.009368367 0.021350568 -0.016942125 -0.0025135274 0.017629625 -0.03369936 0.00691313 0.015113135 -0.008686086 0.002222008 -0.0078731915 -0.036795404 -0.013592146 -0.0018533755 -0.008764554 0.028675959 0.011961589 0.011014971 -0.00053469255 -0.00021242085 0.0050885216 -0.0018975912 0.03144712 -0.019940391
测试 -0.005135056 0.0017310227 -0.0013144017 -0.00374177 0.0032819402 0.0030579045 -0.002994592 0.0004288257 -0.003579147 0.0006254954 0.0013311061 0.0056558093 -0.0075183343 0.00061749143 -0.002025494 -1.7272192e-05 -0.004757464 -0.008756457 -0.0012727294 0.004670383 0.0052716397 -0.0022007294 0.0045273025 0.00588928 0.0034832954 0.0006011105 -0.0049258643 0.0014785136 -0.0013703704 0.0043910267 -0.0007632828 -0.0018289164 0.0012872032 -0.004762469 0.003308301 0.006550809 0.00550035 -0.003368721 0.004350766 -0.0019879537 0.004004647 -0.0049179215 -0.003600508 0.0007300135 0.005234418 0.0051010414 -0.00201033 -0.0049239458 0.0058638863 0.0033689647 0.0013741917 0.006026494 0.005685637 -2.1747896e-05 0.0066899657 0.0011661976 -7.2694704e-05 0.0011239169 -0.0007307546 0.0012445666 -0.0020561933 -4.3935957e-05 0.0016455599 0.0018476724 -0.004049141 0.003903057 0.0010488554 0.0029731805 0.0013223388 0.0039530154 0.00451913 0.00025656167 -0.004246628 -0.0045845797 0.0037733475 0.003775121 -0.0049326755 0.005957279 -0.0037597734 -0.0039706873 -0.00040325767 -0.009151146 0.0020602879 0.0011636245 -0.0052490365 -0.0011672513 0.0031711345 -0.0018591668 -0.003016796 -0.0019682741 0.002080277 0.0031965123 0.0021024211 0.000636654 0.000989149 -0.0014876898 -0.0024131527 -0.0021031275 0.008493483 -0.006713728
题目 -0.009025173 -0.012754915 0.010651659 -0.033595923 0.005587096 0.018188527 -0.025167648 0.010840953 0.005960079 0.0032505582 0.004223029 0.021843132 -0.03371378 0.02687831 0.01357247 0.0033356512 -0.01876819 -0.024311347 0.023732577 0.021483423 0.012143801 -0.01539808 0.028595066 0.02794243 0.026965562 -0.022565603 0.0006043169 0.011426267 -0.0045688893 -0.0015666265 0.009435582 -0.025729548 -0.010131278 -0.033287298 0.019871607 0.025863735 0.034850266 0.0037268512 0.009855084 0.0057918164 0.033388775 -0.027204528 0.0054088645 -0.0032752044 0.0026152916 0.012690754 0.0038902848 -0.006325242 0.014341115 0.0040625427 -0.0020045687 0.0139674535 0.01799089 0.021949971 0.019062411 -0.025654458 -0.008442698 -0.0080574695 8.380472e-05 -0.0055488427 0.0076036686 0.015908765 -0.0076877424 -0.014989778 -0.001111451 0.033201333 0.008466901 -0.009667569 0.018660981 -0.0067959367 -0.007842084 -0.023173977 -0.013234032 -0.02477784 0.009183181 0.006229477 -0.0072715846 0.015323966 -0.010565143 0.00039525903 0.01596737 -0.030157888 0.001215823 0.012048448 -0.004851968 0.0011418547 -0.005726764 -0.027758528 -0.0187136 -0.001973323 -0.0044690706 0.022483978 0.0075454824 0.0101302685 0.0029768571 -0.0053895796 0.0093024345 -0.0016392607 0.02836793 -0.011591535
没有 -0.0031392695 -0.0137097 0.0035588779 -0.01836647 0.008200772 0.011583905 -0.017099224 0.0064038867 0.0033880554 -0.004919016 0.0015721305 0.007998821 -0.023406174 0.025256539 0.0022098438 0.005373099 -0.014800635 -0.018904509 0.01309819 0.015657023 0.01195605 -0.011449442 0.017949978 0.016587513 0.016730249 -0.020765116 -0.0036529277 0.008964914 0.0026522987 -0.0015423135 0.0018026768 -0.020251688 -0.008869826 -0.026231637 0.0073017143 0.011251893 0.02451674 0.0057221623 0.005253781 0.003458903 0.023522684 -0.01986533 0.0031427562 -0.007573823 0.00016571343 0.006949198 0.0025497878 0.0022416809 0.0067027467 0.0066112853 -0.0034635754 0.009669943 0.0133363465 0.010431234 0.012794984 -0.0142824985 -0.005497668 -0.001461694 -0.0026556049 0.0026086867 0.008995848 0.009804821 -0.0017557755 -0.01333444 0.0065433388 0.0256266 0.0010301964 -0.010142118 0.018944813 -0.0011529058 -0.0019628704 -0.015040046 -0.0070299646 -0.021361962 0.0030723673 -0.0010610707 -0.012009304 0.008003003 -0.009210319 0.003385858 0.01647815 -0.017499413 0.0054214136 0.0057046246 -0.0073571266 0.00023391854 0.00044068389 -0.022181556 -0.0061912574 0.0015279138 -0.008607563 0.016773934 0.0012254171 0.0046127094 0.0023676497 0.0012516119 0.0048531923 0.0004187239 0.0196945 -0.0044493536
解析 -0.0019357603 -0.010011462 0.008736208 -0.01715072 0.0012951286 0.017334485 -0.018388962 -0.00055131956 -0.0011883774 -0.0016202874 0.0023525427 0.010462452 -0.020089412 0.018926907 0.006428651 0.002949852 -0.011327638 -0.010694102 0.012987376 0.014395846 0.013834323 -0.0059893765 0.018177148 0.018345017 0.015629143 -0.01044945 0.001591427 0.006413692 -0.0028419031 0.0057911575 0.007901641 -0.012753735 -0.007428997 -0.017206278 0.004669111 0.0114118075 0.019541366 0.0027871667 0.0028538066 -0.0015889412 0.02260019 -0.019660033 -3.5263394e-05 -0.0032358563 0.0064705857 0.0103591 0.0017808293 -0.000900761 0.008999473 0.0014907379 0.0022888875 0.0027101184 0.010251178 0.010948852 0.0068894625 -0.0151915895 -0.005473218 0.0010320451 -0.0017363182 -0.0013438637 0.0071586403 0.0031982267 -0.001302873 -0.007305233 -0.0012397511 0.02248027 0.005043964 -0.0052064536 0.010034133 -0.002044155 -0.004130026 -0.0096487375 -0.0029468278 -0.013150108 0.0031386772 0.0055792816 -0.008052052 0.0075667268 -0.0087668495 0.0048269504 0.008390296 -0.0190485 -0.003842423 0.0042233523 -0.0016152202 -0.0008598983 -0.0051570153 -0.020025352 -0.011444851 -0.0009886922 -0.0049813115 0.012738552 0.004224939 0.0020166184 -0.0022347323 -0.0010847133 0.0065469313 0.0012718141 0.017613964 -0.011272339
求 -0.020551667 -0.06359328 0.04539953 -0.11006396 0.021229519 0.08524254 -0.1003021 0.024860892 0.024278253 -0.0038811502 0.028012434 0.07330508 -0.111352265 0.11703766 0.03634275 0.028442254 -0.061992228 -0.10487979 0.07414159 0.08247902 0.061519407 -0.060913727 0.09414592 0.09424699 0.0933904 -0.09431663 -0.014125211 0.023509752 -0.0067308755 0.014783711 0.02801388 -0.098966606 -0.040483598 -0.14233303 0.054715913 0.08282603 0.11209933 0.01628583 0.032872602 0.019418677 0.121864595 -0.102272294 0.025936926 -0.024153976 0.02501091 0.06988707 0.02968717 -0.008261873 0.03823532 0.008503328 -0.003447983 0.04200636 0.058234822 0.07259579 0.054929893 -0.093608044 -0.020744538 -0.013211608 -0.022142123 -0.0052808463 0.026604436 0.0540238 -0.033706695 -0.059969112 0.0097681945 0.12099321 0.019058457 -0.05456125 0.07713106 -0.016641453 -0.013647133 -0.07276694 -0.043524798 -0.09202525 0.037068773 0.02437802 -0.040381122 0.06285461 -0.0613307 0.003464186 0.07036334 -0.12476843 0.009731883 0.033345368 -0.018141003 0.0046874997 -0.014187917 -0.108883776 -0.059592858 0.0057728887 -0.030398963 0.08445694 0.028496249 0.040841002 0.010104054 -0.009186285 0.018536376 -0.0027542412 0.10365016 -0.05114754
看看 -0.006730555 -0.011700178 0.005315546 -0.017998526 0.0059849974 0.014951689 -0.018186815 0.0036668077 0.005152577 4.0671286e-05 0.0014786577 0.010646912 -0.016689003 0.019466767 0.0042306865 0.010109695 -0.012489251 -0.024341764 0.0130635165 0.021109968 0.0072626704 -0.015655758 0.019532507 0.020022776 0.018352615 -0.01512624 -0.0071736346 0.004929764 -0.00092710886 0.006796281 0.0041195764 -0.014032568 -0.010679511 -0.03142611 0.015072205 0.017212946 0.023739086 -0.0006891317 0.0030646336 -0.00073340116 0.02703409 -0.01660607 0.0038385198 -0.0048632976 0.009440221 0.011538131 0.0031925861 -0.0022522022 0.004422993 0.0009790183 -0.00056615344 0.008112029 0.0118179545 0.0136314845 0.013964403 -0.022745913 -0.009105651 0.0018485652 -0.0030863637 -0.003607976 0.0018619504 0.013311512 -0.0015543723 -0.013600478 4.6132336e-05 0.026023678 0.005449782 -0.013664064 0.014260154 0.002269134 -0.006396327 -0.0154503845 -0.007603004 -0.019469477 0.00483947 0.007133186 -0.005652732 0.011385172 -0.015136001 -0.0038211176 0.017791403 -0.023838857 0.003856359 0.005349126 -0.007338876 -0.0029088766 6.0339225e-05 -0.024632663 -0.01213271 0.003960045 -0.0021369443 0.012747901 0.0075866813 0.010738158 0.004503314 -0.0031682584 0.0060083475 -0.0028320327 0.01711014 -0.011566883
我 -0.0307422 -0.088643156 0.06622993 -0.15326613 0.025458876 0.11656988 -0.13147163 0.027475586 0.026389558 -0.0068911305 0.040108632 0.0938437 -0.15276228 0.15241167 0.04929744 0.034807574 -0.07874563 -0.13581444 0.1051833 0.119110495 0.075427905 -0.09001824 0.12210361 0.124669656 0.1350759 -0.12283184 -0.021552918 0.03493121 -0.0020630846 0.019783214 0.04591837 -0.1295532 -0.04665338 -0.19107457 0.077239156 0.10433521 0.15639342 0.01993726 0.049444083 0.019364856 0.1660284 -0.13431303 0.040353917 -0.025101483 0.04015636 0.0892548 0.047261506 -0.015222581 0.06332049 0.020637518 -0.00010002608 0.058464203 0.07561667 0.10484625 0.0817084 -0.12850294 -0.03347495 -0.021482136 -0.026076037 -0.011123108 0.035681427 0.07156598 -0.039731562 -0.081774764 0.022078026 0.16390875 0.030845094 -0.066541746 0.10484244 -0.013484801 -0.015754959 -0.1040969 -0.05491906 -0.12582965 0.056640103 0.02711283 -0.05625358 0.08454088 -0.07700439 0.011205084 0.09491079 -0.17063043 0.009890908 0.04909524 -0.022289447 0.013641105 -0.02737434 -0.14343092 -0.07164534 0.0041051386 -0.040076654 0.11232512 0.035031013 0.058659814 0.014578559 -0.012812011 0.024381964 0.004362961 0.14877026 -0.06896205
